921.000000,1921.000000,136.000000,-51.000000,196.000000,-401.000000,46.000000,564.000000,820.000000,142.000000,-78.000000,2474.000000,-2202.000000,2730.000000,-1594.000000,104.000000,-1001.000000,-272.000000,387.000000,97.000000,-189.000000,690.000000,-306.000000,-1068.000000,222.000000,-247.000000,2407.000000,-1474.000000,181.000000,-3116.000000,-86.000000,1454.000000,894.000000,750.000000,-1179.000000,-1771.000000,-1743.000000,-798.000000,-130.000000,-635.000000,252.000000,-3966.000000,-389.000000,858.000000,137.000000,-2684.000000,-1134.000000,-583.000000,539.000000,-1258.000000,1427.000000,-2181.000000,-1237.000000,-725.000000,180.000000,1314.000000,-1236.000000,-121.000000,-888.000000,2112.000000,1625.000000,1583.000000,977.000000,-145.000000,-1164.000000,491.000000,685.000000,838.000000,-628.000000,-2.000000,-2863.000000,139.000000,-257.000000,89.000000,667.000000,2999.000000,1740.000000,354.000000,262.000000,-150.000000,-568.000000,-1813.000000,-838.000000,908.000000,-390.000000,-1461.000000,1881.000000,77.000000,1195.000000,742.000000,1384.000000,1083.000000,-922.000000,912.000000,-1981.000000,-3382.000000,1529.000000,635.000000,-2238.000000,1825.000000,-449.000000,-1372.000000,1441.000000,441.000000,405.000000,-2813.000000,-425.000000,1799.000000,-311.000000,-635.000000,891.000000,456.000000,612.000000,-3451.000000,-1290.000000,-2612.000000,-2673.000000,1519.000000,-4655.000000,1415.000000,2204.000000,1834.000000,-1774.000000,1283.000000,531.000000,2184.000000,-811.000000,-175.000000
