-0.268054,0.024914,-0.214163,-0.206277,-0.312655,-0.227789,-0.214131,-0.097404,-0.219597,-0.058797,-0.154631,-0.093485,-0.072539,-0.097902,-0.172227,-0.418667,-0.359265,-0.154422,-0.052835,-0.152198,-0.057349,-0.029150,-0.266493,-0.137390,-0.076006,-0.344336,-0.317079,-0.124032,-0.119927,-0.163323,-0.204072,-0.391424,-0.171048,-0.345005,-0.221777,-0.283036,-0.372695,0.020775,-0.163191,-0.229945,-0.086907,-0.186800,-0.213448,-0.104450,-0.090592,-0.430156,-0.290686,-0.125051,-0.210257,-0.200312,-0.364246,-0.331605,-0.337925,-0.378587,-0.249207,-0.125606,0.023090,-0.262904,-0.190428,-0.101896,-0.376549,-0.116846,-0.201443,-0.116437,-0.431589,-0.238657,-0.251881,-0.252480,-0.214677,-0.363532,-0.254120,-0.318221,-0.199911,-0.175646,-0.269740,-0.342291,-0.147393,-0.143521,-0.136938,-0.339249,-0.104637,-0.442308,-0.091994,-0.171416,-0.041838,-0.227886,-0.382034,-0.063184,-0.190299,-0.168762,-0.229048,-0.111407,-0.320412,-0.233486,-0.199614,-0.114364,-0.253848,-0.058971,-0.297425,-0.101279,-0.144364,-0.205732,-0.287630,-0.246738,-0.119829,-0.261553,0.019113,-0.321916,-0.304317,-0.228048,-0.141813,-0.307370,-0.289072,-0.147075,-0.171320,-0.155820,-0.208785,-0.023513,-0.067468,-0.211487,-0.269041,-0.205448,-0.329800,-0.298065,-0.241019,-0.240065,-0.218508,-0.315947
-0.105978,-0.279460,-0.171738,-0.070334,-0.217933,-0.341672,-0.090866,-0.200334,-0.281282,-0.291938,-0.198741,-0.425652,-0.313790,-0.071027,-0.055956,0.058589,-0.522720,-0.197942,-0.193391,-0.064276,-0.078335,-0.255601,-0.176409,0.135824,-0.209327,-0.261128,-0.157995,-0.134480,0.021906,-0.136122,-0.059081,-0.404835,0.132590,-0.178477,-0.158628,-0.139211,-0.362845,-0.254808,-0.105629,-0.032376,-0.118625,-0.230062,0.019055,-0.305048,-0.212555,-0.193652,-0.216426,-0.359465,-0.262182,-0.328400,-0.111490,-0.224335,0.087973,-0.168402,-0.283154,-0.109706,-0.196785,-0.082659,-0.303625,-0.259553,-0.532488,-0.145681,-0.208599,-0.137878,-0.140562,0.029823,-0.120257,-0.096703,-0.081050,-0.102540,-0.027026,-0.019071,-0.197215,-0.027079,-0.115887,-0.188131,-0.234364,-0.157426,-0.156590,-0.120020,-0.303827,-0.197188,-0.018255,-0.011928,-0.308812,-0.405005,-0.394764,-0.126962,-0.114885,-0.182994,-0.340362,-0.341242,-0.119147,-0.195194,-0.318624,-0.283121,-0.170512,-0.120319,-0.173979,-0.112861,-0.334862,-0.441248,-0.158473,-0.186912,-0.285180,-0.362792,0.087126,-0.220316,-0.221097,-0.049619,-0.117703,-0.019435,-0.209581,-0.336508,-0.009482,0.101124,-0.054766,-0.386996,-0.207588,-0.183077,-0.038022,-0.181009,0.077802,-0.427280,-0.114047,-0.148744,-0.245305,-0.132622
0.057739,-0.120377,-0.502988,-0.616298,-0.067646,0.454182,0.166850,-0.951968,0.035132,0.115817,-0.173047,0.368332,-0.081672,0.328143,-0.228762,-0.348799,0.221613,-0.267034,-0.447446,0.062947,0.222501,-0.265030,0.061393,-0.321506,-0.370838,-0.009219,0.035261,-0.365553,0.093486,0.085996,0.229356,-0.269119,0.210480,-0.413505,-0.297314,-0.503885,-0.084715,0.109036,-0.095452,-0.315073,-0.011770,-0.087287,0.262433,0.564805,0.340006,-0.012678,-0.031531,-0.761134,0.422592,-0.212780,-0.347194,-0.151901,-0.221746,-0.189954,-0.047160,-0.430736,-0.076923,-0.214133,-0.502368,-0.420509,0.133448,0.028756,-0.391628,-0.053937,-0.362258,-0.284424,0.765198,0.004965,0.106294,-0.552813,-0.407261,0.418486,-0.019999,-0.522814,-0.169933,-0.103856,-0.102047,-0.487424,0.054664,0.485141,-0.005278,-0.104751,0.299840,0.182201,0.022916,0.363711,-0.192953,-0.009747,0.233328,0.648478,-0.299716,0.047981,0.562199,0.396923,-0.515319,0.167605,-0.230500,0.175560,-0.253071,0.417209,0.012562,-0.844074,0.029137,-0.145441,0.523909,-0.159886,-0.002891,-0.002661,-0.398292,0.327986,-0.208445,0.214683,-0.061069,-0.334209,0.002977,-0.030201,-0.374927,0.682680,-0.102442,-0.129133,-0.256510,0.059047,-0.102748,-0.458946,-0.152225,-0.010775,-0.486029,0.010014
0.881528,0.948422,-0.151096,0.464989,0.869855,0.653717,0.247148,-0.091193,-0.423331,-0.928537,-0.169834,-0.830865,0.350214,0.347139,-0.093600,0.038282,0.388622,0.787957,0.123123,0.032312,0.642860,-0.222001,-0.335704,-0.161762,0.445233,-0.164312,0.419206,-0.014762,0.203169,0.440428,0.490910,-0.633045,-0.227745,0.063093,0.797256,0.292921,-0.655315,-0.179010,0.413609,0.196206,0.424577,-0.030537,0.537387,-0.094096,0.466016,0.414317,0.110806,-0.137304,0.208946,-0.175955,-0.142668,0.717412,0.718425,-0.296793,0.183690,0.442151,0.218172,0.559915,0.472459,0.182986,0.046416,-0.039049,0.171731,0.373801,0.304512,0.623582,-0.103107,0.757899,-0.275474,0.374227,0.389280,0.511115,-0.191224,-0.079186,0.564915,0.187079,-0.281289,-0.479963,-0.204345,0.801630,0.197020,-0.130916,0.482139,0.586542,0.176650,-0.103057,-0.391345,0.279867,0.354569,0.295418,0.171089,0.040411,0.062373,0.205064,-0.353142,-0.336383,0.056920,0.120318,0.479324,0.557255,-0.037084,0.258177,0.295997,-0.007684,-0.449228,-0.035511,0.049921,0.372229,0.554063,-0.100216,-0.109249,0.153655,0.987358,-0.340215,0.004144,0.518323,0.192788,0.131721,-0.171836,-0.460249,0.682200,0.143936,0.237526,-0.350300,0.833076,0.296251,0.004943,0.729335
-0.295479,-0.348823,-0.475240,0.069401,0.065947,0.009202,0.006819,-0.337319,-0.153139,-0.010217,0.787326,0.338451,0.566501,0.000949,0.180948,-0.173890,-0.029333,0.037702,-0.064678,0.426529,-0.115088,-0.112514,0.087246,-0.328401,0.054699,0.048604,0.125076,-0.398104,-0.228046,-0.036258,-0.558741,0.162884,0.110912,-0.004305,-0.285051,0.028702,-0.377063,-0.009962,-0.178445,-0.024875,-0.128976,-0.048851,-0.037353,-0.140422,-0.408482,-0.259567,0.386449,0.243149,0.394295,0.464180,-0.235661,0.151508,-0.141328,-0.107614,-0.091435,0.501793,-0.271122,0.093569,-0.334068,-0.686127,0.339030,-0.377206,0.156294,-0.065186,0.043078,0.314078,0.426102,0.076354,0.406452,-0.267105,0.009871,-0.043477,0.453355,0.145872,-0.056738,0.242971,0.016224,-0.311990,0.579453,-0.008222,-0.193980,0.233853,0.188489,-0.340301,-0.227467,-0.145595,-0.318346,-0.069497,-0.187058,-0.077377,-0.224362,-0.074072,0.301557,-0.096779,-0.288058,0.421772,-0.159558,0.756709,-0.480367,-0.336271,0.528209,-0.174394,-0.112239,-0.688564,0.427113,0.223493,0.400613,-0.202137,-0.015454,0.016587,0.232196,0.088145,-0.135329,-0.485260,-0.200568,-0.252719,0.052207,-0.188715,-0.445674,-0.330098,-0.333185,0.001160,-0.274774,-0.224668,0.135171,0.167202,-0.059299,0.142615
0.500899,0.340564,0.185922,-0.769130,-0.155910,-0.640744,-0.186372,-0.299513,-0.617019,-0.585560,-0.120907,0.341395,0.921488,-0.223294,0.469959,0.061114,1.326382,-0.083161,-0.210847,0.055905,-0.175065,0.841355,0.051916,0.817330,0.402586,-0.245095,0.253502,-0.218856,-0.466161,0.193161,-0.204285,-1.147233,0.211002,-0.331555,0.390373,-0.283873,-1.550991,0.399673,0.128302,-0.546459,0.124673,0.139599,0.210991,1.396751,1.037808,0.542363,0.019640,0.457347,-0.100454,-0.350803,-0.674490,-0.504321,0.198359,-0.353528,0.774976,0.348017,0.134677,0.030750,-0.133475,-0.540570,-0.879497,-0.249220,0.649919,-0.701524,-0.150767,0.236465,1.522153,-0.291761,0.437919,-0.616827,0.478992,0.850113,0.179588,-0.026470,-0.164534,0.711144,-0.325416,-0.072875,0.442870,-0.844172,-0.067242,-0.582912,0.332533,-0.010795,0.114009,-0.125998,-1.428288,0.314254,0.866487,0.564082,-0.574761,0.481659,-0.244811,0.293390,0.042433,0.646046,-1.213359,0.099752,-0.676804,-0.072768,-0.191468,-0.182206,-0.213634,-0.497345,0.661252,-0.714299,0.152936,-0.978510,0.067564,-0.403312,0.100134,-0.772685,-0.108317,-0.513802,0.402642,0.371286,-0.748301,0.747999,0.306965,0.409758,0.060628,-0.265905,0.096930,-0.509315,0.147278,0.182622,-0.833994,-0.713545
-0.217636,-0.145979,-0.346157,-0.367489,-0.102242,-0.121611,-0.294153,-0.296309,-0.210193,-0.089609,-0.142254,-0.562627,-0.286850,0.117152,-0.146350,-0.693938,0.022311,-0.369891,-0.262371,-0.421616,-0.214379,0.094636,-0.071026,-0.028976,-0.356716,-0.602741,-0.207014,-0.448643,-0.381306,-0.064495,-0.309384,-0.628915,-0.035942,-0.782807,-0.348615,-0.278653,-0.550064,0.011616,-0.220087,-0.281681,-0.225660,-0.204848,-0.027768,0.407598,-0.045760,-0.626860,-0.210496,-0.322250,0.152461,-0.212939,-0.304097,-0.509740,-0.554796,-0.075507,-0.264150,-0.227892,-0.185795,-0.503483,-0.338463,-0.528028,-0.841014,0.261197,-0.357383,-0.380862,-0.842467,-0.420593,0.659836,-0.350947,-0.002296,-0.135677,-0.585729,-0.199791,-0.040082,-0.409269,-0.194724,-0.461148,0.115314,0.236412,0.360844,-0.206460,-0.385306,-0.409972,-0.291889,-0.455833,0.035479,0.024726,-0.886858,-0.215691,-0.071940,0.448795,-0.167030,0.098100,-0.065124,-0.119504,-0.171643,-0.160797,-0.470312,-0.089790,-0.169938,-0.181790,-0.442332,-0.610225,-0.163377,-0.114564,-0.079821,-0.211147,-0.007902,-0.411490,-0.237915,-0.149263,-0.575363,0.090221,-0.337458,-0.632686,0.046363,-0.232570,-0.092187,0.341949,0.172232,0.050482,-0.203602,0.004121,-0.382600,-0.418569,-0.076707,0.142266,-0.524377,-0.843166
0.606379,0.763927,0.273998,-0.189015,-0.077687,0.217603,0.044183,0.326715,0.156990,-0.727146,-0.153252,-0.406511,0.569619,0.110295,0.342558,0.351906,-0.495016,-0.232790,0.297815,-0.378208,1.119910,0.616430,-0.644661,0.194500,0.206956,0.752717,-0.290893,0.206126,0.428583,-0.029198,0.672155,-1.328775,-0.674447,0.177590,0.435091,-0.035713,0.081405,0.209108,0.552493,-0.278180,0.790546,0.809804,0.227286,1.514477,1.433629,0.464461,-0.174972,-0.113669,0.277908,-0.960897,-0.400155,0.624097,0.252711,0.667227,-0.251007,0.427368,0.853122,-0.473810,0.375970,1.152816,-0.082400,0.350959,0.426121,0.349451,-0.140059,0.173228,-0.344933,-0.366741,-0.688486,0.199425,0.572058,0.036358,-0.021198,-1.043111,0.193641,0.098909,-0.313754,0.888549,0.336617,0.364179,0.390829,0.876984,-0.254272,1.298230,1.376777,-1.061050,-0.693998,0.229554,-0.230025,-0.544772,0.161404,-0.109928,-0.375198,0.428509,0.105726,-0.829835,0.697302,-0.270522,0.343548,0.623355,-0.846818,-0.366369,0.447411,0.017047,-2.005683,-0.732290,-0.130210,0.711346,1.486385,-0.137954,0.373834,0.394980,0.641304,0.370068,-0.024343,-0.102805,0.543240,0.326425,0.818893,0.439445,0.348775,0.310153,0.623196,0.983968,0.518105,0.234959,-0.435463,-0.027004
0.244314,0.060705,0.216038,0.438493,0.298455,0.209637,0.070674,0.306984,0.293094,0.303480,0.329013,0.160156,0.128470,0.270676,0.163546,0.180995,0.770138,0.200125,0.190770,0.201479,-0.029951,0.165191,0.277132,0.143458,0.259409,0.266596,0.404057,0.105705,0.169036,-0.179133,0.424186,0.298025,0.320236,0.261733,0.061363,0.365626,0.499329,0.167264,0.222452,0.358153,0.123883,0.144957,-0.082839,0.060028,0.028246,0.016222,0.127512,-0.059697,0.300649,0.197214,0.359982,0.223607,0.104246,0.260786,0.003125,0.156930,0.049904,0.219162,0.062687,-0.029541,0.298009,0.289748,0.196533,0.033653,-0.044506,0.159892,0.287269,0.274498,0.104782,0.225670,0.034505,0.102292,0.125471,0.280272,0.097665,0.086649,0.271110,0.329365,0.112464,-0.039112,0.061982,0.306403,0.237943,0.227434,0.312697,0.189650,0.156186,-0.047813,0.235808,0.303002,0.266371,0.445633,0.154964,0.223683,0.169719,0.061674,0.326525,0.041726,-0.175930,-0.006139,0.056831,0.100490,0.173299,0.263202,0.314022,0.081987,0.231775,0.204248,0.003807,0.413250,0.158695,0.437687,0.283720,0.254318,0.035468,0.307581,0.372377,0.262178,0.098833,0.123006,0.274346,0.163616,0.163306,0.457484,0.252760,0.274833,0.147465,0.030506
-0.453980,-0.291576,1.503031,1.001051,0.070967,-0.520981,-0.544693,0.483946,-0.159432,1.014166,-0.247818,0.791031,-0.106390,-1.009745,-0.182211,1.090754,-3.304178,0.570730,-0.100314,-0.697212,-0.846717,0.153471,1.393307,1.379855,-0.064890,-0.744094,-1.351089,0.135681,0.324668,-1.272765,-0.169699,-0.791428,0.605897,1.930995,-0.650183,0.171143,0.789235,-0.374688,0.268707,0.599150,-0.560047,-0.190943,-0.030927,-0.788857,-0.660943,1.209817,0.579488,0.873155,-1.375134,0.826137,0.161797,0.702556,0.205725,2.364579,0.805337,-0.312377,0.664470,0.707768,-0.360962,0.536551,-1.949895,0.721602,0.320289,0.551452,0.027851,0.271648,-0.630779,0.156343,-0.459833,0.653187,-0.096722,-1.562121,-0.182047,-0.267684,-0.404292,-1.179022,0.107772,0.065418,0.050570,0.099338,0.284353,0.601858,-1.157577,-0.479686,0.121316,-0.151402,2.326339,0.100983,-1.974181,-1.535213,0.130034,0.041012,-1.069141,-1.472889,-0.581053,-0.752723,1.132564,0.228992,0.574322,-0.841130,-0.166226,0.249792,0.186069,-0.036225,-1.838314,0.401349,0.647419,0.659340,0.314316,-0.441663,-0.246204,-0.976496,0.710105,0.617811,0.502637,0.350397,-0.240094,-0.708930,-0.087830,0.561931,-0.408839,0.533189,-1.018495,2.268442,-0.243867,-1.328946,0.542947,0.524411
0.209251,-0.131205,0.134167,0.173854,0.059645,0.089491,0.294440,0.036066,0.099511,0.255940,0.126458,0.362229,0.097104,0.237813,0.249186,0.289601,0.461018,-0.215980,0.168630,-0.143167,0.176020,0.144571,0.190586,0.142590,-0.142845,0.100982,0.269749,0.237146,0.173315,0.183270,0.378923,0.130233,0.352579,0.092015,0.282816,0.187847,0.298021,0.220476,0.055129,0.238646,-0.058249,0.165009,0.313982,0.328477,0.331378,0.285280,0.146641,0.185471,0.194505,0.152481,0.065498,0.207482,0.129433,0.342077,0.233075,0.187806,0.284009,0.185872,-0.044648,0.317795,0.359127,0.298645,0.205171,0.158322,0.158604,0.319146,0.306120,0.010601,0.246266,0.108354,0.300991,0.237986,0.123572,0.055234,-0.070907,0.355012,0.281584,0.290835,0.063783,0.061633,-0.011627,0.252901,0.395907,0.195380,0.207580,0.083006,0.354681,0.140854,0.465996,0.139038,0.065841,0.401726,0.454227,0.281909,-0.003277,0.199098,0.331477,0.210703,0.079176,0.295462,-0.046989,-0.086026,0.283503,0.334894,0.262165,0.016099,0.172949,0.337902,0.000694,0.270628,0.260673,0.268308,0.099593,0.253397,0.228248,0.125037,0.214229,0.323128,0.095175,0.166504,0.068487,0.156203,0.188070,0.340980,0.155249,0.152534,0.130823,0.063866
0.086122,-0.705219,-0.174643,-0.376169,0.089462,-0.168827,-0.210570,0.275810,-0.158973,-0.754632,0.191950,0.271375,-0.476384,0.184549,-0.282182,-0.620300,1.003558,0.656933,-0.048761,-0.398910,0.502239,0.134144,0.285371,0.505071,-0.231238,-0.053041,-0.015086,-0.392560,0.753824,0.052070,0.558779,-0.117284,0.146220,-0.758232,-0.006629,0.354241,-0.922660,0.082376,0.305774,0.027723,0.231643,-0.269763,0.217084,0.180463,-0.103172,-0.327625,0.198444,0.076888,0.123978,-0.141467,0.102326,0.210554,0.470416,0.361527,-0.062126,0.249313,-0.148069,-0.616058,0.180305,-0.159503,-0.227912,0.634686,-0.054716,0.080001,0.485115,-0.087944,0.645401,-0.195456,0.231406,0.717716,0.090471,0.063387,-0.282479,-0.146217,0.823407,0.126891,-0.098748,0.038470,0.266289,-0.060366,0.315213,-0.195883,-0.516376,-0.356689,-0.119979,0.969882,-0.422749,-0.605697,0.822188,0.545648,-0.179436,0.365315,1.039756,-1.612999,0.668690,0.317426,-0.132109,-0.379554,0.657993,0.227288,0.171722,-0.167900,-0.278887,0.876373,0.175720,-0.045649,0.318185,-1.384430,0.112356,0.326213,0.549433,0.069420,0.520622,-0.501798,-0.050810,-0.002375,0.370079,-0.026593,-0.069711,-0.464700,0.828690,-0.094214,0.475802,-0.997500,0.351979,0.748854,0.454884,-0.141098
-0.738895,-0.281906,-0.322434,-0.320526,-0.712807,-0.301877,-0.156561,-0.048265,-0.090751,0.022784,-0.128244,0.747128,-0.308085,-0.235888,-0.502449,-0.158448,-0.601528,-0.139951,0.052455,-0.448226,-0.239878,-0.088870,-0.263127,-0.665987,-0.599337,0.286412,-0.342609,0.404419,-0.347805,-0.294665,-0.268591,0.497231,-0.632420,0.128511,-0.018534,-0.008706,0.331740,-0.406492,-0.358678,-0.147349,-0.358898,0.098100,-0.144701,-0.859306,-0.181741,0.165911,-0.410148,-0.365477,-0.806892,0.265213,-0.275758,-0.179152,-0.618508,-0.436022,-0.172684,-0.192972,-0.019562,-0.326606,-0.177373,0.177218,0.257514,-0.557596,-0.292098,-0.405671,0.190484,-0.530272,-1.264367,-0.679841,-0.303374,-0.132402,0.040304,-0.822434,-0.317354,-0.195757,-0.771027,-0.475940,-0.406601,-0.143981,-0.735265,-0.356089,-0.200468,-0.215333,-0.360628,-0.078254,-0.502927,0.038726,0.536006,-0.335536,-0.655601,-0.452415,-0.180983,-0.189662,-0.422175,-0.168640,0.136207,-0.145495,0.117637,-0.726981,-0.102792,-0.349229,-0.294713,-0.167428,-0.257965,-0.247445,-0.209665,-0.410359,-0.639976,0.293889,-0.190709,-0.446626,0.252758,-0.316544,-0.090172,0.455637,-0.660937,-0.376676,-0.148842,-0.228282,-0.399803,-0.529584,-0.482308,-0.491406,-0.318854,-0.086992,-0.436366,-0.700517,0.061532,-0.168430
-0.008166,0.008791,-0.258147,-0.238681,0.027463,-0.098791,-0.444932,-0.051199,0.136585,-0.346804,-0.115906,-0.547046,0.080689,-0.606948,-0.126628,-0.084522,-0.311704,-0.412670,-0.382258,0.139245,0.028565,0.105837,-0.102117,-0.396440,-0.166687,0.194461,-0.227882,-0.130603,0.088380,0.046368,-0.011014,-0.314192,-0.159672,0.049768,-0.041278,0.193464,0.286719,-0.022540,-0.142396,-0.223554,-0.147095,0.053967,-0.447877,0.276358,-0.043234,-0.298931,-0.084090,-0.309882,-0.009883,-0.164123,-0.444267,-0.170734,0.051530,0.041579,-0.034307,-0.228122,-0.347060,-0.199297,-0.364531,0.144974,-0.378106,-0.321904,-0.024687,-0.012148,-0.229905,0.188285,-0.128966,0.010403,-0.363896,-0.301990,-0.073322,-0.076520,-0.097372,-0.421043,-0.014807,-0.279697,0.115104,-0.081278,-0.166313,-0.076647,0.117934,-0.036129,0.062374,-0.058490,0.234562,-0.318034,-0.121472,0.050168,-0.405115,-0.689773,0.168541,0.165080,-0.242119,-0.051929,-0.115368,-0.079788,0.089294,0.147786,-0.368536,-0.119011,-0.151735,0.201873,-0.280209,0.127117,-0.431058,0.181813,-0.168009,-0.507241,-0.127238,0.072759,0.025494,-0.251883,-0.025738,0.337134,-0.018311,-0.389979,-0.028342,0.044926,0.098521,0.066288,-0.155367,0.001209,-0.311200,0.050088,-0.213038,-0.141172,0.143321,-0.058820
0.019580,-0.089321,0.135318,0.030354,0.185372,-0.158868,-0.019896,-0.159660,-0.066313,0.045839,0.074993,0.168627,-0.327834,0.142369,-0.019927,-0.194657,-0.152802,0.064913,-0.001215,-0.275369,-0.088791,-0.120737,-0.026163,0.035005,-0.471317,0.082220,-0.158539,0.227484,0.018123,0.080803,-0.181448,0.038151,0.042616,-0.001856,0.205189,0.005060,0.177075,0.025455,0.001925,-0.001913,-0.012035,-0.021011,0.305081,-0.157502,-0.038924,-0.256835,0.006718,-0.052812,-0.069823,0.050214,-0.232165,-0.386681,-0.148054,-0.195231,-0.093548,0.010939,0.021923,0.038094,0.012622,0.109218,0.116619,0.302661,-0.026733,-0.217762,0.073736,-0.140995,-0.217743,0.015612,0.137613,-0.097481,-0.017546,0.130817,-0.018732,-0.077593,-0.007261,0.001467,0.123900,-0.041591,-0.019789,0.010430,-0.039367,0.327647,0.243224,-0.027158,-0.114619,-0.014313,0.148015,0.071995,-0.011911,-0.019154,-0.187115,0.017587,-0.013245,-0.049295,-0.239922,-0.065004,0.139353,-0.043704,0.028988,-0.126320,0.083108,-0.406622,0.062696,-0.134857,-0.089745,-0.208300,0.082157,0.146020,0.078708,0.007690,0.023554,0.269442,0.149465,0.105512,-0.188832,0.293259,-0.180741,-0.160676,-0.145956,0.209701,-0.217475,0.209329,-0.039505,0.098069,0.012885,-0.113213,0.388494,0.107767
-0.169192,0.296019,0.139591,0.079662,-0.033221,-0.361721,-0.080950,-0.124345,-0.436943,0.121881,0.183548,0.432873,0.054195,0.184525,-0.035828,0.264026,0.139745,0.074945,0.015612,0.296445,-0.185387,0.118051,0.403494,-0.086422,0.027864,0.178878,-0.465242,0.414546,0.188103,0.073149,-0.165146,0.287035,0.080775,-0.089022,-0.102000,-0.294861,0.026117,-0.046174,-0.166020,0.008684,0.118766,-0.136813,-0.069233,0.065798,0.052763,0.314179,0.221902,0.075373,-0.328612,0.180307,-0.259416,-0.239837,-0.005986,-0.088708,0.097684,-0.265251,0.045786,0.106000,-0.210130,-0.065380,-0.063229,-0.091685,-0.019803,0.109613,0.138954,-0.086070,-0.150019,-0.072154,-0.007972,-0.011069,0.240939,-0.036791,0.268060,0.060420,-0.336600,-0.262335,-0.302405,0.305238,0.131279,-0.047292,0.048435,-0.003360,-0.127155,0.121855,-0.266643,-0.198309,0.129253,0.108060,-0.020964,0.366771,0.164245,-0.175640,-0.002466,-0.145414,-0.037596,-0.030495,0.152137,0.045066,0.052917,0.224094,-0.235540,-0.031313,-0.020725,-0.014895,-0.271562,-0.249397,0.038131,0.240292,0.029420,-0.144684,0.041397,-0.379985,0.356934,0.149752,-0.112647,-0.066371,-0.348205,0.220352,0.176273,-0.217642,-0.192384,-0.430997,-0.642933,-0.147811,-0.055998,-0.350571,-0.048989,-0.256339
0.031669,0.073939,0.116871,0.364755,0.260678,-0.008960,-0.032507,0.032091,0.030779,0.133774,0.138556,-0.163008,-0.020477,0.125942,-0.211113,0.045986,0.103007,0.161695,-0.093998,0.100161,0.012754,0.105439,0.057321,0.174115,-0.088131,-0.098773,0.109842,-0.014690,-0.035406,0.117428,-0.482589,-0.072685,0.023407,0.054433,0.277303,-0.018593,0.040289,-0.054895,0.223689,0.160585,-0.000885,-0.158782,0.059073,0.019816,0.124218,-0.169409,-0.136224,0.082065,0.158220,0.164954,-0.198668,-0.313718,-0.277280,-0.038970,-0.080794,-0.117790,-0.203690,0.424864,0.389209,0.180953,-0.088008,0.017221,0.340708,-0.145980,0.119960,0.082056,0.050273,0.017855,0.047151,0.099155,-0.062436,0.065403,-0.160444,-0.027710,0.075711,0.318747,-0.103082,0.106358,-0.117602,0.197103,-0.290390,0.232333,0.162676,-0.003190,0.144276,-0.206763,-0.049271,-0.000059,-0.082346,0.242247,-0.002063,-0.019777,0.107239,0.196842,-0.039240,0.020314,-0.323119,0.181505,-0.153726,0.085472,-0.112431,-0.230608,0.231813,-0.283422,0.147335,0.009717,0.049673,-0.127421,-0.160091,0.530316,-0.195140,-0.079242,-0.309419,-0.116097,-0.373163,0.168412,-0.045914,-0.176195,-0.032984,0.070787,-0.475561,-0.031837,-0.013017,-0.029120,-0.081245,-0.120333,-0.068673,-0.237758
0.252397,-0.099914,0.356117,0.232166,0.264446,-0.025669,0.076663,-0.144431,-0.094655,-0.049671,-0.083009,-0.265593,0.030614,0.053950,0.025325,0.037580,-0.347953,0.169639,0.011746,0.160918,-0.095577,-0.144543,0.006198,0.071068,-0.139894,0.074682,0.321067,-0.152626,0.084414,0.088536,0.137999,0.033502,-0.027088,0.031796,-0.107794,0.072940,-0.022316,-0.122784,-0.061275,0.263172,0.008962,0.050662,-0.038048,0.090162,-0.156701,0.163887,0.164942,-0.040286,0.058658,0.037044,0.129544,-0.002611,0.369432,0.073741,-0.118597,-0.140336,0.198413,0.425484,0.167715,-0.092807,-0.035216,-0.120020,0.220671,0.151764,0.232341,0.215193,-0.133464,0.110828,-0.137188,0.182954,0.221159,-0.035630,-0.105369,0.077079,0.319974,0.123434,-0.290908,-0.077570,0.077961,-0.252185,0.082203,0.280562,0.293872,0.039309,0.263564,-0.072396,-0.066347,-0.038355,-0.011961,-0.233201,0.011746,-0.071175,0.171184,-0.118867,-0.121628,-0.161309,-0.089573,0.163980,-0.340105,-0.254630,0.048989,0.262150,0.028671,0.232082,-0.443090,-0.061593,0.113289,-0.031895,0.240418,0.053446,-0.183608,0.013250,0.404773,0.063914,0.119175,-0.068337,-0.165790,0.092140,-0.150419,0.179759,-0.117109,-0.088726,-0.156346,0.043776,0.301891,0.064144,0.039895,0.187911
-0.116197,-0.018868,0.228503,-0.113049,0.191547,-0.232591,-0.164483,-0.006688,0.084438,0.027025,-0.088044,-0.032520,-0.125534,-0.115725,0.112094,0.068552,-0.225217,-0.080682,0.022086,0.067173,0.009073,0.054692,0.272952,-0.064739,0.078606,0.013664,-0.333796,-0.143353,-0.085665,0.014901,-0.225213,-0.144453,-0.002070,0.277348,-0.008085,-0.073500,0.071956,0.003203,-0.056300,0.018925,-0.033910,-0.178569,0.109564,-0.128825,-0.085053,0.201200,0.119971,0.123848,0.046962,-0.055640,-0.005186,0.012072,-0.040482,0.158307,-0.083049,-0.118632,0.116748,0.226204,0.036475,0.001723,-0.084101,0.118767,-0.017641,0.001390,-0.166835,0.019405,0.101287,-0.152967,0.076438,0.214275,-0.010008,-0.159256,-0.103615,-0.207621,0.024951,-0.152414,0.040922,0.069198,0.120516,0.017818,0.139580,0.118135,-0.054138,-0.019283,0.054262,-0.240856,-0.026267,-0.054990,0.084977,0.046135,0.293456,-0.050167,-0.061489,0.124979,-0.190140,-0.032891,0.103603,-0.073637,0.073209,-0.053677,0.008266,0.221292,0.143176,-0.073803,-0.074395,0.152411,-0.115961,0.176638,0.085705,-0.001217,-0.192801,0.086327,-0.002919,-0.185378,-0.025058,0.009213,-0.118905,-0.247219,0.108394,0.091015,-0.020186,0.028701,-0.017940,0.095622,-0.092408,0.009140,-0.070037,-0.012348
0.053812,0.106264,0.146404,-0.106458,-0.136584,-0.182078,0.071684,-0.104885,-0.081251,0.165541,0.072878,0.091431,0.072444,-0.219934,0.203396,0.219272,-0.045077,-0.014034,0.103579,0.110088,-0.164974,0.087689,-0.070849,0.027003,0.145119,0.056240,-0.225691,-0.012623,-0.050197,-0.083906,-0.165773,-0.118828,-0.068694,0.336057,-0.026462,-0.082487,-0.095702,0.104460,0.079693,0.049410,-0.020328,-0.110392,0.018149,0.145091,0.106357,0.202871,-0.202000,0.291803,-0.216553,0.152758,-0.056995,-0.235576,-0.056791,-0.086778,0.191782,-0.006320,0.058208,0.119053,0.147150,-0.093785,-0.025940,-0.173102,0.125128,-0.162027,0.109322,0.051000,-0.009058,-0.208669,0.172078,-0.055720,-0.011607,-0.025011,0.072505,-0.000287,-0.131367,0.131929,0.127434,-0.114438,0.011142,0.071877,-0.021994,-0.090900,0.169756,0.045507,-0.224960,-0.078952,0.035243,0.019745,0.046967,-0.045707,0.062656,-0.060222,-0.075641,0.067773,-0.051092,0.164874,-0.077579,-0.014765,-0.042224,-0.021665,0.020078,0.200990,-0.077245,-0.208310,-0.134034,0.100746,-0.095975,0.031477,0.003506,-0.015094,0.100453,-0.217472,-0.075631,0.072919,-0.084245,0.052162,-0.077022,-0.133898,0.056755,0.004666,-0.067643,-0.158823,-0.063503,0.219421,0.122687,-0.108757,-0.079037,0.045248
0.014197,-0.276257,-0.085027,0.051491,0.044808,0.140981,-0.096077,-0.139314,0.191888,0.273752,-0.098209,-0.067931,-0.228328,0.257735,-0.271496,0.049942,-0.061543,-0.037059,-0.290360,-0.213208,-0.200927,0.013773,0.117234,-0.145265,-0.024158,-0.108325,0.073367,-0.030946,-0.138421,-0.026497,-0.150745,-0.079301,0.069773,0.193203,-0.025384,-0.109798,0.312462,-0.087468,0.038751,-0.165198,-0.012229,-0.091457,0.013859,-0.081065,0.144446,-0.143255,0.054298,-0.182520,0.252055,-0.012359,-0.005839,0.068709,0.025629,0.187698,-0.168063,-0.133897,-0.116340,-0.004882,-0.167820,0.050893,-0.068971,0.007368,-0.087607,-0.124605,-0.306856,-0.092121,-0.011944,0.144305,-0.032124,0.142965,-0.064073,-0.196433,-0.090906,-0.032333,-0.183105,-0.211212,0.190210,-0.064560,-0.151014,0.115865,-0.074045,0.141267,-0.305074,0.004901,0.085363,0.168041,0.178077,-0.001612,-0.257707,0.100156,0.000256,0.225140,0.136495,0.146971,-0.173869,0.097208,0.113377,-0.267025,0.068834,-0.143713,-0.321777,-0.026684,0.124647,0.306866,-0.092384,-0.088488,-0.305640,0.216223,-0.190286,-0.049284,-0.245720,0.196094,-0.069371,-0.184930,0.005804,-0.154577,0.050636,0.230119,0.073361,0.133199,-0.163197,0.187879,0.102079,0.053082,-0.084299,-0.038881,0.181322,-0.178544
0.002987,0.088644,0.064605,-0.145828,0.107837,-0.128815,-0.179197,0.013116,0.000149,-0.049920,-0.112040,0.000437,0.105127,0.076612,0.000793,-0.157355,-0.035280,-0.183204,0.196231,0.112371,0.068972,0.028696,-0.170901,-0.038670,0.080101,0.109366,0.040881,-0.010949,0.014529,0.142603,0.061966,-0.122264,-0.101531,0.090994,0.112011,0.093409,0.096262,-0.022555,-0.003297,-0.041918,0.128908,0.068244,0.040630,0.091807,0.061468,-0.058417,0.018861,-0.096974,-0.026112,-0.069734,-0.008413,-0.149975,0.029510,-0.262026,-0.077811,0.121439,0.058624,0.126053,0.011119,0.034321,0.140956,0.019112,-0.037559,0.127382,0.023072,-0.093967,-0.163812,0.028793,-0.056765,-0.072668,-0.003600,-0.147620,-0.084640,-0.119768,0.024692,0.188692,0.061015,0.057733,0.067632,-0.024605,-0.027272,0.035975,0.064761,-0.017491,0.045823,-0.251505,0.013231,-0.144979,0.026035,-0.027945,0.214215,-0.140460,-0.110609,0.089420,-0.019451,-0.151691,0.043924,0.011904,-0.016155,0.143526,-0.089437,0.068485,-0.025853,-0.012575,-0.055915,-0.089705,-0.018303,0.083500,0.132816,0.168944,0.039685,0.067978,0.007034,0.072706,-0.115829,0.070562,-0.061701,-0.073170,0.133143,-0.121313,0.040827,-0.084103,0.080862,0.093995,-0.157723,0.046344,0.011039,0.096525
0.079601,-0.366914,-0.036340,-0.083118,-0.131321,-0.095336,-0.250867,-0.120674,-0.032433,0.134793,-0.248254,0.019481,0.343636,0.209941,0.282517,-0.092192,-0.004600,0.246899,0.087359,-0.282050,-0.037409,-0.077980,0.034679,-0.104105,0.163974,-0.379270,0.164679,0.410986,0.057419,0.120594,0.304782,0.086336,-0.003252,-0.088185,0.305141,0.123762,-0.124826,0.056432,-0.138015,-0.117239,-0.182578,0.221091,-0.391185,-0.198868,0.117899,-0.013301,0.077685,-0.121148,0.247242,-0.222643,-0.084645,-0.053466,0.061944,-0.239014,-0.003280,0.377315,-0.078101,-0.080512,-0.286463,0.065719,-0.190992,0.210389,0.469896,-0.176524,-0.026858,0.000806,-0.012560,0.199122,0.143597,0.419891,0.033326,-0.161253,-0.252807,0.091175,-0.010930,-0.383522,0.057249,-0.094815,0.112147,-0.046673,-0.203645,0.007935,0.222086,-0.255707,0.333818,-0.004003,0.019652,-0.115027,0.099168,0.036854,0.137573,0.351131,-0.263368,0.024962,0.112155,-0.164954,0.164413,-0.159328,-0.227140,-0.167588,0.049421,-0.013569,-0.014741,0.237433,0.053744,-0.143316,0.031010,-0.047031,-0.189895,-0.091759,-0.017878,0.017602,0.491048,-0.270505,-0.043037,-0.038730,0.204831,0.109511,0.076639,-0.158013,0.024762,0.083675,0.061875,0.105019,0.086282,0.186522,0.141061,-0.004617
-0.023669,-0.009175,-0.105888,-0.269501,0.104328,0.049553,-0.185904,-0.053096,0.125501,0.101785,0.134885,0.118370,-0.017016,-0.074453,0.043664,0.008914,0.423334,0.040798,-0.103097,-0.014556,-0.136809,0.119690,0.036085,-0.123629,0.166542,-0.164841,0.187283,-0.228305,-0.009603,-0.066062,-0.019128,0.128497,0.078656,0.027331,-0.012553,-0.056386,-0.098517,0.027494,0.038851,-0.012113,-0.170265,-0.077713,0.028800,-0.147672,-0.030066,-0.169374,-0.019158,0.105825,0.009041,-0.019676,0.023772,-0.066470,-0.068033,-0.051584,0.020952,-0.230062,-0.103961,0.113912,0.144372,-0.159631,-0.002968,-0.010108,0.125665,-0.126327,-0.047142,0.053582,0.173124,-0.121066,-0.033681,0.103386,-0.113612,0.219584,0.028416,-0.226336,0.185170,-0.136774,0.181349,0.046652,0.062514,-0.217396,-0.029304,-0.200736,-0.098405,-0.126703,0.034531,0.152422,-0.103475,-0.046595,0.120099,0.307947,-0.013331,0.034932,0.033697,-0.129208,0.095774,0.070971,-0.069693,-0.181683,-0.019279,-0.077584,-0.152458,0.153900,0.002563,0.010988,0.059360,-0.071803,-0.021709,-0.219933,-0.105309,-0.117033,0.051235,-0.154905,0.034382,-0.026102,0.049630,-0.174561,-0.170863,-0.021088,0.044122,0.105549,0.041388,-0.053727,-0.105675,-0.333966,0.044978,-0.081226,0.069083,-0.221337
-0.171034,-0.071451,-0.168901,-0.244411,0.198538,-0.044121,0.116278,0.055311,-0.126196,0.134519,-0.041985,0.220070,0.032889,0.043677,-0.185146,0.161478,-0.118874,-0.117081,-0.186247,-0.155361,-0.136577,-0.075712,0.098174,0.044265,-0.167794,-0.078147,0.047684,-0.103812,-0.127993,0.187380,-0.128296,0.081931,0.087142,0.036915,0.020046,-0.242710,-0.132214,-0.237337,-0.103299,-0.015781,0.253817,0.009278,0.167424,0.000767,0.237061,0.162264,0.138012,0.111753,-0.114375,0.029638,0.015795,0.007895,-0.140662,0.108758,0.278367,-0.264992,0.275544,-0.070897,-0.140442,0.007321,-0.063407,-0.163087,-0.093148,0.061476,-0.005318,0.085313,0.316745,-0.193731,-0.001466,0.198129,0.072231,0.003665,-0.054229,-0.340741,-0.057581,-0.049368,0.144946,-0.013827,0.089505,-0.008373,-0.328896,-0.165261,-0.097876,-0.222652,0.117018,0.395642,-0.061654,0.269702,-0.146857,-0.004359,-0.155630,-0.137851,0.050851,0.001618,0.088448,0.233470,0.142823,-0.073078,0.281194,0.023370,-0.086861,0.130594,0.168182,-0.049961,-0.111047,0.014715,0.072503,0.324204,-0.043193,-0.002915,0.068485,0.027751,-0.077882,-0.131589,0.020427,-0.058458,-0.474365,0.280769,-0.024139,0.056870,-0.024445,-0.161828,-0.052395,-0.295515,-0.203966,0.134007,0.184983,0.068081
-0.062652,-0.057146,0.024102,0.001404,0.100978,0.125475,-0.187289,0.200024,0.132194,-0.083956,-0.161955,0.135353,-0.079514,-0.047066,0.093195,-0.112285,-0.030370,-0.087979,-0.019383,-0.165802,-0.054502,0.031900,0.028692,0.053400,-0.120771,-0.097482,0.003687,-0.122158,0.016069,-0.157043,0.051634,-0.070854,0.079403,0.068596,0.019143,0.119529,-0.013718,0.049858,0.033396,-0.017387,0.006896,-0.049129,0.174615,-0.122645,0.010314,-0.372736,0.021658,-0.060559,-0.089996,-0.000732,0.091937,0.056120,0.024085,0.183676,0.010709,-0.029198,-0.061401,0.083741,0.023420,0.012800,0.002568,-0.003776,0.065873,-0.003352,0.057992,-0.127825,-0.128531,-0.011372,-0.033807,-0.096231,-0.003433,-0.096472,-0.013671,-0.350445,-0.023837,0.069419,-0.088560,0.137903,-0.085674,0.031040,0.039899,0.004241,-0.145784,-0.181911,-0.004441,-0.129165,0.052221,-0.157489,-0.080382,-0.037327,-0.032182,0.042359,-0.022912,-0.016117,0.082624,-0.327985,0.213807,-0.100541,0.124621,0.092676,-0.099888,-0.001364,0.088035,-0.082647,-0.186820,-0.173723,0.058603,0.038482,0.306311,-0.040195,0.128650,-0.023413,0.072792,0.161980,0.003596,-0.162270,-0.012497,-0.119093,-0.173610,0.224477,0.111198,-0.064534,0.115793,0.073467,-0.025562,-0.132380,0.043464,-0.131415
0.134678,-0.063928,-0.088244,-0.131566,-0.005419,-0.219789,-0.082970,0.169300,-0.157957,0.027117,-0.037266,0.165403,-0.044163,-0.077756,-0.013923,0.000764,0.229653,0.054362,-0.012726,-0.184937,0.000860,0.044536,-0.019689,-0.163660,-0.087695,0.180984,-0.111002,0.063907,-0.068223,-0.055960,-0.002992,0.110721,-0.179362,-0.085949,-0.048654,-0.082272,-0.259749,-0.266066,-0.162537,0.027475,-0.123542,0.168789,-0.120841,0.021583,0.161052,0.058572,-0.296482,-0.068581,-0.018682,0.005092,0.096236,-0.118472,-0.085361,-0.069604,0.121900,-0.052682,0.124417,-0.216510,-0.025925,0.036364,-0.024427,-0.075872,0.164978,0.067948,0.000668,-0.067995,0.090496,-0.114226,-0.144931,0.047795,-0.112568,-0.009469,-0.112951,-0.145773,-0.139478,-0.198371,0.014976,-0.086285,0.063284,0.010563,-0.169933,-0.074387,-0.059136,-0.199863,0.039318,0.025080,-0.086856,0.072139,0.305708,-0.106317,0.163549,0.208256,-0.265538,0.205044,0.160516,0.147680,0.151537,-0.241513,0.158721,-0.134570,-0.158928,-0.135988,0.140246,0.012058,-0.015851,-0.211386,-0.127879,0.033141,0.107309,-0.006385,0.135405,-0.025337,-0.063881,0.128661,-0.115456,-0.113460,-0.035833,-0.061138,0.026081,-0.158524,-0.106339,-0.062407,0.202755,-0.144054,0.016034,0.037758,0.063564,-0.149438
0.020628,-0.037818,0.181979,-0.058549,0.059856,-0.001265,-0.083069,-0.119253,-0.016476,-0.052959,-0.116402,-0.090649,-0.054930,0.086310,-0.033878,-0.205223,0.080744,-0.045974,-0.030260,-0.170651,0.166126,0.003259,-0.030462,0.057238,-0.060271,-0.033437,-0.011326,0.054632,0.234215,0.121542,0.010698,-0.210830,0.058346,-0.132178,0.129195,0.003186,-0.150037,-0.085351,0.063615,0.034594,0.226179,0.133365,0.190699,-0.034471,-0.127108,0.061082,0.096068,-0.102930,-0.057012,0.088182,-0.025939,0.077336,-0.122852,-0.033834,-0.020392,-0.043604,-0.052558,0.044268,-0.104330,0.056383,-0.036889,-0.101763,0.023442,0.122823,0.014871,0.099170,0.049119,-0.007761,0.091918,0.084239,-0.037728,0.074694,0.121514,0.015941,0.213772,-0.000944,0.023226,-0.044632,-0.093775,0.138558,0.011998,-0.099694,0.062225,-0.046053,0.119496,0.165538,0.048971,-0.015909,-0.073770,0.025574,0.111184,-0.072662,0.046617,-0.014052,0.049275,0.111699,0.248035,0.030719,0.158477,0.051611,-0.045883,-0.109717,0.101759,0.111231,-0.027861,-0.024176,0.063484,-0.022195,0.002080,0.041037,-0.007385,0.137090,0.018089,-0.127319,0.087706,-0.011234,-0.167137,0.085792,-0.045865,-0.124888,-0.033616,-0.080174,-0.026398,0.096639,0.168115,0.144843,0.078058,-0.084432
-0.041939,-0.004145,0.024003,0.064106,-0.151998,0.082168,0.018936,-0.068706,0.008064,-0.141944,-0.088102,-0.009948,0.170092,0.037432,0.094557,-0.049406,-0.137614,0.057249,-0.011616,-0.012771,-0.004236,-0.202469,-0.141803,-0.027566,-0.073810,0.185993,0.034125,0.017000,-0.001403,0.014009,0.059201,0.088406,-0.164210,0.027479,0.107893,-0.049688,-0.021149,0.043327,0.179804,-0.086804,0.109442,0.082538,-0.021656,0.037459,0.060555,-0.072516,0.007871,-0.155408,0.027997,-0.070447,0.013205,-0.170173,0.069548,-0.212304,-0.025111,0.083645,0.002182,0.071696,0.112569,-0.005390,-0.011658,-0.094884,-0.003645,0.113869,-0.105921,-0.129568,0.079553,-0.144398,0.046074,-0.101324,0.019337,0.005176,0.063139,-0.045312,-0.093956,-0.044453,-0.194576,0.093933,0.080160,-0.132919,-0.064810,-0.104258,0.053801,0.022832,-0.132046,-0.047348,0.069976,-0.103807,-0.031675,-0.055245,0.056664,0.071807,0.124362,0.060412,-0.041391,0.024885,-0.019245,0.018086,-0.136899,-0.118613,-0.127013,0.172493,0.145692,0.006750,0.084857,-0.195740,-0.097175,0.042900,0.007864,0.088978,0.017850,-0.036682,-0.056743,-0.023392,-0.127648,0.069580,-0.087607,0.133857,0.007219,0.053691,0.124535,-0.115284,0.079567,-0.003204,0.177506,-0.094771,0.088372,0.053326
0.082605,-0.046432,0.040199,-0.057607,-0.041028,-0.020777,-0.131775,0.018573,0.147722,0.074690,0.135582,-0.128529,0.079609,0.006116,0.096645,0.132371,0.087090,-0.051209,0.089942,-0.080486,0.089838,-0.030383,0.088546,0.018496,0.031698,0.022760,-0.168639,-0.006743,0.271475,-0.005441,0.003772,0.164539,0.041788,-0.044756,-0.060549,-0.029637,0.093786,0.194262,-0.067539,0.078497,-0.043892,-0.297123,0.120061,-0.053064,-0.107148,0.066916,0.024393,0.150442,-0.161086,0.025824,0.137084,0.091039,0.079172,-0.007444,-0.030767,0.038727,0.075039,-0.108244,-0.195463,0.061412,0.057993,0.073911,-0.098817,0.036894,-0.072845,-0.181908,-0.113415,-0.135368,0.087070,-0.138876,-0.023489,0.114513,0.227130,-0.109060,0.052240,-0.076725,0.022488,0.013242,-0.068366,0.093937,0.152960,0.077682,0.035606,-0.022911,0.155988,-0.079157,-0.080165,-0.163089,-0.039863,0.056733,0.088247,-0.129791,-0.031030,0.098824,0.061482,-0.019685,0.047832,-0.004109,0.066588,0.120398,0.075299,0.041445,-0.271892,0.086252,0.093257,0.045907,-0.035113,0.037897,0.015967,0.131440,0.048444,-0.020140,-0.025404,0.254390,0.096672,-0.252344,0.229496,0.039950,0.025357,-0.074688,0.047735,0.242547,0.023691,-0.024681,-0.081709,0.096462,-0.053674,-0.017320
0.050764,-0.256142,-0.054891,0.036857,-0.011136,0.152519,0.238813,0.078472,0.076964,-0.022738,-0.032753,0.096411,0.005756,-0.058042,0.008398,-0.119413,0.144510,0.009135,-0.044749,-0.014328,-0.037954,0.025025,0.216600,0.056159,0.063137,0.012466,0.103873,0.147631,0.075787,0.088880,0.014785,0.025386,0.035517,0.177772,-0.027539,0.140091,0.185966,-0.063233,0.005284,-0.083174,-0.019720,0.010636,-0.123363,-0.056638,-0.012084,0.003014,-0.218322,-0.032357,-0.047994,0.200601,-0.233836,-0.116113,0.076434,0.187134,0.044537,-0.045101,0.060880,0.020535,-0.126586,0.044393,-0.045545,-0.093428,-0.064683,0.094780,-0.076602,0.074899,0.001941,0.000893,0.181643,0.132181,-0.054592,-0.293623,-0.033638,0.088711,0.007316,0.000395,0.040610,0.029916,0.027354,-0.036392,0.170877,0.096518,0.073435,0.140815,0.143302,-0.078235,-0.096383,0.151337,-0.122269,-0.024705,-0.083011,-0.002476,-0.178299,-0.057727,-0.029440,-0.073716,-0.062807,0.072073,-0.084746,-0.078216,-0.131726,-0.095991,0.032123,-0.018172,0.042895,-0.023092,-0.014227,0.058069,0.234163,-0.036516,-0.080177,-0.091844,0.048825,-0.021852,0.050887,-0.065048,0.178344,-0.053274,0.028758,0.068318,-0.001915,-0.070932,-0.025590,-0.071362,0.033889,0.163988,-0.054333,-0.150264
0.040365,-0.035039,0.232238,0.084014,-0.035711,-0.115718,0.037438,0.040764,-0.090205,-0.120172,0.000991,0.047210,-0.018619,0.026941,0.036307,-0.011924,0.001984,-0.127336,-0.057351,-0.135850,0.036629,0.186789,-0.055044,-0.175620,-0.083523,-0.055427,0.063817,0.085439,-0.169461,0.183499,-0.114501,-0.102774,0.031000,0.034594,0.075885,0.104321,-0.069545,-0.125498,-0.017888,-0.015593,-0.106611,0.126675,0.118273,-0.000114,0.061935,0.121140,-0.059545,-0.147462,-0.027171,0.070709,-0.101503,-0.003256,-0.032935,-0.068643,-0.140645,-0.036329,-0.044070,0.026738,0.058508,0.076451,0.031024,-0.087018,0.123030,0.183776,0.008022,0.060216,0.067059,0.013619,0.156946,-0.113679,0.099172,0.006819,0.180317,0.008806,-0.092311,0.180624,0.009599,0.143123,-0.129046,0.181280,0.044785,-0.074373,0.053827,0.206439,0.169678,0.022813,0.176358,-0.012734,0.002390,0.011382,0.029331,-0.050867,0.043369,0.057959,-0.016890,0.023661,0.106109,-0.052183,0.009502,0.038713,-0.240857,-0.149677,0.114936,0.050540,-0.106885,-0.274040,0.023757,0.248391,0.081969,-0.097373,0.041961,0.123925,-0.064360,0.021331,-0.097620,-0.044084,-0.051878,0.100390,-0.086114,0.071600,0.010727,-0.051998,0.046556,0.015942,-0.094830,-0.050667,-0.093081,0.049360
-0.068412,-0.046459,-0.211879,-0.108366,-0.035083,-0.016927,-0.092242,0.179361,0.181282,-0.075504,0.125463,-0.089366,-0.177441,-0.132392,-0.023215,0.017459,0.029999,0.044118,0.104747,-0.076770,0.030252,0.107204,-0.093549,0.010711,-0.071280,0.091289,-0.047819,0.016498,0.033883,-0.031876,-0.265380,0.084338,-0.096833,-0.033709,-0.152157,-0.015558,-0.034340,0.029183,-0.102529,0.183862,-0.093460,0.052550,-0.123965,-0.103586,-0.263317,-0.201073,0.182702,-0.248317,0.042616,0.124939,0.058666,0.014576,-0.042541,-0.014313,-0.076685,-0.052830,-0.005597,-0.066819,-0.034244,0.075257,-0.039847,-0.066641,0.056618,0.074704,0.054515,0.032130,-0.197917,-0.221286,-0.135705,0.031892,0.061213,0.110885,-0.180968,0.000928,0.095237,-0.195075,-0.131824,0.032768,-0.043778,0.142268,0.009388,-0.050639,-0.172935,-0.072738,-0.019771,0.044737,0.038920,-0.059523,-0.286836,-0.055239,0.024823,-0.000048,-0.076350,0.123769,0.177112,-0.014428,-0.100387,-0.126862,0.240477,-0.181574,0.030477,-0.072061,0.035848,0.006578,-0.004444,0.038096,-0.030041,0.008755,-0.083718,-0.217339,0.091888,0.034362,-0.121900,0.120115,-0.102137,-0.032836,0.010484,0.033949,-0.179233,-0.156707,-0.054186,-0.133210,0.072337,-0.082033,0.044598,0.031492,-0.046395,-0.042546
-0.024380,-0.061089,-0.075414,0.077887,-0.070843,0.064062,0.024109,0.055653,0.040582,-0.044755,-0.055061,0.005542,0.075928,0.018919,0.019230,-0.051514,-0.031002,-0.095827,0.040409,0.059195,0.053103,-0.009182,0.052663,0.093445,-0.004700,0.024731,0.049512,0.039528,-0.072413,0.010274,-0.083671,-0.004583,-0.027984,-0.096293,-0.078709,0.087506,-0.084230,-0.086373,-0.033183,0.073380,-0.086015,-0.086619,-0.038830,0.041795,-0.002240,-0.091782,0.043710,0.065731,-0.077630,0.000279,0.081742,-0.064351,-0.026114,-0.041348,0.026613,0.003130,0.060661,-0.047886,-0.036880,0.093975,-0.084699,0.033895,0.006904,0.061017,-0.029429,0.094213,-0.043697,0.041684,0.090457,0.068394,0.000676,0.020023,0.062949,0.051565,-0.062928,0.058440,0.009288,0.093822,0.002700,-0.001055,-0.074004,-0.057328,0.068576,0.031951,-0.089222,-0.050750,0.039483,-0.084093,-0.010777,-0.010114,-0.074148,-0.094922,0.081551,0.073285,0.033598,-0.066557,-0.039586,-0.073751,0.078476,0.031017,-0.031731,0.010095,0.079011,0.053140,-0.029490,-0.088414,-0.051433,-0.055845,-0.087389,-0.037363,0.095421,-0.060429,0.031338,-0.094172,-0.059206,0.040066,-0.034678,0.070724,-0.012137,-0.096755,0.079488,0.088224,0.011848,0.002038,-0.025019,0.034592,-0.060324,0.087804
0.030863,-0.022183,-0.064703,-0.014997,-0.000178,0.074912,0.066642,-0.046104,0.067448,-0.047593,-0.017817,0.057666,-0.057168,0.088154,-0.012933,0.029121,-0.096810,-0.096174,-0.074271,0.085246,-0.013596,-0.030127,0.007070,-0.029720,0.091258,-0.059723,-0.090312,0.027600,0.061207,0.061281,0.084651,0.020396,0.081669,-0.042956,0.079159,0.028223,-0.048297,-0.093551,-0.010143,0.083209,-0.090190,0.017052,0.083145,-0.030641,-0.007078,-0.091890,-0.015008,-0.078687,-0.074854,0.004439,-0.065442,0.001684,0.018026,0.031172,-0.027870,-0.049103,-0.091972,-0.029553,0.049543,-0.067930,-0.009649,0.035595,0.013517,-0.032837,-0.027353,0.028686,-0.094509,-0.069919,-0.032428,0.034228,0.086682,0.049694,0.021883,-0.038605,-0.020300,0.008999,-0.026263,-0.055792,-0.051354,0.037015,-0.003136,0.048414,-0.050306,0.081653,-0.050458,0.059812,0.028436,-0.074360,-0.014101,0.085316,-0.029254,0.041658,-0.014478,-0.052012,-0.034449,0.072141,-0.021277,-0.046911,-0.076605,0.085613,-0.095768,-0.038029,-0.058671,0.012524,-0.000959,-0.032304,0.086135,-0.023287,0.066748,0.075948,0.068396,-0.022602,-0.096824,-0.006819,-0.095942,-0.089723,0.044681,-0.046087,0.094455,-0.061871,0.081222,0.002789,-0.037716,-0.023602,0.079105,0.027677,0.079256,0.051502
0.016626,-0.004589,0.063528,-0.072489,0.056789,0.011604,0.087464,0.056806,0.047010,0.024284,0.040823,-0.083295,0.059670,-0.094149,-0.045988,-0.042416,-0.071799,0.055995,-0.077745,0.035996,0.085805,0.066035,-0.042261,-0.052524,-0.071260,0.027184,-0.017031,0.085014,0.036560,-0.052097,0.045378,0.080555,-0.076231,-0.061408,-0.070339,0.029273,0.038969,0.028662,0.019476,0.031172,0.071780,0.013653,-0.006689,-0.082743,-0.011784,0.008404,0.077144,-0.041434,-0.016098,-0.029459,0.031105,-0.092003,-0.035851,0.008215,0.037359,0.054161,0.071639,-0.055173,-0.096005,-0.046911,0.008732,0.071587,-0.017751,0.002605,0.088224,-0.069099,0.068645,0.015690,-0.084384,-0.028401,0.018618,-0.001767,-0.077781,0.083096,-0.012057,0.008242,0.026042,0.048193,-0.077592,0.085435,-0.094174,-0.063023,-0.009293,0.090677,0.038628,-0.003214,-0.012251,0.066861,0.092983,0.041947,-0.076248,-0.017794,0.030638,0.035758,-0.014398,-0.011301,-0.032875,-0.097123,-0.066471,0.012913,0.002598,-0.075528,-0.064542,0.066433,0.014504,0.072818,-0.060027,-0.058376,-0.050305,-0.030095,-0.003916,0.087141,0.086990,0.077082,-0.065519,-0.015802,0.053418,0.051688,0.007171,-0.059016,0.079869,-0.083091,-0.071541,-0.021839,-0.083155,0.023758,-0.019396,-0.036680
0.057660,-0.038351,-0.062480,0.077344,-0.064603,0.034245,0.008891,0.051482,-0.040141,-0.059391,-0.061968,0.082591,0.017636,-0.093369,0.057230,0.070446,0.094658,0.056022,0.012365,-0.079278,-0.000716,0.016997,-0.058733,-0.082970,0.076469,-0.073507,-0.095284,0.008698,-0.035863,-0.058283,0.014267,0.083855,-0.060329,-0.073433,0.081645,0.046394,0.012755,0.006014,-0.091988,0.043353,-0.044497,0.029463,-0.036225,0.068475,0.017033,-0.083397,0.075079,-0.015123,0.041709,-0.078266,-0.095720,0.096094,-0.093719,0.017356,0.077132,-0.065629,0.028532,0.028555,0.097038,-0.036121,-0.000616,0.059451,0.013383,-0.001405,-0.061741,-0.088326,0.008669,-0.045415,-0.064421,0.030519,-0.071227,-0.055999,0.050080,-0.081344,-0.065337,0.041019,-0.001800,0.032876,0.063571,-0.046214,-0.081307,-0.016418,-0.033992,0.044081,0.002848,-0.085658,-0.047107,-0.095087,-0.058925,0.069264,0.025501,0.041460,0.097016,0.048852,-0.047034,-0.054655,-0.023638,0.045635,0.047248,-0.009939,0.035602,0.032827,0.068394,0.073349,0.079213,-0.094499,0.059023,-0.070392,0.066494,-0.024691,-0.094212,0.097364,0.095310,0.083957,0.055934,-0.037016,0.064135,0.088586,0.035298,-0.024938,-0.062612,0.039274,-0.086866,0.029638,-0.055549,-0.089506,0.063424,0.092152
0.010449,0.083151,0.058255,0.001036,0.000855,0.018521,0.017601,-0.064310,0.007329,-0.003014,-0.039530,0.046140,0.081173,-0.076255,-0.076467,0.049333,-0.070320,0.054654,-0.025776,0.055986,-0.031109,-0.096830,-0.031628,-0.012746,-0.094997,0.064702,-0.036150,-0.064774,-0.002510,0.016306,-0.053202,0.058349,0.071112,-0.020369,-0.093822,0.091471,0.086314,0.059583,0.036833,-0.049547,0.011449,-0.088830,-0.000700,0.073523,0.090325,0.009197,-0.066777,-0.036622,0.022480,0.012941,-0.095594,-0.071567,-0.040774,-0.012582,-0.071232,0.009577,-0.086027,0.008113,0.001662,-0.031188,0.095161,0.036207,0.016299,-0.033138,0.040465,0.094683,-0.084143,0.046031,0.007563,-0.084305,-0.006765,-0.062337,-0.090217,0.044399,0.036484,0.057204,-0.070230,0.018783,0.006265,-0.066925,0.041360,0.096422,-0.037726,0.094705,0.062566,0.067324,-0.058920,0.004044,-0.006844,0.017368,0.012563,0.086357,-0.009042,-0.044055,-0.050434,0.064604,-0.070596,-0.072756,-0.054395,-0.002063,0.088144,0.008796,0.088065,-0.000551,-0.006979,-0.008921,-0.079729,-0.029932,-0.065855,0.011927,-0.038189,0.035539,0.048507,0.094615,-0.015397,-0.012891,0.031396,-0.012309,0.005225,-0.030517,0.084116,-0.080305,0.095963,-0.081410,-0.047016,-0.081787,-0.021827,-0.059386
-0.043155,0.021409,0.093974,0.038170,0.076244,0.045707,-0.008962,-0.053536,0.090910,0.001389,0.059132,0.060619,0.051231,0.067411,0.070121,-0.089826,0.051555,0.011357,-0.084997,0.007819,0.010740,-0.049752,-0.004599,0.046945,0.047875,0.052390,-0.013291,-0.084412,-0.053447,0.068177,-0.040894,0.048392,-0.033769,-0.068696,-0.071336,0.084322,0.060189,-0.024350,-0.089286,0.043178,0.077314,-0.061523,-0.084645,0.021758,-0.022799,0.061863,0.068336,0.031391,0.010980,-0.055610,0.075934,0.048142,-0.000107,0.073895,-0.036122,0.071253,-0.040717,0.018531,-0.009667,-0.057846,0.052404,-0.007084,-0.064429,-0.034691,0.043522,0.090968,0.067708,0.026242,-0.071326,0.095745,-0.045980,-0.024363,0.047489,0.029702,0.088010,-0.073185,-0.003207,0.044172,-0.069689,-0.055644,-0.008684,0.063623,0.014510,-0.094935,0.003570,-0.002720,-0.090306,-0.001861,0.046235,0.023281,-0.080177,0.037582,0.095726,-0.000630,0.027218,0.041709,-0.071475,0.001971,-0.060615,0.052627,0.070523,0.062730,-0.017336,0.049367,0.054663,-0.094044,-0.084353,-0.006500,0.086543,-0.051679,-0.026243,-0.033509,-0.055485,0.093336,0.082246,0.056071,0.094269,0.011207,-0.015904,0.009611,0.024528,-0.091682,0.018970,-0.011974,0.007907,-0.048355,-0.029744,0.017111
-0.039165,0.161281,-0.046827,0.064484,0.131515,-0.056050,0.004172,0.028014,0.108606,-0.065552,0.036151,-0.043552,0.003369,0.082726,-0.074255,0.066943,-0.076825,0.002940,-0.035343,0.064504,0.010889,0.050478,-0.156499,-0.005929,0.037255,-0.168136,0.023498,-0.074253,-0.043548,0.176272,-0.029295,-0.139405,-0.029750,0.099835,-0.000385,-0.065855,0.025280,-0.049438,-0.057281,0.095574,0.021440,0.176345,-0.170176,-0.190986,0.084630,0.147362,0.166859,-0.039036,0.086569,-0.018164,-0.136275,0.139971,0.055354,0.040538,-0.124480,0.069399,-0.015151,-0.184882,-0.171196,0.051849,-0.103008,-0.083644,-0.014324,-0.007161,0.187588,0.142958,0.167804,-0.176620,0.131539,-0.016341,0.038968,0.147668,0.159471,0.006803,0.019589,0.095723,0.063657,-0.153744,-0.035044,-0.111818,-0.093300,-0.041173,0.024407,-0.100820,-0.000434,0.184923,-0.079403,0.044765,0.068556,-0.199842,0.007103,0.094067,-0.045206,-0.031214,-0.017829,0.242849,-0.032907,-0.027165,-0.078793,-0.353270,0.122485,0.091864,-0.013366,-0.097003,-0.021084,-0.026467,0.047000,-0.257716,0.104096,-0.054697,-0.031815,-0.153534,-0.102257,-0.056875,-0.097996,-0.021836,-0.076744,0.002094,0.078246,-0.102763,-0.005304,-0.039061,0.155730,0.109062,0.045261,-0.169530,-0.009228,0.158794
0.111620,0.002743,0.111424,0.202988,-0.039148,-0.021753,-0.085452,-0.141756,-0.120088,0.101416,-0.004625,0.067222,-0.182469,0.028873,0.077365,-0.145477,0.057741,0.197915,-0.037854,-0.048369,0.134895,0.108245,0.117375,0.130234,0.012498,-0.006308,0.046161,0.075126,0.008996,-0.058953,-0.042758,0.050083,-0.177327,0.170583,0.009780,-0.013663,-0.090123,0.088165,-0.020223,0.002334,0.108292,-0.170314,0.075214,0.018425,0.121310,0.058093,-0.017615,-0.001014,-0.175061,-0.064979,0.064045,0.088217,-0.017215,0.010759,-0.105016,0.026584,-0.063264,0.074256,0.087909,0.120383,0.036733,-0.007619,-0.101412,0.056768,-0.058672,-0.030953,-0.113017,-0.173350,-0.004895,0.052427,0.018769,-0.054751,-0.012110,-0.075246,0.056612,-0.076686,-0.030218,0.035478,0.013086,-0.181014,-0.094681,0.021755,-0.155877,-0.057408,-0.001737,0.107847,0.043395,-0.001531,-0.040818,0.116368,0.118657,0.096155,-0.030693,-0.147912,0.103102,0.033979,0.055717,-0.091298,0.020335,-0.142879,0.056690,0.089183,-0.052106,-0.055218,0.107174,0.022349,0.132646,0.036745,0.063666,-0.074695,-0.034501,-0.021403,0.022408,0.017672,0.034086,0.075386,-0.091310,-0.036375,-0.002765,0.095415,-0.012709,0.059438,-0.090449,-0.139266,-0.066600,-0.022495,0.091720,0.035515
0.114792,-0.023017,-0.003802,-0.072618,-0.122805,0.092972,0.017695,-0.075969,-0.095197,0.076042,0.015940,-0.084671,0.087904,0.173904,-0.124386,0.108032,0.102269,-0.041961,-0.011198,-0.133645,-0.106860,-0.029318,-0.026233,0.076204,0.030853,0.144772,0.123663,-0.073130,0.060802,-0.096852,0.048876,-0.014513,-0.064378,0.083128,0.003840,-0.096671,-0.034811,-0.068059,0.263354,-0.016402,0.093157,0.150459,0.035101,-0.076824,0.024569,-0.112358,0.015641,-0.115802,0.130921,-0.136679,-0.101311,-0.051157,0.070259,0.111831,-0.139327,0.171950,-0.122729,-0.036131,0.036231,0.089252,-0.109605,0.041994,0.097708,0.100485,0.084571,0.094272,-0.095111,-0.058865,-0.058880,-0.086637,0.165735,0.087921,-0.104207,-0.028052,0.026868,-0.007175,-0.064497,0.041527,0.161212,-0.172441,0.012766,0.143692,-0.004894,-0.055191,-0.002493,-0.001910,-0.120247,-0.106012,-0.064873,0.146968,-0.056066,0.107619,0.070005,-0.151100,0.051678,-0.141381,0.019615,-0.034040,-0.077434,-0.102916,0.001803,0.122555,-0.069795,0.088411,0.093126,0.037047,0.099557,0.036480,0.003209,0.007028,-0.159701,0.088994,0.094112,0.031627,-0.024538,-0.011445,-0.051533,0.065043,0.035775,-0.062810,-0.105836,-0.046491,-0.105701,0.036113,-0.058859,-0.139055,0.200572,0.009627
-0.128260,-0.159547,0.081656,0.023169,-0.118611,-0.031460,-0.079327,0.010498,0.030344,-0.100396,0.053422,0.104508,0.124442,-0.237665,-0.012718,-0.182858,-0.131119,-0.141551,0.076242,0.080838,0.081917,0.019067,-0.030941,-0.172071,0.114488,-0.080778,0.025456,0.142968,0.105224,-0.050486,-0.131544,-0.135435,0.019683,0.088230,0.003913,0.013295,-0.070572,0.011538,0.210342,-0.080983,-0.061021,-0.025163,0.030034,-0.083752,-0.006878,0.028982,-0.105830,0.082510,-0.130214,0.059001,-0.081574,0.086304,-0.105881,0.047332,0.071924,-0.098786,0.080300,-0.041565,0.028018,0.254827,0.026409,-0.008255,-0.055243,0.217132,0.091423,0.123101,-0.178267,-0.020384,0.065804,-0.059892,0.009249,-0.097948,0.025575,0.105973,-0.102828,-0.090298,-0.187443,0.074023,-0.153002,0.156139,0.009530,-0.099389,0.014367,-0.006603,0.084847,-0.038546,0.058423,0.072488,0.112534,-0.037169,-0.162746,0.084295,-0.205839,0.008394,-0.015263,0.017256,0.004082,0.172010,0.078940,-0.091785,0.043709,-0.151255,0.062083,-0.267129,-0.037876,0.051843,0.039624,0.027264,-0.021906,0.170165,-0.026014,-0.064999,-0.044054,0.020748,-0.001281,-0.037956,0.031668,-0.168825,-0.047272,-0.025184,-0.022785,0.046919,0.007531,0.131232,-0.224706,0.065344,-0.036829,-0.002403
-0.071214,0.171469,0.084255,-0.050769,-0.223877,0.211851,0.082392,0.072804,0.055078,-0.050865,-0.134297,0.015809,0.166853,0.100925,-0.178666,-0.023683,0.003880,-0.066606,-0.099943,-0.055332,0.125532,-0.039079,-0.043727,0.099618,-0.100077,0.076690,-0.100648,-0.003316,-0.043152,0.028152,-0.091737,0.021104,-0.053406,-0.181037,0.121744,0.012226,0.077362,0.019426,0.166699,-0.053225,-0.133160,-0.093180,-0.090816,-0.002799,0.144081,0.136596,0.090647,0.205398,0.176174,0.079382,-0.232532,-0.033997,-0.165898,0.022712,0.333159,-0.181967,-0.059587,0.223235,0.183658,0.104734,-0.091912,-0.241895,0.067822,-0.042766,-0.016946,0.100974,-0.139521,-0.041424,-0.046247,0.269514,0.087068,-0.011271,0.160183,-0.040877,-0.056495,0.084325,0.126785,0.155234,0.012903,0.032412,0.005740,-0.070934,0.064002,-0.104684,0.008812,-0.070265,-0.031449,0.073487,0.000239,0.090017,0.046549,-0.089807,0.081644,0.084269,0.006313,0.152280,-0.138855,0.287390,-0.038456,0.131943,-0.021490,0.054705,0.073675,-0.152426,0.099194,-0.039865,-0.186122,0.067903,-0.048847,-0.101264,-0.061349,-0.165952,-0.105526,0.031200,0.007861,-0.029665,-0.090966,0.004401,-0.095714,-0.055891,-0.140464,-0.164872,-0.077533,0.048346,0.017638,0.024527,-0.077686,-0.017776
-0.140364,0.094320,-0.022772,0.023667,0.056749,0.029684,0.034203,-0.001027,0.156672,-0.046552,0.182428,-0.039182,0.023697,-0.064237,0.190645,0.058229,0.052835,-0.165164,-0.177371,0.026323,-0.015984,-0.186262,-0.030857,-0.100205,0.018173,0.189357,-0.005693,-0.121263,0.013963,0.135433,-0.006674,0.134957,-0.028848,-0.088372,-0.012253,-0.039057,0.141992,0.169414,-0.069857,-0.007306,-0.015088,0.020148,0.097165,-0.058098,-0.241082,0.036229,-0.008886,-0.044382,-0.113192,-0.019994,-0.018061,0.164607,0.053835,0.045885,-0.016613,0.225601,0.005065,0.068006,-0.106847,-0.084231,0.112306,0.025305,-0.035989,-0.140553,0.007740,0.015448,0.031060,-0.012481,-0.103446,0.091233,0.010583,0.082174,0.138776,0.006493,-0.008155,0.020037,0.074508,0.056816,-0.115427,0.111030,-0.099305,0.146095,0.057732,-0.117801,-0.156894,-0.075969,0.040246,-0.148977,0.019114,0.117816,-0.050132,-0.059052,0.048729,0.108917,0.081340,0.125549,-0.035696,0.049383,-0.060242,0.059047,0.065683,0.062080,0.024114,-0.005502,-0.005771,0.135656,-0.088499,-0.041513,0.175886,0.070201,0.056064,-0.101226,0.100303,-0.028263,0.011151,0.118313,0.066832,0.041084,-0.179510,-0.061379,0.047327,0.072762,0.117196,0.132223,-0.094383,-0.066599,-0.137262,-0.056197
0.165399,0.182938,0.085042,-0.132418,-0.068960,-0.078289,-0.007177,0.101962,-0.033068,-0.280448,-0.035378,-0.486948,-0.323613,0.083648,0.165555,-0.011064,-0.262076,-0.337218,0.212204,-0.270535,-0.313789,0.285792,-0.271923,0.078473,-0.075000,0.005545,-0.053354,-0.218412,0.184027,-0.225844,0.016000,-0.491451,0.085378,-0.283363,-0.077088,0.046314,-0.066983,-0.072808,0.242542,0.114708,-0.016352,0.150186,0.564237,0.154765,-0.150477,0.087954,-0.013320,-0.125934,-0.014297,-0.088814,0.100649,0.037636,-0.049920,0.056596,-0.149680,0.004001,-0.178384,0.044509,-0.042545,-0.068965,-0.520688,0.358114,-0.066087,0.199342,-0.173619,-0.192140,0.077905,0.203348,0.076348,-0.077630,0.107080,-0.184421,0.204652,-0.162784,-0.067224,0.147528,-0.074005,0.373502,-0.087900,0.122150,0.320043,0.098709,-0.086159,0.182375,0.189167,-0.415179,0.033389,-0.345803,0.021621,0.243386,-0.176180,0.245424,-0.049629,-0.057745,-0.130360,-0.141271,-0.106316,-0.165977,-0.006922,0.187610,0.020306,-0.014137,-0.254548,-0.135097,-0.338207,-0.172765,-0.069154,-0.042911,0.167576,-0.001124,-0.367478,0.116574,0.117024,-0.327499,0.318730,-0.077006,0.292335,0.021167,-0.091107,-0.039477,0.087438,0.076790,0.037521,0.124807,0.097334,0.316899,-0.352363,-0.319279
-0.295895,-0.230539,0.080371,0.090945,0.194124,-0.152995,0.188417,0.005633,0.282654,-0.236928,-0.071909,-0.031796,-0.396172,0.042664,-0.300569,-0.070605,0.148814,0.144292,0.003697,0.140754,0.360541,-0.140962,-0.280215,-0.016534,-0.108179,0.239517,0.127298,0.063756,0.092151,0.181843,0.033685,0.310963,-0.339650,-0.378246,-0.127425,-0.075878,0.047311,-0.122151,-0.065658,-0.143218,-0.010058,0.252219,0.012449,0.065500,-0.266396,0.242019,-0.243027,-0.267892,0.187432,0.071152,0.138394,0.076927,0.193802,-0.038171,0.061049,0.208907,0.174191,0.163582,-0.214034,0.038005,0.593463,0.037543,0.185108,0.191343,0.361095,-0.031943,0.137935,0.176898,0.064323,0.010324,0.272456,-0.077229,0.260596,-0.020099,0.166620,0.253532,-0.340630,0.085242,0.181248,-0.003772,-0.137739,0.337324,-0.207454,-0.318373,-0.196382,0.137097,0.085623,-0.166962,0.061487,-0.003654,-0.031218,0.174279,0.329848,0.054505,0.160643,-0.093281,0.207070,-0.202289,0.183715,-0.093272,0.385516,-0.029599,0.428324,0.556830,0.315293,0.157396,-0.242895,-0.133779,0.059391,0.124686,-0.242383,-0.042801,-0.069344,0.174432,-0.214752,-0.240114,-0.091640,0.256878,0.024068,-0.025967,-0.349315,-0.169687,0.383877,-0.499932,-0.190744,-0.110584,0.724299,0.168782
0.051154,0.036292,0.195681,0.239479,-0.337701,-0.370614,0.000219,0.038223,-0.134828,0.240912,-0.240607,0.182761,0.149079,0.183089,0.116180,-0.217783,0.378120,0.226093,-0.211888,0.246849,-0.201099,0.004586,0.048594,-0.109690,-0.216594,-0.067552,0.046763,0.186574,0.277784,-0.150045,0.055971,0.001562,0.131633,-0.005123,-0.149757,-0.296884,0.187734,0.008580,0.231914,0.065539,-0.032718,-0.055406,-0.256550,0.123555,0.076830,0.170558,-0.169194,-0.133993,0.025368,0.173571,-0.483104,-0.267350,0.003625,0.091561,0.405313,0.118461,0.180024,-0.101266,-0.268604,-0.085608,-0.091207,-0.185375,0.546852,0.113770,-0.121236,0.068178,-0.012736,-0.091320,0.055002,-0.323942,-0.097235,-0.326295,-0.088810,0.133766,-0.276308,-0.099605,0.103711,0.139217,0.157044,-0.536177,-0.212340,-0.076294,0.070048,-0.218573,0.230205,-0.135812,-0.234726,0.116044,0.223678,-0.227561,-0.072132,0.087697,-0.357028,-0.076594,-0.286966,-0.032009,-0.167748,0.157631,-0.181237,0.019777,0.261319,-0.057086,-0.341926,-0.385125,-0.057187,-0.532345,0.053773,0.104182,0.087589,-0.214794,-0.161573,-0.117169,-0.176747,0.145595,-0.016627,-0.095160,0.076807,0.177646,-0.302566,-0.111231,-0.083664,-0.120528,-0.341707,-0.031218,0.136139,0.327535,-0.096562,0.010633
0.032114,0.093029,0.037045,0.186519,-0.016300,-0.170284,-0.001893,-0.041646,0.252583,-0.055657,0.082417,-0.061031,-0.251592,0.095651,-0.028967,-0.066632,0.111963,-0.381974,0.313339,-0.189257,0.223699,-0.050469,-0.064184,0.141965,0.098869,-0.027145,0.185082,0.243510,-0.088869,0.240721,-0.357199,0.119365,-0.426891,0.147361,-0.113613,-0.117163,-0.139447,0.237649,0.379426,-0.304794,-0.235386,0.096823,0.164766,-0.042593,-0.271254,0.069461,0.226852,-0.054435,0.255866,-0.181232,-0.094958,0.058042,0.080806,0.207656,-0.095921,-0.342672,-0.020250,-0.066449,-0.184980,0.332579,0.031930,0.208299,-0.058602,-0.146239,0.275948,-0.313299,-0.087630,0.056346,-0.086718,-0.090639,-0.079253,0.311683,-0.037263,-0.062940,0.171645,0.301311,-0.181628,0.077838,-0.268790,0.035967,0.354856,0.217274,-0.062182,-0.008299,-0.020139,0.012833,0.164666,0.223117,-0.050390,0.090487,-0.141452,-0.090747,-0.057449,-0.189708,0.062255,-0.188055,-0.203137,-0.122438,0.113116,0.019295,0.220213,-0.238737,0.240584,0.109457,-0.066898,0.169840,0.352196,0.103750,0.052983,-0.242784,-0.202347,0.064199,0.164028,-0.117944,-0.078058,-0.000813,-0.268439,0.030886,0.101578,0.069198,-0.022289,-0.073071,0.260848,0.129926,-0.246018,-0.351187,0.180750,-0.118083
-0.351226,0.019753,-0.194929,0.092301,0.279142,-0.028934,-0.003658,0.294423,0.267137,0.303426,0.194811,-0.069069,-0.030123,-0.262285,0.049781,-0.166602,0.103352,-0.136909,-0.151499,-0.125279,0.062730,0.249740,-0.115947,-0.098656,-0.171422,0.047260,0.165869,0.072052,-0.056523,-0.209892,-0.146327,-0.100166,0.205825,-0.017471,-0.037321,-0.315742,0.352480,0.159561,0.005388,0.381728,0.129947,-0.118475,0.023518,-0.080586,-0.245243,0.139520,0.077542,-0.105801,-0.039391,-0.176861,0.204575,-0.079508,-0.171418,-0.138998,-0.028800,-0.286342,0.074695,-0.146336,0.309519,-0.243886,0.040150,0.125258,-0.026334,-0.108971,-0.109581,0.090470,-0.121186,-0.212141,0.084284,0.097280,-0.111574,0.009801,0.136121,-0.042759,-0.334629,-0.159097,0.224179,-0.195373,-0.100746,0.028575,-0.219974,-0.106994,-0.197499,0.057926,0.025680,0.132515,-0.070181,-0.011603,0.173186,-0.153965,-0.044954,-0.167416,0.314351,0.043508,-0.215423,-0.204483,0.138535,-0.158905,0.323409,0.300792,0.091876,0.053576,0.184381,-0.260933,0.071714,-0.074474,-0.345963,-0.057078,0.100091,0.106513,0.015672,0.107559,0.162017,-0.279016,-0.059598,-0.051933,0.191615,0.132604,-0.077869,0.233997,0.191449,0.141168,-0.144293,0.138355,-0.260097,-0.020820,-0.308031,0.288745
0.171682,-0.005574,0.061373,-0.014786,0.053820,-0.189385,-0.188058,-0.127100,0.009893,-0.027862,-0.126011,-0.187803,-0.088222,0.195653,0.111883,-0.227479,-0.302365,-0.274295,-0.105242,0.068924,-0.288201,0.128850,-0.153544,0.086049,0.175692,-0.107262,-0.055152,-0.394579,-0.019466,-0.155126,-0.015687,-0.374519,0.026188,-0.032079,0.100328,0.178189,-0.261204,0.200295,-0.102766,0.048117,-0.068230,-0.115242,0.109737,0.068449,-0.026303,0.191438,0.180245,-0.247893,-0.150198,-0.156536,-0.240093,0.208514,-0.159585,0.099371,-0.277620,0.105668,-0.292192,-0.084597,-0.043423,-0.155187,-0.485438,0.166356,-0.038412,0.170705,-0.120712,-0.137165,0.121078,0.075651,-0.042385,-0.135817,-0.055084,-0.122337,0.011455,0.126957,-0.172920,-0.167777,0.005824,-0.091269,-0.099027,-0.009177,-0.076824,0.032335,0.050888,-0.003302,-0.163175,-0.206002,-0.022662,-0.132733,-0.091671,-0.029414,-0.247720,-0.002877,0.009792,0.077605,-0.305736,-0.101563,-0.248528,0.087538,-0.145493,-0.073468,-0.149365,0.027341,-0.110361,-0.144411,-0.248818,-0.334050,0.021206,-0.082843,0.010891,-0.165038,-0.161277,0.114677,-0.391724,-0.297429,0.079981,0.042852,-0.149033,-0.056346,-0.162194,0.049491,0.029715,0.327660,0.073543,0.220475,0.084842,0.142416,-0.314022,-0.319146
0.079995,0.024193,0.073435,-0.080988,0.081924,-0.018925,-0.073392,-0.001832,0.057638,0.065021,0.063027,-0.009920,0.044710,-0.033869,-0.012288,-0.077075,0.028393,-0.026351,-0.043473,-0.043896,-0.020298,0.081134,0.011617,-0.040729,0.068125,-0.097047,-0.078971,-0.091573,-0.065195,-0.067214,0.018358,0.056418,0.068684,0.070361,-0.035704,-0.085155,-0.087225,0.067813,-0.013179,-0.092234,0.004423,0.028097,-0.064790,0.013781,-0.068544,0.070666,-0.089564,-0.076235,-0.004065,0.065329,-0.009010,0.043266,0.086093,-0.037271,0.048250,0.026716,0.090985,0.086895,0.077249,-0.018223,0.031674,0.087186,0.044278,-0.027574,-0.029233,-0.012317,0.016790,0.068085,0.026932,-0.042999,-0.007466,0.067725,0.022204,0.010019,0.081269,-0.018435,0.081815,0.027598,0.015401,0.063334,-0.025014,-0.081030,0.050177,-0.026648,-0.070445,-0.037966,-0.025610,-0.029020,-0.086005,-0.065456,0.020811,0.091355,-0.043585,0.007873,-0.004581,0.016536,-0.070839,-0.085049,0.000300,0.041244,0.089370,0.003539,0.062578,0.062862,-0.080779,-0.056349,-0.043811,0.094816,0.066779,-0.027228,0.026300,0.030442,-0.092714,-0.023390,-0.021461,0.051022,0.038033,0.029793,-0.063185,-0.096725,0.003053,0.082323,0.091687,-0.074971,0.009838,0.044905,0.096158,0.051760
-0.014931,0.042164,-0.070508,-0.066157,-0.063319,0.012861,0.018180,-0.069503,0.024351,-0.067061,-0.092773,0.048033,-0.064347,-0.069059,0.033128,-0.022966,-0.019519,-0.026174,0.061798,0.016811,0.063089,0.030069,-0.008505,-0.050355,-0.041807,0.089536,-0.050052,0.057521,-0.037630,0.045108,-0.050520,-0.012749,-0.085963,-0.003612,0.072467,-0.063130,-0.072994,-0.049953,-0.056394,0.096055,-0.070532,0.003859,0.004975,0.088800,0.051450,0.084231,-0.004781,-0.053831,-0.069163,-0.025627,0.038039,-0.049658,0.064178,0.049188,0.003283,-0.008741,-0.091100,-0.053321,-0.065941,0.040826,-0.095736,0.077063,0.092420,0.036532,-0.045198,0.075217,0.013062,-0.074584,0.082416,-0.096767,-0.026827,-0.096677,-0.034775,-0.012577,-0.072840,0.061100,-0.090770,0.016134,0.036011,-0.001492,0.054276,0.034680,0.017224,-0.016824,0.093329,0.040807,-0.058116,-0.029635,-0.041169,-0.064729,-0.007999,0.076932,0.015731,0.005968,0.035461,-0.058486,0.028982,-0.006947,0.068920,-0.078572,0.030864,0.034331,0.065549,-0.009602,0.086352,-0.093114,-0.014224,-0.055117,-0.061564,-0.078906,-0.032599,-0.070375,0.050691,-0.091116,-0.047674,-0.097014,-0.055389,0.073420,0.067695,0.064999,-0.075796,-0.086717,0.063210,0.028579,0.038141,-0.083316,-0.068311,0.000968
0.032735,-0.016828,-0.015581,-0.058072,-0.042056,-0.001405,0.088228,0.043047,-0.065377,-0.011203,-0.056571,-0.042144,0.037040,0.054400,-0.089757,-0.053723,-0.046102,-0.039454,0.024700,-0.085341,0.073920,-0.078325,-0.029854,-0.000981,0.027616,0.093391,-0.020069,0.073377,0.003284,-0.086553,-0.026368,-0.079990,-0.052999,0.069354,0.067758,0.038599,0.015892,0.070337,-0.025243,0.095685,-0.059503,-0.024291,-0.086248,-0.019042,-0.077630,0.083571,0.088588,-0.010418,-0.018001,0.059427,0.001133,0.025769,0.074412,0.082399,-0.079743,0.022270,0.051766,0.062480,0.096791,-0.010430,0.082152,0.042298,-0.025293,0.069794,-0.047729,0.095094,0.075133,0.030646,0.042311,-0.041387,-0.035106,0.089343,0.082500,0.051071,0.011801,0.056804,0.085157,-0.020982,-0.090752,0.033502,-0.042259,-0.021449,-0.022305,-0.034451,-0.032605,-0.065301,-0.078829,-0.071459,-0.061359,0.010100,0.088130,0.015289,0.057381,0.057013,0.088752,-0.065401,-0.067146,0.037493,-0.068996,0.016735,-0.093345,0.014251,0.015097,0.052350,0.007369,0.085660,0.088130,0.033391,0.065133,0.086080,-0.000746,0.066799,-0.058554,-0.085856,-0.066148,-0.055848,0.037215,0.079188,0.032627,0.095556,-0.078841,-0.003747,0.051486,-0.030105,-0.009032,-0.030118,-0.000398,0.069381
0.054975,-0.056034,-0.041056,0.076012,-0.093665,0.066209,-0.037339,-0.032308,-0.088496,0.090743,-0.097495,0.094777,-0.037370,0.031372,-0.046983,-0.084982,-0.062763,0.023887,0.002371,0.009523,-0.024231,-0.021283,-0.048953,0.017876,-0.077232,0.063191,-0.059068,-0.051783,0.018911,0.054126,0.008661,-0.080061,0.014500,0.041259,0.068521,0.000127,0.025668,0.014864,0.005064,0.006084,0.056042,-0.058439,-0.079601,-0.048715,0.062408,-0.019869,-0.082137,0.040592,0.050047,0.074354,0.040233,0.083326,-0.025299,-0.034846,-0.069493,-0.076473,-0.009263,0.042997,-0.026237,-0.095115,-0.085287,0.054948,-0.032992,-0.023183,-0.070657,0.006328,0.074114,0.067713,0.029275,-0.095766,0.041309,-0.064190,-0.005279,0.024931,-0.012373,-0.052863,0.025047,0.047559,-0.046808,0.054012,-0.092877,-0.018904,-0.023883,0.090163,0.094649,-0.014270,-0.025390,0.095333,0.080593,0.077744,-0.031931,-0.043173,0.095370,0.093892,-0.004542,-0.031779,-0.031851,-0.062171,-0.082578,-0.004007,0.045044,-0.075229,-0.076206,0.003181,-0.018761,0.036052,-0.003356,0.029597,0.004166,-0.076894,-0.035440,-0.047810,0.061859,0.007395,0.061841,-0.069437,0.060858,-0.044178,0.091356,-0.047012,-0.079227,-0.094164,0.058429,-0.095603,-0.029272,0.027010,0.066035,-0.003628
0.083831,0.004462,-0.097162,-0.045571,0.097497,-0.031604,-0.065631,-0.043106,0.044218,0.080890,-0.052171,0.016414,0.050672,0.037479,0.003592,-0.079051,-0.016947,0.093049,0.013742,-0.035424,0.072575,-0.075888,0.039654,0.058915,-0.085563,0.010498,-0.094873,-0.032761,-0.033235,-0.069826,-0.072041,-0.015814,-0.000759,0.048366,-0.039329,-0.071278,0.089445,0.051587,0.082227,0.073050,-0.064616,0.065417,-0.001108,-0.037811,-0.094304,-0.010782,-0.041507,-0.036818,0.053281,-0.006868,0.034586,0.081719,-0.022443,-0.020333,-0.044346,0.074731,0.011946,0.044493,0.078687,0.076502,0.030472,-0.022037,-0.052091,-0.046148,-0.056248,-0.059986,-0.016033,-0.033777,0.068754,0.049972,0.068185,-0.085286,0.023687,0.044898,0.040056,0.057334,-0.056611,-0.064423,-0.056113,-0.086145,0.039919,-0.026471,-0.016603,-0.039186,-0.087147,-0.069189,-0.087314,0.065258,-0.045168,0.009214,0.034958,0.016663,0.028341,0.012832,-0.021955,0.012596,0.094828,-0.069528,0.070559,-0.010467,0.071093,-0.042363,-0.020423,0.029275,0.092973,0.049091,0.002592,-0.024112,0.081304,0.010007,0.059182,-0.004115,-0.062730,0.063405,0.029410,-0.061773,0.048269,0.079068,0.058877,0.025779,-0.016823,0.038716,0.070136,0.031380,0.091647,-0.096932,0.008267,-0.090709
0.033652,-0.061195,0.059971,-0.052545,-0.087519,-0.035730,0.073972,0.016478,-0.014824,-0.064299,-0.079302,-0.039947,0.013160,0.069360,0.032809,-0.044501,0.037768,-0.012639,-0.085622,0.078172,0.093776,0.052248,-0.014631,0.050928,-0.033296,0.093097,-0.002373,0.058354,0.007068,-0.001214,0.011128,-0.092482,0.078593,0.011529,-0.065984,-0.029837,0.056318,-0.025820,-0.090591,0.007445,0.073133,-0.067249,-0.060873,0.043543,-0.051359,-0.036916,0.040805,0.057865,0.053459,0.003946,0.053925,-0.071951,-0.090065,0.040959,0.008966,0.048053,-0.092484,0.081938,0.094301,-0.060670,-0.031147,0.009807,0.020645,0.041617,-0.058649,-0.032846,-0.011502,-0.035183,0.039011,0.063359,-0.040428,0.062261,0.024194,-0.020176,-0.057201,0.093169,-0.061279,0.027029,-0.013332,0.031660,0.094123,-0.058281,0.079209,-0.049449,0.001526,-0.027005,0.063256,-0.003212,0.028859,-0.024888,-0.049862,-0.037373,0.024615,0.029123,-0.039801,-0.088758,-0.069077,0.096703,0.058580,0.070488,0.088670,-0.058520,0.037972,0.023591,0.077644,-0.090796,0.091990,-0.000552,0.080078,0.068277,-0.031288,0.097491,-0.012094,0.023884,0.050021,0.022421,-0.048087,0.018869,0.079646,-0.014631,-0.087280,-0.081697,-0.097293,-0.000313,0.039899,-0.027200,-0.085253,-0.023012
0.082642,0.094274,-0.279615,-0.063889,-0.135823,0.184987,0.010466,-0.132045,-0.000247,-0.107112,0.038859,-0.018866,0.009762,-0.020504,-0.124092,-0.010921,0.146287,-0.117553,0.038249,-0.143449,-0.100594,0.069872,-0.051978,0.068870,-0.239780,0.028454,-0.033333,0.184811,0.075476,0.043991,-0.290198,0.115435,-0.255067,-0.210289,0.131068,-0.082621,-0.124716,0.180671,-0.132671,0.002590,-0.123790,-0.021770,0.138885,0.159028,0.021109,-0.118516,-0.096933,0.106440,-0.020199,0.040920,0.006701,-0.106293,-0.203568,-0.051391,-0.003609,-0.147652,-0.060920,0.024140,0.061060,-0.095488,0.067782,-0.004884,-0.044348,-0.006273,0.033590,-0.189027,-0.050491,0.166234,-0.186031,-0.023801,0.074320,-0.044171,-0.026547,0.151668,-0.149206,0.047121,-0.217429,0.228185,-0.011831,0.238989,-0.083987,-0.000569,0.001345,0.044922,-0.025712,-0.010950,0.008457,-0.040913,0.096706,0.122885,0.138684,0.037659,-0.065889,0.230975,0.110554,-0.073732,-0.221962,0.025195,0.031174,0.175884,0.168411,-0.077827,-0.042748,0.119099,0.016870,0.043116,-0.075768,0.074654,0.100919,-0.178497,-0.176260,0.050344,0.027259,0.144368,0.064772,-0.059565,-0.005120,0.120056,0.186769,0.036287,-0.172812,-0.137690,-0.088384,-0.043800,0.097918,-0.099464,-0.076458,-0.226088
0.047965,0.208526,-0.089716,-0.096193,0.127795,0.067005,0.042313,0.268236,0.112254,0.057729,0.071030,0.049690,0.026590,-0.114283,0.116068,0.128777,-0.183979,-0.062202,0.057366,-0.048917,-0.117102,-0.062203,-0.095315,-0.020407,0.085214,-0.054219,0.095311,0.069990,-0.104610,0.032784,0.076759,0.242158,-0.076732,0.159485,0.070336,0.085578,-0.011457,0.033832,-0.222058,0.034550,0.018755,0.238862,0.017253,-0.022078,0.056236,-0.047097,-0.022726,0.052921,-0.022032,0.125603,-0.049441,-0.046078,0.156071,-0.145462,-0.045964,0.199133,0.086164,0.141214,0.122649,-0.062479,0.061518,0.010397,-0.120591,0.060788,-0.043884,-0.022611,0.006690,0.004789,0.019890,0.025048,0.018499,-0.220636,0.060706,0.136692,-0.154011,-0.091719,0.112061,0.007653,0.117763,-0.071523,0.003105,-0.078881,0.081593,-0.008829,0.030597,0.010132,0.061306,-0.197940,0.031727,-0.027307,-0.042084,-0.091378,-0.063561,0.095174,0.041079,-0.129527,-0.112528,0.042569,-0.132241,0.159939,-0.084069,-0.062251,0.099309,0.106949,0.133108,-0.092329,-0.255510,-0.020088,0.191685,0.028018,0.045206,-0.093985,0.035152,-0.048428,0.078691,-0.063594,-0.187276,0.036111,0.058963,-0.013968,0.004780,-0.044148,0.015799,0.110034,0.189055,-0.089166,-0.048122,0.049313
0.225804,-0.028580,-0.014942,-0.000509,0.101354,0.007546,0.088364,-0.014520,-0.055912,-0.140986,-0.123925,-0.073727,-0.058467,-0.169631,0.018671,0.224381,-0.178665,-0.044549,-0.033172,0.082277,-0.173999,0.037958,0.200296,0.082689,-0.092048,0.138408,0.142722,0.059900,-0.023480,0.130501,0.007357,0.125827,-0.076642,0.080369,-0.085784,0.084283,-0.033347,0.085558,-0.198973,0.156927,0.124851,-0.151904,0.087023,0.240958,-0.186154,0.008178,-0.114826,0.090908,0.079487,0.139853,0.071789,-0.221172,0.083505,0.171279,0.005786,-0.280653,-0.004696,0.028406,-0.015448,-0.026865,0.026007,0.090248,0.024002,-0.004563,0.194902,-0.141770,-0.053499,0.090809,0.049762,0.018532,-0.006760,-0.004932,0.034001,-0.061175,-0.093604,-0.241688,0.102014,0.221767,-0.204435,0.155854,-0.075651,-0.112189,-0.019483,0.111020,0.017610,-0.005725,-0.148956,0.137233,0.063042,-0.081243,0.148383,-0.028046,0.008147,0.063087,0.224188,-0.072100,0.058389,-0.287079,0.162649,-0.128267,0.239784,-0.048537,0.040214,0.044803,-0.004034,-0.152599,0.128737,-0.058877,-0.082451,0.009560,0.047715,0.248728,0.100283,0.017993,0.111463,0.024670,-0.044973,0.107792,0.022191,-0.017167,0.094904,0.065135,0.050193,-0.101073,0.147473,-0.063912,-0.050904,-0.160007
-0.002740,-0.064730,0.201927,0.085733,-0.124451,-0.004074,0.042419,-0.091454,0.160774,0.182038,0.035958,-0.122805,-0.040351,0.033325,-0.091471,-0.019549,0.096508,0.057442,0.061763,0.118925,-0.180039,-0.075432,0.088837,0.064307,-0.192845,-0.223315,-0.007467,0.032179,-0.009650,0.000608,-0.025677,0.140317,0.241373,0.062065,0.058820,0.253518,0.075188,-0.069863,-0.071668,0.098980,0.115560,0.006383,-0.015500,-0.047341,-0.114963,-0.176497,-0.020168,-0.076705,0.075255,0.016003,0.029152,-0.000495,-0.082422,0.019070,-0.074632,0.020222,-0.050675,0.010790,-0.113833,-0.077022,-0.069518,-0.072152,-0.160790,-0.048723,-0.173424,-0.139938,0.136581,0.054483,0.134402,0.051513,-0.078015,0.026240,0.129970,-0.038156,-0.023755,0.097708,-0.141639,-0.143451,-0.097249,0.027083,0.026022,0.040398,0.100177,-0.020446,-0.084719,-0.153827,0.129552,0.021759,-0.163955,0.107987,0.103566,0.049571,0.028080,0.080761,-0.087256,-0.197607,0.078311,-0.037197,0.034743,-0.097606,0.013401,0.004592,-0.082675,0.055866,0.015706,0.041387,-0.073487,0.156611,-0.007703,-0.051169,0.048582,-0.128851,0.112736,-0.131913,-0.084607,0.040449,-0.016122,0.035958,-0.140698,-0.113109,0.036157,0.037238,0.130303,-0.157884,-0.047786,0.086154,0.105109,0.026791
-0.163992,-0.058981,-0.074430,0.037223,0.187454,0.189161,0.037274,-0.203466,-0.009084,0.038088,0.044047,0.058085,-0.087163,0.029001,-0.059259,0.001121,-0.021484,-0.033185,0.107900,-0.003375,-0.031411,-0.067233,-0.104681,-0.053974,0.149310,-0.139792,-0.101169,0.102965,-0.102577,-0.057809,0.128952,0.043720,0.040876,0.101253,0.172841,-0.258072,-0.027526,-0.100054,-0.081733,0.029413,0.068533,0.098554,0.046743,-0.165149,0.056973,0.041679,0.039235,-0.105985,-0.016374,-0.068592,-0.067977,-0.292964,0.052191,-0.236885,0.027384,-0.056322,-0.096431,0.038563,0.036643,0.100740,0.271349,-0.068968,-0.017570,0.020150,0.099878,-0.041921,-0.135366,0.019932,-0.069644,0.137348,0.066817,0.015224,-0.069397,-0.010205,-0.104212,-0.033841,0.036492,0.081727,-0.039694,-0.026366,0.025883,-0.030481,0.116157,0.038793,-0.088590,-0.003737,-0.146013,0.261609,-0.198947,-0.000695,-0.006989,0.035288,-0.237384,-0.002738,0.020248,-0.107447,0.036731,0.008487,-0.066629,0.032499,0.098934,-0.022005,0.001470,-0.074464,0.015147,0.193796,0.140045,-0.000427,0.018752,0.065091,-0.128997,0.053552,-0.013174,0.102159,0.141519,0.192027,0.042608,-0.043433,0.130311,0.119989,-0.099998,-0.152893,-0.017275,0.069988,0.112833,-0.000235,-0.070642,0.032795
-0.099449,-0.005446,0.025016,-0.060630,-0.047568,-0.145326,0.034812,-0.030367,-0.072885,0.138712,0.016207,-0.013669,0.054936,0.166516,0.110723,-0.092225,0.029852,-0.066786,-0.060600,-0.065271,0.063776,-0.092400,-0.032654,0.007689,-0.051975,-0.119043,-0.049732,-0.050138,-0.012336,0.036747,0.106218,0.050614,0.015873,-0.013655,-0.190265,-0.053032,-0.022515,0.099526,-0.113281,-0.045941,0.084324,-0.035410,0.071708,-0.188025,-0.082183,-0.089710,0.226899,-0.097282,-0.038669,-0.065439,0.025088,-0.047760,-0.015055,-0.121971,0.119600,0.033816,-0.031175,0.049537,-0.110159,0.141950,-0.077447,0.138324,-0.033542,-0.121307,-0.100753,0.188928,0.047286,-0.070340,0.191873,-0.017690,-0.021663,0.068315,-0.045597,-0.047289,-0.116407,0.043118,-0.127088,0.019133,-0.002659,-0.169209,0.013096,-0.125323,0.253730,-0.254234,-0.051384,-0.046061,-0.141853,0.007504,0.025054,-0.075061,0.095831,-0.113478,-0.024476,0.021253,-0.038372,-0.007871,-0.009390,-0.019877,0.007261,0.161185,-0.071218,0.003717,0.007009,-0.058182,0.140739,0.153248,-0.002535,-0.080737,-0.052613,0.031640,0.021297,-0.062580,-0.025609,-0.111189,0.117655,0.088280,-0.099859,-0.017815,0.121907,0.126617,0.082069,-0.009773,-0.034526,-0.130259,0.057104,-0.103221,-0.019424,-0.001994
-0.187677,-0.137082,0.254038,-0.057870,0.044116,-0.538669,0.179469,0.034855,0.237274,-0.002301,-0.196203,-0.007851,-0.287306,-0.359344,0.015018,0.098607,-0.255026,0.216480,-0.106651,-0.363037,0.006576,-0.289010,-0.141884,-0.047028,0.074457,0.009790,-0.266180,-0.053532,0.008289,0.159155,0.356226,0.167902,-0.299187,-0.219909,0.190492,0.056161,-0.024866,-0.193452,-0.299482,0.161462,-0.080434,0.237825,0.189975,-0.195336,-0.147726,-0.085146,0.257715,0.005786,0.166090,0.020412,0.244677,-0.031614,0.169246,-0.166021,-0.066090,-0.206260,-0.378752,-0.231425,-0.053221,-0.061186,-0.162706,0.139733,-0.166391,-0.136542,0.236854,-0.173196,-0.165850,0.163483,-0.198928,-0.067124,0.107979,0.407461,-0.205780,0.039056,0.051348,-0.430243,0.027588,-0.445925,-0.201999,-0.223576,-0.121830,0.040633,-0.066499,-0.082820,-0.022772,0.161062,-0.024588,0.117093,-0.085685,-0.218015,-0.311913,0.094731,-0.210478,0.273703,0.082530,-0.047206,0.041236,-0.268573,-0.050066,-0.019029,0.214876,0.264591,-0.120063,0.247646,-0.050775,0.274620,-0.225403,-0.165975,-0.307923,-0.229804,0.153330,-0.037783,0.064867,-0.018094,-0.195256,0.002782,-0.076901,-0.111880,-0.420652,0.418831,-0.210685,-0.108957,0.277327,-0.077797,-0.188556,0.065507,0.441041,0.131751
-0.294292,-0.353029,-0.204303,-0.175701,-0.024003,0.025934,-0.024598,0.130549,0.111807,-0.026028,-0.122568,0.212764,0.386745,0.269353,0.043635,0.328457,-0.142768,-0.105669,-0.305360,-0.118157,-0.240490,-0.250442,0.149296,-0.205594,0.086905,-0.463401,-0.081190,-0.083952,-0.361925,0.191834,0.062041,0.152302,0.103534,0.210257,-0.037531,-0.048298,0.160555,0.119252,-0.120080,0.028243,-0.017997,-0.306614,-0.195873,-0.570172,-0.113403,0.057338,-0.092634,0.407515,0.208542,0.359695,-0.027480,-0.044059,-0.162257,0.097534,0.408808,-0.211840,-0.157957,-0.087304,-0.245148,-0.052103,-0.140926,-0.269454,0.007666,-0.059092,-0.085242,0.029999,-0.142187,0.105184,-0.250139,0.095709,-0.079968,-0.262793,-0.096582,0.259039,-0.498254,-0.103460,-0.042847,-0.565315,-0.321199,-0.072884,-0.077923,-0.060192,0.209936,0.243456,-0.223134,-0.302115,0.099327,-0.185122,-0.060039,-0.347647,-0.053229,-0.635702,0.070696,-0.023486,0.099471,-0.038033,-0.292791,-0.113180,-0.152409,-0.216377,0.088315,0.183107,0.200112,-0.363995,-0.154788,-0.182456,-0.064395,-0.225119,-0.135443,-0.065709,-0.270686,0.045790,0.032708,-0.124650,-0.017939,-0.021718,-0.154046,-0.041524,-0.082102,-0.313555,-0.126640,-0.238633,-0.077009,-0.011829,0.045638,-0.141900,-0.147664,0.156406
-0.275127,0.106781,-0.163953,-0.336290,-0.053851,0.190292,-0.012351,-0.241881,0.362423,-0.129134,-0.028404,0.076041,0.045590,0.281843,-0.036691,-0.146046,0.150200,0.043876,0.039347,-0.016058,0.014242,0.218990,-0.047529,0.108452,-0.245252,-0.119223,0.038061,-0.215274,0.202704,0.156462,0.302315,-0.103335,-0.212584,-0.092103,0.021664,-0.088675,-0.038196,0.124381,-0.064458,0.150882,-0.040209,0.017243,-0.128301,-0.271159,0.074018,-0.224898,0.179080,0.055734,-0.049892,-0.075041,0.053946,0.183910,-0.321754,-0.233126,0.164570,-0.143803,-0.099976,-0.254095,-0.020374,-0.163772,-0.112741,-0.010726,0.001877,0.034831,0.128404,-0.180749,0.197342,0.010960,-0.397928,-0.171883,0.344776,0.129822,0.579496,0.039372,-0.383358,-0.004485,-0.063247,0.018428,-0.089518,-0.188796,0.037515,0.060947,0.043319,0.018416,0.015842,0.011984,0.118294,-0.049474,0.344363,-0.058037,-0.045340,0.107025,-0.060182,0.117259,0.026616,0.143676,-0.076545,-0.156299,-0.331130,0.149649,0.159376,0.162049,-0.105308,-0.111482,0.111820,-0.136263,0.061382,-0.240622,-0.139842,-0.126019,-0.191199,0.161964,0.246039,-0.217073,0.038179,0.112392,0.083495,-0.171937,0.079886,0.071721,0.334168,-0.268983,-0.111369,-0.058552,0.050354,0.208735,-0.034928,-0.012377
-0.211283,0.051235,0.286493,0.163371,-0.073129,0.120558,0.066538,0.051569,0.293603,0.239758,0.313832,-0.042716,0.049883,-0.228164,0.246384,0.332725,-0.056390,-0.025036,-0.065465,0.341211,0.019623,0.049071,0.033946,0.113090,0.346870,-0.078401,-0.009684,0.103963,0.148282,-0.086681,0.096233,0.011341,-0.046305,-0.050902,-0.055470,0.286416,-0.183644,0.246360,0.150626,0.099309,-0.240746,-0.111498,0.132344,0.147428,-0.721669,0.327777,0.286874,-0.146195,0.248718,0.082505,0.259803,-0.064140,-0.258790,0.169853,-0.126358,-0.079668,0.163463,0.138008,0.049140,-0.283953,0.170529,0.305189,0.233438,-0.008869,-0.175385,-0.173701,0.036293,0.323748,0.128503,0.129125,-0.042538,0.190801,-0.059180,-0.038136,0.295487,-0.007743,0.209197,-0.071102,0.024574,0.128554,0.140121,-0.291743,0.126706,0.217217,0.158243,-0.093289,-0.060666,0.166233,0.161364,0.067095,-0.173344,-0.269987,-0.110610,0.020087,-0.190566,-0.354777,0.035286,0.201281,-0.217391,-0.052513,-0.113184,0.197081,0.128238,-0.279965,0.018647,0.217249,-0.108993,0.074417,-0.275562,-0.159913,-0.469399,0.019833,-0.380632,-0.131600,0.400512,0.208000,-0.028828,0.309070,0.039338,-0.156000,-0.292375,0.074949,-0.001282,0.198579,-0.102740,0.195558,-0.193797,-0.134305
0.016377,0.178249,0.038302,-0.049611,-0.346562,0.245454,0.473437,-0.090920,-0.015715,0.148084,0.106475,0.081409,0.078413,-0.285784,-0.174567,0.226231,-0.038319,-0.213120,0.078327,-0.219387,-0.054556,0.053244,0.170411,-0.047331,0.049070,0.102304,-0.273354,0.199138,-0.106930,0.085054,0.147755,-0.058702,0.164190,-0.019692,-0.053376,0.070982,-0.125603,0.156042,-0.139977,-0.250341,0.089153,0.424732,0.264935,0.294223,0.279051,-0.240790,0.290773,-0.216202,0.048456,-0.114626,-0.200408,-0.112418,-0.051722,0.052936,-0.061955,-0.002194,0.097793,-0.047712,-0.227531,0.121537,0.037281,-0.194432,-0.237461,-0.015966,0.183467,0.223474,-0.212168,-0.191280,-0.033753,-0.082066,0.137167,-0.078852,-0.104770,-0.140269,0.025626,0.128598,0.189999,-0.144026,0.301910,0.280372,0.224199,-0.159603,0.004495,0.146581,0.052299,0.131446,0.007574,-0.050932,-0.182202,-0.024624,-0.020550,0.107921,0.155971,-0.008597,-0.007578,0.171685,-0.086311,0.067539,0.279151,-0.200187,0.203685,-0.128066,-0.202290,0.029492,-0.091985,-0.097347,0.162591,-0.172849,0.521692,-0.170235,0.517552,-0.065589,-0.077141,0.195926,-0.224198,0.043428,-0.073945,0.143673,0.191503,0.035587,-0.083401,0.110001,-0.025345,-0.135258,0.014570,0.185254,0.289773,-0.216735
-0.157900,-0.129582,-0.002056,-0.020607,0.157304,-0.372740,-0.025284,-0.060681,0.207520,-0.256983,-0.184374,-0.124229,0.022407,-0.395241,0.191434,0.192502,-0.279500,-0.130213,-0.062386,-0.261456,-0.190211,-0.263544,0.151303,-0.252459,-0.080336,-0.360592,-0.214529,-0.015257,-0.205124,-0.076828,0.052609,-0.089395,-0.039835,-0.099042,0.091350,-0.103391,0.173137,-0.057971,-0.327290,-0.082599,-0.189075,-0.208855,-0.111862,-0.687455,-0.437781,-0.283571,-0.125410,-0.040411,-0.000655,0.100055,-0.042102,-0.208258,-0.076503,-0.153822,0.043819,-0.289094,-0.066264,0.102454,-0.197694,-0.208896,-0.221712,0.106112,0.030937,-0.320683,-0.048785,-0.262293,-0.402842,0.140413,0.017662,0.138341,-0.230220,0.100926,-0.066484,-0.127206,-0.350108,-0.236275,-0.086272,-0.096545,-0.496542,-0.101485,-0.255125,-0.131187,-0.033034,-0.069266,-0.045775,0.019466,-0.122907,-0.133421,-0.013339,-0.189844,0.034229,-0.160971,-0.195506,0.039783,-0.185320,0.150935,-0.056949,-0.495110,-0.229422,0.042632,0.038657,0.075912,0.092491,-0.146817,0.032372,0.014275,-0.242457,-0.320228,-0.213201,-0.204705,-0.145483,0.059648,-0.002568,-0.029024,0.013857,-0.047959,0.040587,-0.277542,-0.153678,-0.130975,-0.512498,-0.380277,0.047193,-0.126331,-0.356152,-0.250023,-0.077467,-0.059183
0.086478,-0.053496,0.077577,-0.034508,0.093599,-0.064439,-0.032843,-0.038463,0.012799,0.028744,0.007570,0.006455,-0.087965,-0.042882,-0.024277,0.065033,-0.051501,-0.081322,-0.053064,-0.003847,-0.091687,0.074637,-0.068934,-0.095742,-0.093208,0.032160,0.073552,0.010399,-0.087844,-0.064319,0.094701,0.005502,-0.095457,-0.073033,-0.074242,-0.013934,0.083186,0.038820,-0.016962,0.049906,-0.007912,0.060764,-0.022829,0.067213,0.012782,0.041679,0.001801,0.018282,-0.018029,0.083818,0.087368,0.014874,0.066332,-0.047307,0.045799,0.005041,0.071535,0.025148,0.071767,0.035390,0.065636,0.087590,-0.003663,-0.020426,-0.051449,-0.004915,0.077110,-0.065452,-0.059378,-0.029038,-0.054266,0.040960,0.012345,-0.013786,0.088819,-0.014212,-0.024869,0.006969,-0.056920,-0.019518,0.018689,0.022403,-0.019531,0.017296,0.095564,0.059801,-0.079855,-0.021386,0.053067,-0.071858,0.064400,-0.009538,-0.064376,-0.054606,-0.038185,-0.001947,0.013277,-0.053517,-0.038897,0.036400,-0.077813,0.022283,-0.055863,-0.008247,-0.089319,-0.086905,0.033271,0.087992,0.097252,-0.062743,0.027323,0.028488,0.048186,0.027650,-0.065940,-0.034850,0.034585,0.071024,-0.035995,0.011568,0.070102,-0.011386,-0.049053,0.066576,-0.058282,0.042691,0.000228,0.022370
0.024739,0.042780,0.057375,-0.011892,0.013056,-0.004419,0.078609,-0.004383,0.012235,-0.021193,-0.003370,-0.051384,0.003519,-0.051321,-0.069314,0.047917,0.087536,-0.042527,-0.089655,-0.048666,0.055861,0.063957,0.020689,0.057429,-0.079244,-0.067550,0.018754,-0.051721,-0.065658,0.085780,0.050113,0.034686,-0.008391,0.019381,0.080125,0.096858,0.033853,-0.069463,-0.019853,0.066867,-0.002259,0.063110,-0.035727,-0.081620,-0.070846,0.003000,0.074909,0.076094,-0.077990,-0.060112,-0.001044,0.031558,-0.044464,-0.027065,0.036034,-0.027883,-0.047785,-0.043664,-0.023995,-0.052203,0.026938,0.013779,0.001883,0.055705,-0.008340,-0.038148,0.032198,-0.020889,0.000064,0.044260,0.017853,-0.004941,0.049990,0.057494,0.077453,-0.004418,-0.084055,0.023513,0.097145,0.056388,-0.028615,0.055851,0.059987,0.088238,0.082574,0.086361,-0.097479,-0.053890,-0.085517,-0.063124,0.009948,-0.003003,-0.060992,0.072257,0.069441,0.046112,0.085397,-0.083603,-0.086423,-0.043494,-0.079783,-0.000546,-0.088455,-0.083240,0.028826,0.066298,-0.069557,0.061679,-0.003829,0.059945,-0.088023,0.068041,-0.082656,0.077991,-0.006351,-0.019247,0.053457,0.070556,-0.005383,0.008967,-0.017392,0.065415,-0.041433,0.011706,0.071255,0.068646,0.097568,0.090515
0.034414,-0.037865,0.074480,0.054407,-0.076581,-0.054173,0.073856,0.067066,0.018594,0.015595,0.018527,-0.029426,-0.044069,0.076479,-0.010337,-0.046194,-0.036131,-0.060250,-0.054154,0.052092,0.093391,-0.074051,-0.049708,-0.022975,0.051794,0.036319,-0.007985,0.009563,-0.062443,-0.095050,-0.080407,0.060350,-0.059042,0.016427,0.071346,-0.060891,-0.022908,0.022347,0.040689,-0.072543,-0.017962,-0.052287,-0.005173,0.022054,0.041746,-0.047187,-0.007559,0.081342,0.043328,-0.035958,-0.017168,-0.057879,0.023058,-0.021245,-0.004337,0.081209,0.035177,0.085102,-0.078909,-0.054547,0.018686,-0.039700,0.091517,0.054919,0.051410,0.082636,-0.012735,-0.091790,-0.007098,0.045080,-0.042507,0.069838,0.048499,-0.004699,-0.062976,-0.049520,-0.097252,-0.068896,-0.032493,0.059128,-0.075398,-0.007397,0.074380,0.024598,0.074528,-0.019159,-0.036548,0.033620,-0.002611,0.056854,-0.041461,-0.071437,0.079774,-0.055489,0.080869,-0.014172,0.085494,-0.076198,-0.019509,0.048584,-0.080472,0.019147,-0.030759,0.054884,0.036838,-0.044694,0.058079,0.042725,-0.070021,-0.011798,0.055216,0.038052,0.016852,-0.071249,-0.046658,-0.074644,-0.067595,0.065242,-0.063642,-0.053734,0.016875,-0.087486,0.014444,-0.002323,0.028612,0.065217,-0.025381,0.069234
-0.011046,0.081785,0.079142,-0.068690,-0.054963,0.007914,0.051362,-0.007391,0.007390,0.089707,0.026874,-0.080643,-0.047986,-0.078883,0.082793,-0.088784,-0.013056,-0.069145,-0.025941,0.062769,-0.065147,0.040194,-0.020066,0.008758,0.091990,0.026706,-0.040260,-0.001287,-0.094518,0.075127,-0.048389,0.053338,0.073047,-0.069165,-0.044064,0.023915,0.017340,0.015354,0.042155,-0.050129,0.092423,-0.066976,-0.043520,0.003322,0.025250,0.003055,0.086508,0.046936,0.038912,0.045212,-0.074380,-0.029592,0.028755,0.082137,0.008997,0.035243,0.003851,-0.097545,-0.016883,0.044203,-0.086465,-0.025541,-0.083965,0.072830,0.017617,-0.095260,0.043065,-0.023612,0.066552,-0.015595,-0.052175,-0.024664,-0.035676,-0.061681,0.021143,-0.079324,0.082967,-0.069524,-0.094686,-0.028525,-0.033511,0.011921,0.002553,-0.006416,0.091198,0.042133,-0.097046,0.070055,-0.017830,0.089772,-0.085861,0.088810,0.011668,0.086295,-0.035783,0.052433,0.010370,0.049254,0.080679,-0.069079,0.084497,-0.085720,0.034276,0.072100,0.005384,-0.068766,-0.021858,-0.026539,0.065375,0.050729,-0.077000,-0.091571,0.044529,-0.066951,-0.070652,0.082260,0.006519,0.088202,-0.032023,0.030112,0.049143,0.079572,0.062892,-0.009886,0.038659,-0.007227,-0.001406,0.001210
-0.097488,-0.038345,-0.047974,0.041299,-0.052454,0.038766,0.010808,-0.079547,-0.072703,0.034776,-0.018588,0.070588,-0.073245,-0.077817,0.077234,-0.004591,-0.018635,-0.031299,-0.032975,-0.092370,-0.066604,-0.046286,-0.036542,-0.005636,-0.046014,0.079333,0.013153,0.041138,-0.085023,-0.011015,0.000894,-0.022849,0.026951,-0.039284,0.084373,-0.038739,-0.092618,-0.064084,-0.025204,0.022151,0.069410,0.082566,-0.058035,0.048749,-0.056150,-0.027595,0.000770,-0.079372,0.097082,0.009132,-0.015169,0.082789,0.071590,-0.053418,-0.046940,-0.078080,-0.040738,0.011117,-0.045187,-0.090082,0.009526,-0.082235,0.091137,-0.053500,-0.070117,0.040978,0.056070,-0.087797,-0.055099,0.058652,0.097081,0.045119,0.004354,-0.022944,0.049025,-0.078789,0.032431,-0.080774,-0.035014,0.088399,-0.087024,0.083301,-0.059956,0.034760,-0.062075,0.071021,-0.052259,0.054350,0.095240,0.056454,-0.035289,0.003161,0.005105,-0.005564,-0.066378,0.067554,-0.046052,-0.059321,-0.096356,-0.089557,0.028937,0.004964,-0.055108,-0.083785,-0.092274,0.034412,0.013440,-0.037236,0.009954,-0.060178,-0.067195,0.012928,0.073888,-0.032327,-0.048886,0.037031,-0.068110,-0.036495,0.087661,-0.020570,-0.035195,0.045099,0.032979,0.029837,0.025567,-0.069490,-0.080124,-0.048439
0.001975,-0.044674,-0.062328,0.073963,-0.044495,0.025575,0.055048,-0.093945,-0.010415,0.078865,-0.068476,-0.012567,-0.093665,-0.092589,0.003966,-0.063598,-0.034017,0.005143,0.054374,-0.081926,-0.017150,0.033723,-0.026164,-0.011445,-0.065494,0.092195,0.024392,0.003420,-0.020296,-0.047913,-0.024271,-0.089017,-0.041464,-0.092531,0.064350,-0.044672,0.056681,-0.020403,0.080188,-0.017168,0.092645,0.036358,0.022162,-0.079722,-0.012647,0.050330,-0.004295,-0.025713,0.024793,0.030679,-0.014283,-0.034317,0.020108,-0.035249,-0.077990,0.028492,-0.063220,0.042252,0.016001,0.001487,0.072389,-0.060016,0.085102,0.070188,-0.072778,0.043672,0.000606,0.061457,-0.038011,-0.015097,0.054226,-0.004330,-0.009845,0.005680,-0.031169,0.031048,0.092606,0.038430,0.004973,-0.091802,0.058901,0.042511,-0.057575,-0.007992,-0.018730,-0.047299,-0.062844,0.008686,-0.054480,0.087922,-0.031047,0.071031,-0.066778,0.014542,-0.001900,-0.038867,0.096292,-0.058070,-0.002761,-0.027576,0.089980,-0.070771,0.014467,-0.042023,-0.007390,0.041079,-0.045245,0.080101,0.058303,-0.068686,-0.092590,0.037778,-0.070478,0.095863,0.093797,0.050253,0.033009,-0.015331,0.074146,-0.061541,-0.019029,-0.043215,0.086676,-0.004361,-0.031659,0.024204,-0.086577,-0.045291
-0.030595,-0.026057,0.153286,-0.038764,0.009035,0.001471,0.051679,0.046746,-0.015143,-0.227308,-0.048262,0.011902,0.026488,0.172539,-0.064180,-0.130437,0.099891,0.013302,-0.021336,0.000491,0.129150,-0.124673,-0.167339,0.059924,-0.108830,0.094749,-0.132765,-0.032975,0.016407,0.131324,0.041926,0.085992,-0.166171,-0.249565,-0.036473,-0.019860,-0.019457,0.173766,-0.041411,-0.167754,0.156128,-0.012230,-0.140085,0.000501,-0.099418,-0.013168,-0.047311,0.011419,0.073091,-0.061230,0.112159,-0.078499,0.075119,0.178376,0.023995,-0.090194,0.049060,0.076262,-0.002397,0.118640,0.043128,-0.085545,-0.133238,0.196039,0.046932,-0.063326,0.019657,0.088617,-0.041000,-0.048589,-0.023040,-0.040569,0.020759,0.026228,0.224116,-0.128879,0.212054,-0.080746,-0.011033,0.175346,0.120012,-0.142030,-0.011799,0.061017,0.064885,0.152181,0.037554,0.051041,-0.262419,-0.007202,-0.087451,-0.135229,0.021260,-0.074392,-0.037123,-0.125560,-0.079726,-0.067389,-0.084609,-0.045677,0.022829,-0.007469,-0.028583,0.100788,0.020049,-0.033905,-0.037969,0.105606,-0.124974,-0.007834,-0.211808,-0.103827,-0.051276,0.042399,-0.009585,0.059265,-0.023288,0.043655,-0.131042,-0.176793,-0.297023,0.040525,-0.100856,0.123558,-0.047965,0.005768,0.028427,-0.054951
0.203209,-0.094665,-0.021912,0.074505,0.123713,0.029889,0.124490,-0.068067,-0.104030,0.063181,-0.064491,-0.018592,0.018851,-0.095204,0.057055,0.227630,0.004075,-0.119617,0.201920,-0.052599,-0.002656,-0.003056,0.047734,-0.219606,-0.049770,0.011717,0.050455,-0.044617,-0.068962,-0.222889,0.180314,-0.174773,0.017210,-0.010998,0.127621,0.039630,-0.061949,0.201593,0.103718,-0.050680,-0.053898,-0.010091,0.114046,-0.025567,0.008756,0.032173,0.060261,-0.056699,0.033522,0.008448,-0.080447,0.152219,0.102200,0.213709,0.045336,-0.008461,-0.092946,-0.156699,-0.050219,-0.128443,0.059141,0.174461,0.029191,0.202323,0.037522,-0.159818,0.062003,0.059191,0.115459,0.068510,0.047538,-0.101753,-0.101712,-0.178477,0.116967,-0.044427,-0.032947,0.171086,-0.051499,0.069228,0.135346,0.026772,0.005558,-0.063969,0.062341,-0.094706,-0.011048,0.064229,-0.031777,0.065510,0.041314,-0.020672,-0.182488,0.103184,-0.099118,-0.128116,-0.014773,-0.008744,0.121017,0.063489,0.092534,-0.063595,-0.049322,0.050077,0.006558,0.007522,0.017147,0.113786,-0.027715,-0.010599,-0.041215,0.293761,-0.017637,-0.033434,-0.015083,-0.023648,0.041847,0.136242,-0.043706,-0.064738,-0.022441,0.000356,-0.069638,0.184089,-0.005619,-0.140042,0.032876,-0.035384
0.010369,-0.023111,0.031719,-0.021490,-0.076355,0.007763,-0.151863,-0.102995,0.004642,0.015089,0.108481,-0.015741,0.122255,-0.041687,0.051501,-0.124337,-0.064156,0.096305,0.020620,-0.021913,0.041931,0.152652,0.084985,-0.040426,0.145262,-0.026155,0.052800,-0.119358,0.031537,-0.186250,-0.081124,-0.089162,0.124325,0.171195,-0.088107,-0.048416,0.053742,-0.184304,-0.093359,-0.155143,-0.076327,-0.034488,0.005006,-0.028711,0.077241,-0.031843,0.017554,0.061352,0.037974,0.108077,-0.113149,0.009243,-0.161747,0.020498,0.006036,0.163192,-0.003670,0.128645,0.054337,-0.056206,0.031061,-0.031427,0.111684,0.007966,-0.053765,0.137646,-0.050530,0.016700,0.146736,-0.014215,0.114167,0.005403,-0.031202,0.127408,-0.049777,-0.094469,0.135663,0.036862,0.118901,-0.103320,-0.095489,-0.082546,-0.102827,-0.126065,0.082434,-0.072629,0.015958,-0.026858,-0.047613,0.050183,-0.180880,0.093337,0.048186,0.067759,0.081130,-0.007452,-0.072402,0.111692,-0.141049,-0.076649,-0.210346,-0.091842,0.002242,-0.029220,0.104319,0.131340,0.075837,0.113022,-0.059634,-0.004357,0.072625,-0.053065,0.053101,-0.135603,0.082826,0.029246,-0.072198,0.019980,0.012116,-0.192005,-0.026095,-0.064808,0.059996,0.123512,0.060592,0.102122,-0.114267,-0.112595
0.288841,0.156553,-0.156333,0.054572,-0.031418,0.001493,-0.083323,-0.012589,0.195967,-0.001577,-0.193718,-0.233522,-0.055403,-0.154018,0.013045,0.127684,-0.090479,-0.058018,0.170782,-0.059455,-0.173890,0.167488,0.126142,-0.041093,0.041313,0.173130,0.119218,0.274983,0.042620,-0.006108,-0.000415,-0.080040,-0.005779,-0.163494,-0.085745,-0.075982,0.039668,-0.024784,-0.062684,0.105719,0.110006,0.190718,-0.020455,0.078067,-0.005371,-0.056305,-0.018721,-0.055563,0.017762,-0.164663,0.051201,-0.065117,0.055218,0.049535,0.043356,0.095273,-0.016929,0.180386,0.130670,-0.041276,-0.014220,0.035219,0.020319,-0.038392,0.237937,0.003254,-0.057162,0.116672,0.105137,0.126205,0.102211,0.073620,0.085730,-0.127878,-0.087389,0.143661,-0.013662,-0.090588,-0.014018,0.074181,-0.098403,0.128340,-0.115802,-0.096803,-0.048926,-0.037792,-0.081264,-0.078705,0.004723,0.333990,-0.117680,-0.024362,-0.107721,-0.044588,0.068227,0.101607,-0.022845,-0.009757,-0.116164,-0.085232,-0.107612,-0.033360,0.049201,0.222478,-0.062389,0.006604,0.056686,-0.006272,0.076910,0.063191,-0.015735,0.179313,0.059767,-0.128678,-0.141298,-0.049611,0.203908,0.119174,0.019513,-0.036319,-0.145404,0.026070,0.056095,0.020977,-0.034752,-0.102342,0.093789,0.020609
-0.047980,-0.209582,0.076631,0.133850,0.135118,-0.057204,-0.055572,0.030488,0.062280,-0.025732,0.058924,0.027614,-0.130981,0.340146,-0.072760,-0.144293,0.062468,-0.108270,0.007328,-0.138566,0.089865,-0.111443,-0.000098,-0.267587,-0.102100,-0.107516,0.085138,-0.226646,0.047580,0.074910,0.047343,-0.088696,0.022416,0.041756,0.049331,-0.041067,0.000827,-0.242374,0.356971,-0.076631,0.202202,-0.096150,-0.230155,-0.143341,0.077747,0.099675,0.009696,-0.057613,-0.039460,0.017675,-0.311500,-0.129415,0.057782,0.014883,-0.031245,-0.017633,0.054983,-0.105319,-0.088746,0.036520,-0.153143,0.039346,0.189843,0.047618,-0.110214,0.035373,0.014001,0.123493,0.022402,-0.039955,-0.142593,0.006422,0.071922,-0.051320,-0.133238,-0.001654,0.127966,-0.049394,0.000411,-0.059042,-0.029229,-0.101925,0.143935,0.013014,-0.026156,0.023485,0.053044,-0.100555,0.024904,-0.168654,0.188607,0.051643,-0.149032,-0.333192,0.124742,-0.073956,0.077054,0.007380,0.149223,0.095196,0.031974,0.052892,0.161218,-0.355774,-0.228866,0.074697,0.046739,-0.017385,-0.218624,0.270967,-0.107413,0.159947,-0.006452,-0.034412,0.119161,-0.177060,0.039598,0.204403,-0.077630,-0.113425,0.232547,-0.102597,-0.050972,-0.186843,0.224006,0.128649,0.099058,0.123721
-0.092648,-0.076335,0.095614,0.177568,0.087816,0.025817,-0.142277,0.044217,-0.130567,0.102321,0.143551,0.061602,0.033575,-0.051465,0.026372,-0.014848,-0.144890,0.023492,-0.023264,-0.014355,-0.046944,0.165072,0.066042,-0.000960,0.103215,0.033292,0.071788,0.069814,-0.105290,-0.058679,-0.094444,0.072501,0.018797,0.081938,-0.127090,0.031709,0.040567,-0.120339,0.099607,-0.026688,0.145181,0.023588,-0.033416,0.015030,-0.033637,-0.026776,0.070039,-0.107471,-0.059302,-0.003009,-0.054875,-0.189086,0.007557,0.129638,-0.118601,-0.016687,0.169135,-0.103349,-0.031700,0.103338,-0.130471,0.078460,0.000366,-0.091856,0.086745,0.223414,-0.045133,-0.228850,-0.045691,0.059834,-0.061219,0.170394,-0.159534,0.001474,-0.097035,-0.040970,-0.097230,-0.084685,0.099150,-0.160315,-0.116448,-0.051127,0.045261,-0.113274,0.045424,0.050697,-0.037586,-0.144109,-0.034171,-0.172578,-0.072147,0.047438,-0.055067,-0.079240,0.023516,-0.155082,-0.089376,-0.000739,0.057083,-0.011428,-0.030886,-0.090017,0.001589,-0.044423,-0.200580,-0.011778,0.028089,-0.018601,-0.031389,0.030886,0.184077,0.048787,-0.089679,0.053063,-0.193412,0.015895,-0.036737,-0.067338,-0.061701,-0.066542,-0.062401,0.122121,-0.029358,-0.081922,0.058269,-0.091403,0.169879,-0.003796
-0.016065,0.237120,0.065551,0.236696,0.165249,-0.158714,-0.142752,0.437750,0.294630,-0.021556,-0.057491,0.299488,0.272580,-0.088107,-0.142652,0.144229,0.450412,-0.103241,0.050185,0.229676,-0.020224,0.393186,0.118733,-0.013517,-0.228812,-0.032457,-0.045864,0.186225,-0.026934,0.025919,-0.031768,0.079322,0.094529,0.051642,0.007277,0.302249,0.317147,-0.263069,0.067680,0.007504,0.183526,0.013520,0.008963,-0.075313,0.041310,0.319579,-0.393778,0.011823,0.297146,0.336650,-0.214202,0.006876,-0.401441,-0.042429,-0.012093,-0.256678,0.012908,0.236147,0.208980,-0.137258,0.198418,-0.031562,0.078383,0.069600,0.069864,0.290366,-0.135942,0.021009,-0.061769,0.394521,-0.250078,-0.228157,-0.134776,0.273230,-0.130945,-0.296851,0.050362,0.034464,-0.036390,-0.022536,0.011715,-0.171080,0.002790,-0.007887,0.055884,0.132658,-0.236909,-0.047586,0.011682,0.113594,0.367862,-0.043143,0.216035,-0.147737,0.141425,0.212437,-0.011060,0.124434,0.040627,0.227904,-0.285680,-0.132655,0.004188,-0.022430,-0.167708,0.154744,-0.079967,0.128677,-0.170975,0.200567,0.026020,-0.062885,0.233784,-0.007350,-0.120611,-0.127448,0.232222,0.056340,0.099545,0.029891,-0.129082,-0.148719,0.108434,0.194019,-0.491217,0.177472,-0.220311,0.409388
