0.021025,0.043869,0.003105,-0.001170,0.004486,-0.009163,0.001056,0.012876,0.018724,0.003245,-0.001781,0.056500,-0.050284,0.062354,-0.036403,0.002385,-0.022859,-0.006215,0.008846,0.002219,-0.004313,0.015750,-0.006982,-0.024393,0.005079,-0.005644,0.054980,-0.033672,0.004130,-0.071171,-0.001957,0.033201,0.020417,0.017136,-0.026931,-0.040441,-0.039801,-0.018227,-0.002960,-0.014506,0.005752,-0.090577,-0.008887,0.019598,0.003122,-0.061311,-0.025905,-0.013319,0.012315,-0.028736,0.032590,-0.049814,-0.028250,-0.016554,0.004103,0.030002,-0.028223,-0.002760,-0.020289,0.048225,0.037112,0.036143,0.022304,-0.003309,-0.026577,0.011218,0.015650,0.019141,-0.014339,-0.000051,-0.065388,0.003180,-0.005881,0.002024,0.015237,0.068497,0.039735,0.008082,0.005993,-0.003434,-0.012980,-0.041418,-0.019142,0.020735,-0.008906,-0.033376,0.042955,0.001752,0.027299,0.016941,0.031600,0.024726,-0.021056,0.020826,-0.045237,-0.077248,0.034918,0.014511,-0.051108,0.041684,-0.010246,-0.031328,0.032917,0.010073,0.009243,-0.064240,-0.009696,0.041095,-0.007096,-0.014499,0.020359,0.010403,0.013980,-0.078827,-0.029470,-0.059657,-0.061057,0.034701,-0.106305,0.032307,0.050338,0.041877,-0.040526,0.029304,0.012120,0.049870,-0.018520,-0.003994
