0.078072,0.037790,0.023750,0.108517,0.000007,-0.025416,-0.028744,0.104533,-0.039662,-0.037909,-0.077161,0.047694,0.030142,-0.002608,0.010263,-0.088704,0.029516,0.050488,0.013135,-0.092196,-0.060716,0.049448,-0.037606,-0.093531,-0.006690,-0.148838,0.039509,0.030662,0.028824,-0.035128,0.025632,0.000988,0.034133,0.101618,-0.019032,-0.006955,-0.009988,0.139713,0.042922,-0.056455,-0.048267,0.042484,-0.083701,-0.066399,-0.073091,-0.103847,-0.071622,-0.000811,0.001974,-0.027348,-0.022127,0.062367,0.053743,0.071086,0.039638,-0.060557,-0.037318,-0.061871,0.060155,-0.083663,-0.035542,0.031469,0.015612,-0.065976,0.073345,0.041786,0.082712,-0.074904,0.032804,-0.028993,-0.029096,0.072265,0.078979,-0.014772,0.068930,-0.123719,0.074223,0.007569,0.056365,-0.084798,0.041063,0.034668,-0.033799,0.000571,-0.040757,-0.059090,-0.066588,0.015755,0.052821,0.052177,-0.021855,0.031762,-0.036059,-0.073295,0.044604,-0.049322,-0.000499,-0.088681,-0.024044,-0.065759,-0.026528,0.033573,0.172613,0.068330,0.051446,0.020705,0.032424,-0.005960,-0.056565,-0.026347,-0.087660,-0.031404,0.049216,-0.088762,-0.021269,0.021294,0.020521,0.000455,0.134687,0.054609,0.112749,-0.006469,-0.173492,-0.042838,-0.003664,-0.012986,0.080942,-0.073381
-0.112405,-0.055627,0.040749,-0.096926,-0.021155,0.212024,0.073588,-0.044651,0.021844,0.061894,-0.036669,0.135539,0.041377,-0.003699,0.055804,0.024557,0.008376,0.011268,-0.026943,-0.027497,0.180153,-0.185550,0.022134,-0.087696,-0.113525,-0.132291,0.004800,-0.180745,-0.106485,0.010856,0.046784,0.173640,0.112969,0.140325,0.257868,0.133269,0.163010,0.034545,-0.061597,-0.085487,0.048514,0.033329,0.062902,-0.109262,-0.051955,-0.098902,-0.069496,-0.057295,-0.117793,-0.069527,-0.088310,-0.212140,0.005705,-0.066460,0.071802,-0.179305,0.075529,-0.044484,-0.094376,-0.112210,0.068927,-0.027884,-0.092425,0.170841,0.022195,0.040668,-0.215706,-0.040962,-0.034404,-0.083790,-0.012846,0.123060,-0.004631,0.058746,0.121631,-0.003584,-0.003464,-0.241423,-0.145281,-0.056568,0.067188,-0.017920,0.051969,0.091846,0.026836,-0.110599,-0.119575,0.027273,-0.174693,0.001922,-0.029433,-0.021782,-0.080463,0.082235,-0.069681,0.063458,-0.163822,0.154016,-0.126825,0.006798,-0.027965,0.153318,-0.056736,-0.031523,-0.183326,0.162862,0.031535,-0.093883,0.089880,0.111536,-0.050314,0.075637,0.124950,0.004479,0.048584,-0.084125,0.000017,0.229519,-0.271460,-0.117045,0.094124,-0.301058,-0.054310,0.044332,-0.052895,0.006271,-0.135235,-0.197364
0.075234,0.141593,-0.011786,0.146266,-0.045240,0.062694,0.176127,0.044577,-0.060788,0.104375,-0.088917,0.119109,-0.018098,-0.015355,0.028399,-0.011289,-0.045357,-0.049353,0.002106,-0.101262,0.061878,-0.192264,0.021815,0.225021,-0.146288,0.070435,-0.031322,0.129635,-0.065560,-0.008595,0.132896,0.012095,-0.098226,-0.114199,-0.034057,0.070559,0.090095,0.023966,0.035367,-0.061726,-0.004375,-0.044186,0.005428,-0.169161,-0.042604,0.077197,-0.005670,-0.244382,-0.039118,-0.145356,-0.161065,0.010632,-0.137330,-0.113850,-0.093854,0.004200,-0.076439,-0.108503,-0.111704,0.058488,-0.054908,0.172573,0.067547,-0.063680,-0.094755,-0.054908,0.032286,0.051460,0.021818,-0.082718,0.047705,-0.050461,-0.026361,0.006085,-0.000523,-0.052730,0.089515,0.069253,0.173246,-0.029559,0.064755,0.016418,-0.003576,-0.143683,-0.098244,-0.026400,0.040895,0.120164,-0.117831,0.089567,-0.136856,-0.136837,0.189951,-0.048902,0.045992,-0.158735,-0.092173,-0.030589,-0.045089,0.007348,-0.207042,-0.047170,0.030489,-0.051338,0.192744,0.005513,0.131001,0.040785,-0.094649,-0.147856,0.028823,0.111899,-0.104971,0.161646,-0.053844,-0.141005,-0.008507,0.164397,0.101189,0.073746,-0.014928,-0.067506,-0.130543,0.119133,0.013398,-0.035580,-0.006424,0.010671
0.071557,-0.061997,-0.034567,0.038977,0.103327,0.079595,0.010129,0.004487,0.042683,-0.034433,0.098857,0.107005,0.194709,0.025862,-0.082394,-0.009060,-0.061849,0.043188,0.057796,-0.141917,-0.038994,0.091787,-0.118628,0.119341,0.060839,0.145721,0.010319,0.013429,-0.016913,0.022720,-0.071656,0.023627,-0.017343,0.158142,0.043917,0.006395,-0.022984,0.032219,0.065522,0.077251,0.106259,-0.139272,-0.033135,-0.060710,0.053736,0.090369,-0.019440,-0.069798,0.067348,-0.060277,0.045309,0.070295,-0.072285,-0.017927,-0.109138,0.019172,-0.049479,0.209011,0.014148,0.102889,-0.024121,-0.160335,-0.117768,-0.002226,0.106908,0.049509,-0.022189,-0.071871,-0.099435,0.020921,-0.133222,0.078537,-0.092948,-0.029389,0.055448,0.100455,0.035653,-0.040861,-0.022232,0.111712,-0.063671,0.053021,-0.055213,0.046046,0.058886,-0.005260,0.129755,-0.042285,-0.090107,0.034693,-0.000167,0.018574,-0.133754,0.182110,0.101481,-0.064009,-0.028838,0.054889,-0.002552,0.081933,-0.182442,0.111661,0.022452,0.053071,-0.010078,-0.031776,-0.014968,-0.090274,0.060269,0.021765,-0.066628,-0.031922,0.037169,-0.118045,0.048216,0.145373,-0.088566,0.046544,-0.074984,0.096208,0.005499,0.107810,-0.193293,-0.072016,-0.130059,-0.091382,-0.075514,0.051236
-0.075268,0.215740,-0.065871,0.122518,0.176035,-0.081200,-0.008270,0.011438,-0.066311,-0.184872,-0.055782,-0.002968,-0.085059,-0.124851,-0.112752,-0.044698,0.040355,0.100359,0.054051,-0.031472,-0.029811,0.016987,0.002300,-0.013942,-0.066838,0.146354,0.091505,-0.191361,0.125076,0.069492,0.076762,-0.016301,-0.059737,0.127152,0.197224,-0.026541,0.005327,-0.203676,-0.098316,0.264520,0.174518,-0.023234,0.046727,0.067866,-0.088494,0.076238,0.023204,0.015397,0.126315,-0.027288,0.144881,-0.034597,-0.181580,0.052276,-0.010926,0.126497,-0.114047,-0.048727,0.005013,-0.071984,-0.066170,0.112123,-0.239248,-0.076163,-0.018830,0.049126,0.125006,-0.025190,0.080756,-0.063344,0.268656,0.197867,-0.005171,0.056078,-0.231208,0.077834,0.177932,0.093730,0.027409,0.071887,0.128718,0.085052,0.071289,0.154785,-0.168192,-0.175144,-0.046788,0.044514,0.001071,0.000821,0.208969,-0.096200,0.126487,0.119743,0.051395,-0.005600,0.031538,0.103468,-0.052752,0.030475,-0.235235,-0.108580,-0.044130,-0.081923,-0.039623,0.029484,-0.053885,0.015038,0.195855,-0.044482,-0.119505,-0.043103,0.088379,0.033611,-0.012193,-0.077434,-0.038554,-0.046446,-0.202014,0.004752,0.022560,-0.128944,-0.162142,0.320844,0.135287,-0.170445,0.070824,-0.280044
0.163869,-0.295497,-0.141226,-0.001119,-0.025500,-0.282103,0.126030,-0.059478,0.064598,-0.123065,0.161915,-0.155305,0.100243,-0.103919,-0.061582,0.022834,-0.103036,-0.003163,0.091218,-0.146052,0.024350,0.008326,0.024399,-0.054855,-0.028338,0.113686,0.126203,0.125663,-0.087054,0.250476,-0.124405,-0.046519,0.137248,0.109876,-0.054070,0.056742,0.048452,-0.047217,-0.117394,-0.031252,0.096637,0.110798,-0.031323,-0.032506,0.024159,0.116769,0.032986,0.037028,0.233202,-0.188472,-0.123969,-0.062757,0.196945,0.010096,0.028689,-0.057395,-0.088848,0.044208,-0.101728,-0.038374,0.043032,-0.109529,-0.066827,-0.092216,0.041603,-0.005724,0.002102,0.024067,-0.065923,0.024647,0.014220,0.128422,-0.127456,-0.057516,-0.001384,-0.038639,-0.082876,0.034631,-0.051130,-0.062600,0.051297,-0.127038,-0.319653,0.107318,0.123581,-0.028221,0.099295,-0.081458,-0.070390,-0.050898,0.171554,0.088111,-0.019786,0.068620,0.064984,-0.107810,-0.150208,0.134942,-0.064162,0.003847,-0.039572,0.043629,-0.044261,0.098255,-0.092601,-0.055339,0.063468,-0.066661,0.070900,-0.124410,-0.176977,-0.091815,0.173093,0.002591,0.237495,-0.020068,0.010869,-0.207483,-0.121671,0.084377,0.072679,-0.031661,-0.037734,-0.256062,-0.128857,-0.086755,0.039838,0.043954
0.043069,0.037768,-0.047742,0.209747,0.049336,0.074789,-0.018184,0.029307,-0.006243,-0.042881,-0.022161,0.126527,-0.015344,-0.117935,0.114148,0.008690,-0.128136,-0.017139,-0.018761,0.082584,0.038459,-0.048008,0.028961,0.010679,0.020853,-0.031653,0.030797,0.134953,-0.058047,0.107209,-0.051501,0.045995,0.135715,-0.114037,0.030276,-0.028669,0.108758,0.023744,0.168469,-0.059991,-0.057989,-0.104155,0.003098,-0.084729,0.014951,-0.006098,0.053075,-0.076743,-0.022051,-0.086139,-0.095101,-0.022237,-0.075532,-0.088839,-0.018372,0.022157,0.049159,-0.022447,0.290203,-0.057656,0.023157,0.052330,0.148938,0.025265,0.006458,-0.083402,-0.252764,-0.059876,-0.065375,-0.062576,0.062485,0.109407,-0.066946,-0.106403,-0.029197,0.009852,0.094406,0.101425,-0.093488,-0.056888,-0.126326,-0.051160,0.006806,0.082848,-0.138425,-0.030559,-0.076381,0.049471,0.047997,0.128542,-0.144284,-0.048109,-0.130961,-0.018701,-0.001171,-0.167374,-0.009625,0.076844,-0.022105,0.049123,0.067183,-0.058692,-0.095472,0.006947,0.077666,-0.080249,-0.041180,0.020449,0.134358,0.076130,0.145671,0.099659,-0.057120,-0.019193,-0.125345,0.046938,-0.039512,0.021692,0.016723,0.152070,0.160928,-0.007060,-0.082829,0.140937,0.096101,0.005810,0.142617,0.078035
-0.128061,-0.014095,-0.010314,0.067562,-0.059060,0.058196,0.039492,-0.109467,0.003967,0.169911,-0.038328,0.054573,0.023353,-0.008041,0.000646,0.095307,-0.000095,-0.094513,-0.012493,-0.031483,-0.035771,0.077847,0.063755,-0.005788,0.033275,0.061133,-0.085856,0.053965,0.024281,-0.021802,-0.194938,0.037104,-0.032966,0.057174,0.115808,-0.163830,-0.047677,0.044048,-0.006279,0.097817,0.019913,-0.008057,0.058657,-0.144249,0.053205,0.085954,-0.026459,-0.276936,0.003648,0.029016,-0.029439,-0.062990,-0.087157,-0.053005,-0.008203,0.072342,0.024114,0.110460,-0.039053,0.012342,-0.063223,0.070428,0.020242,-0.185140,-0.009682,-0.002674,-0.133057,-0.073261,0.024356,0.136329,0.036379,0.067651,0.012065,0.079829,-0.059309,-0.102342,0.009486,-0.034401,0.030894,-0.062505,-0.167242,-0.045676,-0.004807,-0.037258,-0.093788,0.022679,0.025500,-0.053049,-0.053073,0.143762,0.077008,-0.062986,0.099442,-0.058446,-0.073919,-0.106550,-0.121601,-0.012563,0.061552,0.105919,0.041595,0.057425,-0.170042,-0.052486,0.240647,-0.046314,0.015221,-0.072506,0.048024,-0.055156,-0.029951,-0.003369,0.010408,0.013991,0.000637,-0.129750,0.092536,0.039268,0.021682,0.077373,-0.128371,0.019561,-0.068885,-0.025545,0.189430,0.082918,-0.068433,0.057773
0.070830,0.082725,0.015877,0.062760,0.181361,-0.137329,0.082757,0.020822,0.065407,0.032784,0.304488,-0.067212,0.193402,0.011804,0.173981,-0.005062,0.000539,-0.024768,0.067930,0.119387,-0.116146,0.069002,0.223241,0.040515,-0.050246,-0.023154,0.006517,-0.066730,0.005646,-0.071395,-0.104284,-0.160704,-0.129116,-0.178569,-0.096816,-0.101246,0.051841,-0.030799,0.072380,-0.148616,0.074977,0.004025,0.109963,-0.113733,0.088183,0.122147,0.163583,-0.094919,0.070652,-0.120521,-0.040993,0.116768,0.042343,-0.117084,-0.112144,-0.069411,0.077447,-0.068334,-0.001279,0.004547,-0.042651,0.035583,-0.042646,0.134899,-0.020373,0.021444,0.023544,-0.103783,-0.041198,0.116570,0.153428,-0.043233,0.086482,-0.025391,0.002055,-0.089518,-0.002537,-0.064676,-0.025965,0.128744,0.199664,0.012228,0.010139,0.106630,0.066615,0.072417,0.054125,-0.146252,0.093456,-0.032484,0.111066,-0.019846,-0.052090,-0.063047,-0.135312,-0.053022,0.056974,0.003420,-0.007133,0.025433,0.092031,0.164853,-0.123442,-0.041556,0.117935,0.146780,0.014426,0.042427,0.039935,-0.164356,0.030383,-0.020078,-0.144618,0.035345,0.033910,-0.029169,0.056816,-0.031831,0.022863,0.049899,0.142199,-0.046371,0.007391,0.084379,-0.011091,-0.094589,-0.153699,-0.031143
0.094199,-0.108115,-0.118307,0.073405,0.097128,-0.033257,0.025215,-0.104007,-0.049423,0.036263,-0.047896,-0.066607,-0.057315,-0.201554,0.062533,-0.029637,-0.001387,0.002063,-0.111098,0.135191,-0.144728,0.090288,-0.001396,-0.105989,-0.090137,-0.047264,-0.010064,-0.025897,-0.203609,-0.027345,0.084350,-0.112545,0.053586,-0.001834,-0.134293,0.117626,-0.091794,-0.014458,0.014698,0.001353,0.022723,-0.071755,-0.036263,0.008110,-0.100819,0.027406,-0.070934,-0.083036,0.033063,-0.025879,-0.105746,0.011856,-0.159504,-0.023575,-0.079146,0.028741,0.068068,0.153287,0.040994,0.035818,-0.067807,-0.071361,-0.019870,-0.059823,0.040826,0.039891,-0.003386,0.043408,-0.069053,0.112069,0.043165,0.064022,-0.238654,-0.070603,-0.127127,-0.040516,-0.012499,0.268110,-0.026694,-0.029649,-0.087232,-0.181932,0.073935,0.113439,-0.056344,-0.097953,0.030912,0.012164,-0.040959,-0.059748,0.046416,0.050488,-0.068513,0.167546,0.041192,0.038704,0.015593,-0.110681,0.042213,-0.193271,0.056655,0.040369,0.030987,0.149421,0.071098,0.093452,0.038582,0.121407,-0.097069,0.149429,-0.035282,-0.117009,0.040143,0.075375,0.116566,0.099061,-0.084043,0.002200,0.038386,0.100548,0.082359,0.093770,-0.106601,-0.104386,0.064009,-0.062015,-0.088451,0.109161
0.040844,-0.057025,-0.071215,-0.107942,0.028356,-0.079059,-0.018098,-0.127276,0.025972,0.171947,-0.042509,0.060483,0.132545,-0.018965,-0.116765,0.038686,0.067095,-0.052838,0.072397,0.055535,0.107781,0.080970,0.118814,0.091271,-0.027075,0.013567,0.074413,0.014308,-0.019736,-0.056020,0.103086,0.007009,-0.034130,0.127319,0.021080,0.050655,-0.161846,-0.145754,-0.028196,-0.053264,-0.041913,0.028247,-0.123395,-0.106445,-0.030220,0.022394,-0.159339,0.018091,0.099733,-0.002900,-0.033625,0.054142,0.011647,0.050919,-0.235055,0.170768,0.026399,0.040160,0.018553,0.126114,0.016164,-0.125920,0.120915,-0.014874,0.011668,0.034263,-0.107301,-0.062455,0.086938,0.213279,0.113021,-0.027843,0.047471,0.168585,0.132783,-0.004081,-0.025160,0.080813,0.105780,-0.124470,0.051928,0.073635,-0.040167,0.048424,0.022303,0.086602,-0.056092,0.077746,-0.003900,0.022071,-0.026957,0.126152,0.066268,0.072859,-0.010874,-0.085306,0.090165,0.133184,-0.154964,0.156157,0.048118,0.075132,-0.050338,0.050614,0.012854,0.062125,0.029709,0.210078,0.121341,-0.035052,0.006617,-0.078541,-0.103299,0.030462,0.072249,0.021630,0.005873,0.114055,-0.090539,0.110754,-0.048131,0.068255,0.135371,-0.057633,0.021026,0.085531,0.145419,-0.062403
0.068187,0.103857,0.075548,-0.061839,-0.137565,0.043381,0.041077,0.111337,0.030561,-0.094578,-0.073873,0.030074,-0.103143,0.065936,0.002491,-0.132874,0.041220,-0.009742,0.021341,0.051343,0.125028,-0.021569,-0.072170,0.156585,0.053936,0.084484,-0.067144,-0.026313,-0.000014,-0.171687,0.141696,0.033337,0.034228,-0.052548,-0.051318,0.044352,0.058292,0.051766,0.067811,-0.095398,-0.076726,0.040021,0.060497,-0.002164,-0.004797,-0.156819,0.108096,0.126041,-0.081305,-0.070823,0.033421,-0.043788,-0.096000,0.045632,-0.007667,0.013726,-0.080347,0.070412,-0.010827,0.043874,0.051981,-0.006427,0.094858,-0.015113,-0.037718,0.014713,0.030619,0.108073,0.099334,0.025583,-0.067465,0.054248,0.118169,0.039082,0.023028,0.078240,-0.006697,0.018419,0.039896,-0.093413,0.108106,-0.023966,0.139610,-0.113600,0.041385,-0.155896,-0.033891,0.100560,-0.118566,-0.022658,-0.046083,-0.063906,0.014864,0.056428,-0.030619,0.045982,0.010235,-0.002162,0.013461,-0.037294,0.030827,-0.024247,0.057059,-0.000273,0.035605,0.104334,0.098586,0.002577,-0.091258,0.012555,0.068832,0.087827,0.065165,-0.034758,-0.027544,0.036446,-0.013525,0.039765,-0.048913,0.045500,0.022115,-0.088337,0.138062,-0.054099,0.038792,0.062881,0.089238,0.034926
0.003242,-0.095327,0.134002,-0.054284,-0.138497,-0.015305,-0.026900,0.245597,0.115389,-0.067252,-0.096106,0.010525,0.057636,-0.091923,-0.026358,-0.016216,-0.149823,0.178788,0.034481,0.147518,0.025460,-0.023234,0.058480,0.012655,0.097854,0.111931,0.114805,0.014448,-0.184676,-0.090954,0.205192,-0.010297,0.167438,0.040262,-0.042783,-0.009824,-0.046923,-0.043148,0.042847,0.063416,0.139749,-0.040689,0.169555,0.086182,0.090444,-0.049224,0.129548,0.190821,-0.025262,0.076398,0.198165,-0.128894,0.080698,0.007591,-0.005101,-0.032180,0.004279,-0.045800,0.105159,-0.092707,0.069255,0.113787,0.056642,0.084292,0.026414,-0.047460,0.030765,0.071904,-0.117222,-0.094965,-0.106541,0.050179,0.019445,0.075434,-0.030977,-0.101570,0.009671,0.009453,0.082791,0.165359,-0.146052,-0.086632,0.003512,0.152274,0.014196,0.051602,0.033467,0.133555,0.077414,-0.155203,0.053606,0.014998,0.046894,-0.062732,0.164065,0.067676,0.145369,-0.005308,-0.080062,-0.061492,-0.086782,-0.112513,0.060767,0.130611,0.066281,-0.093647,-0.151963,-0.045762,-0.063761,0.051803,-0.143604,-0.084554,-0.073617,0.048623,-0.150442,0.011518,-0.106555,-0.105368,-0.085216,-0.107371,0.097969,-0.025614,-0.076582,-0.059723,-0.000236,-0.014860,-0.012772,0.024832
0.051128,0.080659,-0.094646,-0.088151,0.035252,-0.122292,0.021775,-0.049129,0.107611,-0.030510,-0.145041,0.088273,-0.017266,-0.048122,0.010470,0.099902,-0.026963,-0.099255,0.167444,0.105060,0.026686,-0.158226,0.057999,-0.152263,0.089404,-0.066181,0.031563,-0.134298,0.107591,0.062004,0.140787,0.023941,-0.031032,0.116398,0.130350,-0.034354,0.064475,0.091908,0.065006,-0.084893,0.018077,0.038247,-0.104759,-0.044987,0.143571,-0.042891,-0.011784,0.062276,0.149204,-0.021988,-0.054267,-0.143209,-0.000440,-0.062485,-0.075524,0.119591,0.041116,-0.012605,-0.061350,-0.032195,0.063022,-0.020090,-0.034781,0.146517,0.022010,-0.023707,0.080201,-0.023824,0.094432,-0.050825,0.054821,-0.046810,0.004229,0.086752,-0.122919,0.121337,0.004130,0.078089,-0.076264,0.093944,-0.160777,0.021686,-0.072799,0.016410,0.104427,0.136958,0.125027,0.036777,0.058619,0.066560,0.149760,-0.133616,0.008073,-0.116800,0.028895,0.006626,0.036810,-0.106112,0.079443,0.038057,0.015102,0.016402,0.013545,-0.054597,-0.043507,-0.010236,0.004155,0.093158,0.019749,-0.031732,-0.154559,-0.023832,0.030670,0.028702,0.011039,0.028110,-0.013077,0.061118,-0.099296,-0.111702,-0.057793,-0.041012,-0.011395,0.128671,-0.002886,0.023201,0.013867,0.001787
0.051354,-0.028596,0.097556,-0.114184,-0.052416,0.079642,0.066832,0.073348,0.100761,-0.090416,0.043995,-0.139953,0.074538,0.074851,-0.026888,0.050457,0.064775,0.018985,0.071562,-0.038874,0.103575,-0.050318,-0.117452,0.026732,0.000498,-0.004046,0.055233,0.151180,0.077348,-0.066017,-0.013898,-0.029405,0.196720,-0.030403,-0.056236,-0.055158,-0.021471,-0.040579,-0.166792,-0.084750,0.050321,0.025971,0.144361,-0.088478,-0.104677,0.115294,-0.004555,-0.010029,-0.186561,0.142026,-0.108206,-0.042176,0.045347,0.094794,0.040456,0.027066,-0.119421,-0.016717,-0.040961,-0.112692,-0.075273,0.001246,0.193674,-0.113374,-0.177519,-0.080114,0.009335,0.079910,0.041454,-0.179496,-0.149378,0.082664,0.032497,0.101182,0.167138,-0.047976,-0.066252,-0.044442,0.138614,-0.037086,0.044507,-0.016399,0.086442,-0.070323,0.069941,0.021518,0.062657,0.101758,-0.170846,0.077974,-0.228630,0.125401,-0.018519,-0.076738,-0.061861,-0.183144,0.120829,0.165907,-0.034847,-0.029280,-0.035707,0.176246,-0.047693,0.045757,0.020679,0.087327,0.012305,0.039203,-0.037381,0.122482,-0.014437,-0.033680,-0.177147,0.012571,0.120489,0.087848,0.024043,-0.035411,-0.010151,-0.002630,0.086073,0.060161,0.045174,-0.167137,-0.063181,-0.028332,-0.100430,0.097784
0.125705,-0.024486,0.115930,-0.005268,-0.024986,-0.002087,-0.069166,0.005316,-0.008180,0.023251,0.025307,0.002678,0.058486,-0.078218,0.192759,-0.094857,0.131589,0.025625,-0.093920,-0.087116,-0.096732,-0.032516,-0.194118,0.059903,-0.050042,-0.086424,0.179621,-0.160128,0.019373,-0.048950,0.032432,-0.037110,-0.048029,-0.069875,0.015595,0.071130,-0.177568,0.022445,0.044952,-0.053191,-0.022727,0.010943,0.053810,0.028374,-0.118140,-0.091310,-0.024452,0.052141,0.049557,-0.168775,0.024767,0.074915,-0.008403,0.019257,-0.007901,0.008753,0.064303,0.083436,0.055455,-0.082856,-0.207137,0.146407,-0.025756,0.111237,0.046364,0.111592,-0.052518,-0.126108,0.013497,-0.235827,-0.103246,0.000026,-0.035455,-0.058192,-0.078898,-0.015480,-0.143106,0.046679,-0.077463,0.127395,-0.116095,0.034513,0.130361,-0.050980,0.049943,0.110034,0.039587,0.149583,-0.131474,-0.068403,-0.111804,0.122951,-0.051102,-0.003516,-0.154779,-0.156065,-0.073984,0.124319,0.013473,-0.213732,0.003982,-0.015761,0.042841,0.112227,0.056283,0.047611,-0.012869,-0.032978,0.061922,0.055048,0.017509,0.037209,-0.048412,0.063503,-0.045646,-0.014720,0.076016,-0.103905,0.079096,0.127101,-0.000272,0.005893,0.010243,-0.047239,-0.031051,0.049073,-0.002410,0.085882
0.016194,0.026787,0.000394,0.004997,0.028109,-0.049018,-0.002955,-0.008777,0.074988,-0.009794,-0.014437,-0.028007,0.113348,-0.022550,-0.019006,0.054164,0.083549,0.009075,-0.033336,0.022570,-0.026232,0.060130,0.052558,-0.051633,-0.047999,0.103255,0.037895,0.053529,-0.057910,0.022237,-0.023739,-0.025430,0.057900,0.041006,-0.006701,-0.085676,-0.061352,0.003208,0.037396,0.045592,0.076206,-0.002567,0.027331,-0.109790,0.015969,-0.016506,0.027544,-0.090160,0.000807,0.036730,-0.022098,-0.078674,-0.040630,0.044100,-0.059703,-0.000551,-0.114468,0.036116,-0.009294,0.017369,0.054299,0.000398,0.096411,0.013771,0.049028,-0.005488,0.025549,-0.053493,0.055958,0.030078,0.008849,-0.008358,0.034234,-0.019947,-0.049617,-0.001295,-0.028319,0.049893,-0.035702,0.007601,-0.022810,0.052368,-0.015623,0.086575,-0.070587,-0.041602,0.009421,0.023701,0.019570,-0.006236,0.030683,-0.011790,0.030358,-0.026792,-0.036567,-0.036464,-0.020663,0.072991,-0.065229,-0.052324,-0.012567,-0.082907,0.028381,0.037442,0.029038,0.032288,-0.022168,-0.034906,0.001521,-0.010249,0.026968,-0.049718,0.078781,0.010861,0.077975,0.014960,0.065797,-0.030594,0.029103,0.092058,0.049142,0.025453,-0.031393,0.000816,0.051043,-0.056206,0.027030,-0.014222
-0.076910,0.052320,0.003586,-0.014299,-0.114597,-0.044707,0.132273,0.109331,-0.000509,0.033053,-0.053221,-0.125978,-0.022405,-0.236288,-0.043638,-0.118060,0.080416,0.055808,0.067195,0.034800,-0.065797,-0.092772,0.039638,-0.043346,0.021327,0.122386,-0.002615,-0.111728,0.013290,0.082279,-0.078084,-0.061637,0.027068,0.087829,0.035397,-0.107201,0.018663,-0.089788,0.095533,-0.119924,0.106716,0.024936,0.093585,0.029287,0.082805,-0.147912,-0.046871,0.022697,0.026822,0.052673,-0.169601,-0.008241,-0.044938,-0.017698,0.013050,-0.035397,0.039672,-0.060508,-0.024742,0.015833,0.096823,0.068733,0.021634,0.021246,0.075814,0.065497,0.084956,0.127877,-0.049725,-0.009361,-0.025997,0.079418,-0.086636,0.066637,0.018154,0.193686,0.063644,-0.150911,0.026113,-0.138057,0.010192,-0.138072,-0.021958,-0.110605,-0.096595,-0.087712,-0.020166,-0.105596,-0.011430,-0.196025,0.070424,-0.059444,0.104693,-0.079509,0.007713,0.073143,-0.087672,0.141783,-0.040764,0.034836,-0.110182,0.096973,0.075877,0.148799,0.013996,-0.114894,0.141806,0.024806,0.031603,-0.107033,0.049205,-0.020179,0.013852,0.017922,-0.072955,0.034601,0.106656,-0.016556,0.045041,0.030811,-0.034997,-0.135356,0.056335,-0.013515,0.082824,-0.037280,-0.150313,0.247069
-0.003201,0.082681,-0.077112,-0.014163,0.162273,0.118318,0.041984,-0.065268,0.051030,-0.035495,-0.002464,0.035624,-0.064587,0.080857,0.016061,0.090370,0.096826,-0.015945,0.045100,0.074948,0.043329,0.111691,0.005878,0.055093,-0.102372,0.164178,0.031076,-0.006038,0.022601,-0.077257,0.089611,0.002709,0.015630,0.088628,0.003635,0.014478,0.104944,0.089759,-0.056683,-0.106518,0.088665,0.037497,-0.020722,-0.057553,0.023588,-0.066675,0.075313,-0.101271,0.091164,0.133590,-0.116933,0.062476,0.047120,0.016468,0.050127,0.045447,-0.020945,-0.045751,0.006617,-0.061810,-0.015716,-0.035778,-0.001542,-0.000936,0.050027,-0.168340,0.073339,0.193541,-0.247935,0.053671,-0.111992,-0.000533,-0.066305,0.184727,0.128293,-0.055580,-0.072057,-0.002914,0.119948,0.006472,0.010667,-0.058488,-0.009206,0.107765,-0.011872,0.051469,-0.177256,-0.057766,0.004533,-0.071067,-0.027477,-0.031546,-0.206910,0.142405,-0.061659,-0.056263,0.265369,-0.132110,-0.022582,0.037740,0.135305,0.075237,0.001748,-0.000357,0.026982,0.028811,-0.164960,-0.109503,0.078103,0.167240,-0.044696,0.015634,-0.114813,-0.039147,-0.042053,0.036379,-0.103095,0.099109,-0.099352,0.103269,0.046462,0.032431,0.192050,0.046760,0.278101,0.054199,-0.063116,0.050873
-0.079681,0.027282,0.281363,-0.129886,0.065230,0.198032,0.057368,0.159363,0.022770,-0.181104,0.102431,-0.034112,0.088661,0.025439,0.042208,-0.011810,-0.214929,-0.025456,-0.155512,0.028194,-0.319384,0.015879,-0.057754,0.053603,0.046632,-0.018592,0.104798,0.093120,-0.157529,0.117201,0.064903,0.105381,0.008608,0.064324,0.041580,-0.304212,0.185885,0.028005,-0.130211,0.035563,0.172975,-0.048423,0.019870,0.083370,0.063027,0.020734,0.094679,-0.113409,-0.000492,-0.161021,-0.075516,0.098481,0.075187,-0.176315,-0.084224,-0.058456,-0.156333,0.137577,0.037210,-0.087996,0.021000,0.092798,0.032572,0.093215,-0.035340,0.002654,0.051699,-0.138357,0.044975,-0.050185,-0.035692,0.006565,0.071698,-0.029624,0.088702,-0.159616,0.054633,-0.043475,-0.007896,-0.029905,-0.221060,0.152839,0.065965,0.129511,0.004361,-0.042196,-0.117672,-0.218969,0.203502,-0.046366,-0.021644,0.002947,-0.106280,0.029106,-0.039364,0.191098,0.127469,0.116634,-0.002410,0.187836,0.104791,-0.029325,0.095953,-0.084872,-0.097017,0.052280,0.059576,-0.108202,-0.134723,-0.032514,-0.104579,0.123508,0.142629,-0.015625,0.230151,0.129906,-0.012620,0.080664,-0.239115,-0.030532,-0.081368,-0.061905,-0.228443,-0.033234,-0.127395,-0.055908,0.061369,0.139614
0.063588,-0.066574,0.238794,0.200219,-0.015308,-0.058900,0.174337,-0.167509,-0.026926,-0.067259,0.068466,-0.038678,-0.011909,-0.130715,0.024869,-0.057733,-0.035792,-0.052866,0.143772,-0.078942,0.044531,0.087058,0.031073,0.179053,0.086157,0.079116,-0.083470,0.123962,-0.139639,0.035083,-0.356038,-0.158750,-0.172716,-0.164593,0.101645,-0.104802,0.050977,0.055162,-0.031196,0.283647,0.270792,0.043361,0.073313,-0.207137,-0.168903,0.146819,-0.211519,-0.044889,-0.087253,0.040286,-0.087882,-0.064830,-0.089378,0.159284,0.235165,-0.128896,0.104605,-0.025798,-0.047079,0.037723,0.007069,-0.002199,0.211642,-0.079365,-0.077771,0.034795,0.017244,0.209418,0.064406,-0.004452,0.002484,0.069595,0.033404,-0.004668,-0.128002,-0.003798,-0.040666,0.076312,-0.069469,0.092834,-0.091625,0.021489,0.147535,0.104504,0.031744,-0.122815,-0.019866,-0.050763,-0.150675,-0.190934,0.126468,-0.163182,0.127398,-0.107093,-0.049643,0.035267,-0.055661,-0.088890,-0.082265,0.076153,0.055481,-0.222640,-0.248185,-0.006197,0.158537,-0.207875,-0.111857,0.087286,0.019642,-0.250780,-0.176123,-0.128164,0.210414,-0.010546,0.125038,-0.031735,0.022803,-0.021583,-0.151711,-0.119653,0.177635,-0.267688,-0.063264,-0.084613,-0.098404,0.050451,-0.000284,-0.202507
-0.181714,0.099142,-0.057667,-0.002915,-0.083137,-0.067154,0.043110,-0.101618,-0.029232,0.091370,0.027898,-0.026774,-0.023631,-0.020186,0.071444,0.026441,0.018735,-0.009524,-0.063746,-0.059687,0.014529,-0.005076,0.011117,0.051700,0.004803,-0.032346,-0.005999,0.037633,-0.005361,0.033094,0.027845,0.017635,-0.189714,0.007255,0.065150,0.032074,0.100325,0.047283,-0.045864,0.069996,-0.001376,0.121726,0.011243,0.043948,-0.027460,-0.115262,-0.032008,0.129704,0.034120,-0.056990,-0.021703,0.107310,-0.161423,0.029358,0.014645,0.133849,-0.032095,-0.004839,-0.155501,0.000796,0.038672,-0.030799,0.108343,-0.022573,-0.030381,0.002246,0.041300,-0.049939,0.006161,0.120084,-0.053763,-0.172197,0.069516,-0.090326,0.032266,-0.004844,-0.004565,-0.009506,-0.080050,-0.083974,0.030661,0.117624,-0.069517,0.042054,-0.045301,0.056709,-0.021595,-0.002268,0.006214,-0.071348,-0.010865,0.012758,-0.016366,0.044229,-0.020906,-0.118647,-0.035262,0.069263,-0.053383,0.049032,0.026569,-0.034266,0.170953,-0.086777,-0.038033,0.000002,0.026688,0.018347,-0.058084,0.074182,0.057206,-0.101601,0.041484,0.028460,-0.090552,0.054358,0.049466,0.035993,-0.014000,-0.071647,-0.074995,0.029018,-0.012393,-0.088236,0.124798,0.100735,-0.055408,0.071148
-0.033713,-0.068492,-0.049573,0.034628,0.042036,-0.025638,0.189838,0.180734,0.004108,0.033456,-0.072774,-0.118503,0.007051,-0.048397,0.034097,-0.105169,0.056921,0.015531,-0.168399,0.082646,0.034401,-0.096191,-0.092446,-0.023957,-0.042870,-0.138312,-0.001798,-0.023001,0.101001,0.050177,0.033451,0.017896,-0.095215,-0.030411,-0.146787,0.041970,-0.055217,0.002197,0.144316,-0.117297,0.027367,0.037221,-0.060191,-0.150043,0.148726,-0.154735,0.024546,0.050055,-0.158062,0.005807,-0.125149,0.010598,-0.050675,-0.008537,-0.104615,-0.086509,0.014815,0.093608,-0.048461,-0.022914,-0.000150,-0.071692,-0.059465,-0.049661,-0.103117,0.066261,0.059669,0.047266,0.045869,0.034422,-0.011524,0.073718,0.080120,-0.043041,-0.004195,-0.020326,-0.056120,-0.150342,-0.032079,0.022752,0.090337,-0.048239,-0.023289,0.066360,0.092394,-0.079862,0.000329,-0.077991,-0.120788,-0.008824,-0.009623,-0.044873,-0.001456,0.076107,-0.004413,0.027494,-0.121014,0.070186,0.006420,0.139685,-0.138925,0.088465,0.091040,0.014428,-0.033178,0.085787,0.082080,-0.033494,0.089815,0.107997,0.009520,-0.076001,0.015185,0.047350,-0.042869,-0.030080,0.112320,0.087827,-0.133441,-0.001593,-0.100326,0.018026,0.117245,0.004070,0.029669,-0.049640,0.001756,0.123290
-0.015798,0.049306,-0.108857,0.079563,-0.057839,0.039963,-0.015792,-0.010919,0.160245,-0.039656,-0.195536,-0.038021,-0.036835,0.132050,-0.135394,0.058878,0.004461,0.034031,-0.019897,-0.121119,0.144642,-0.213507,0.061499,0.056263,-0.138710,0.179199,-0.049021,0.185202,-0.024016,-0.153894,0.014113,0.059866,-0.012532,-0.086385,-0.060886,-0.159960,0.061453,-0.088699,0.265623,-0.044602,0.012381,-0.033624,-0.051265,-0.033534,-0.115784,-0.019221,0.085802,-0.051524,-0.116796,0.021747,-0.148149,-0.029625,-0.207687,-0.019603,-0.057035,0.128853,0.101111,-0.040099,-0.138390,0.044570,0.254995,0.059960,0.029248,0.051350,0.096477,-0.102033,0.097353,-0.041081,-0.078595,0.007555,0.106137,0.008597,-0.050905,-0.072495,-0.078751,-0.047006,0.072198,-0.112178,-0.006562,0.051105,0.070386,0.050549,0.059558,-0.151949,-0.044635,-0.014092,0.044656,0.085501,0.012135,0.029664,0.093297,0.165385,-0.000879,-0.152610,-0.060451,0.036297,-0.191639,-0.025087,-0.116902,-0.039724,0.131507,-0.082081,-0.032518,-0.083271,0.015943,0.043782,0.146287,0.039843,0.010921,0.215618,0.009372,0.017084,-0.097111,0.039242,-0.048788,-0.103762,0.006059,0.018415,0.019020,0.055373,-0.168070,-0.027267,0.068723,-0.040171,-0.104517,0.104258,0.086019,0.049955
0.106307,-0.058171,0.039492,-0.057250,0.142036,-0.112478,0.187843,0.217051,-0.073953,0.174919,0.004405,-0.080681,0.135128,-0.122351,-0.098201,-0.037818,0.032703,0.069853,-0.076852,0.158674,0.005021,-0.050100,0.088382,0.025286,-0.038565,-0.042320,-0.056322,0.093688,0.017541,0.059130,-0.123554,-0.105003,0.077361,-0.003329,0.078567,0.006130,0.033264,-0.034445,-0.039403,-0.024631,-0.141094,0.041360,0.131491,0.029509,0.001758,-0.091699,0.019926,-0.086073,0.096166,-0.175894,-0.087488,-0.084765,0.099788,-0.030195,-0.248441,-0.062487,0.119275,-0.235816,0.200187,0.105706,0.134457,-0.200824,0.081967,0.234248,0.011443,0.030651,-0.098896,-0.008825,0.108565,-0.072146,0.214095,-0.005436,0.016216,0.003702,-0.024801,-0.187367,0.046886,-0.145120,-0.135148,0.089932,0.072857,0.024932,-0.085436,0.018196,-0.084337,-0.003508,-0.256492,-0.136167,0.038918,-0.047148,0.136104,-0.024552,-0.008535,-0.193421,0.160876,0.046436,0.079265,-0.112330,-0.067165,-0.147955,-0.060736,-0.119218,0.000313,0.076796,-0.007353,-0.009519,0.192761,0.208605,0.102935,0.143032,-0.002956,-0.090547,0.093422,0.000543,-0.074963,0.134705,-0.143743,-0.067706,0.205655,-0.088593,0.014875,-0.145332,-0.198481,0.171268,-0.037201,-0.217992,-0.259975,-0.004638
-0.024245,-0.075235,0.046077,0.015994,0.002067,-0.100881,0.150546,-0.035822,-0.169433,0.138421,0.070543,-0.069764,0.078806,-0.030680,-0.048864,-0.042123,-0.026284,-0.060750,0.092289,-0.064349,-0.033109,-0.029396,0.023320,0.019032,-0.073781,-0.036412,0.020969,0.137392,-0.069457,0.130749,-0.139460,0.028552,-0.048150,-0.128719,0.002377,0.050701,0.008195,-0.039240,-0.016005,-0.094413,-0.022647,0.076793,0.051876,-0.081652,0.006604,0.046019,0.026605,-0.032470,0.115720,-0.105953,-0.155434,-0.007061,-0.040151,0.102763,-0.001726,-0.080237,0.058650,-0.147284,0.009358,-0.006643,-0.070502,-0.137562,0.018873,0.114207,-0.161849,0.115528,0.048698,-0.055746,-0.027562,0.017928,-0.148554,-0.034662,0.120674,-0.128429,0.075035,-0.082950,-0.015292,-0.134806,-0.000880,0.032364,-0.057112,-0.029538,-0.099330,0.045307,-0.018048,-0.086047,0.053377,-0.021566,-0.180412,-0.130707,-0.025963,-0.125658,-0.049898,-0.018170,-0.206643,-0.153668,-0.103157,-0.230128,0.086992,0.013778,0.006151,0.155651,0.017037,-0.044236,0.015484,-0.032324,0.121109,0.217419,-0.090141,0.036421,0.165821,-0.116403,0.034377,0.080327,0.006891,-0.034419,0.085450,-0.009480,0.004162,0.012998,0.080419,0.008266,0.031498,-0.108741,-0.001819,0.059007,0.077839,0.012505
-0.041411,0.097650,-0.110920,0.023819,0.127168,0.000467,0.059229,-0.067491,-0.004473,-0.105097,0.076860,0.100414,-0.051367,0.170996,-0.185350,0.009831,0.117317,-0.158397,-0.024042,0.081465,-0.222748,0.026927,0.147157,-0.063536,-0.074669,-0.010867,0.202461,0.092383,-0.013455,-0.208948,-0.042431,-0.073332,0.037899,-0.085148,0.118839,-0.008236,-0.110382,0.127368,-0.098339,0.006108,-0.119654,-0.159796,-0.055109,0.014485,0.111987,0.108098,0.150948,0.070666,0.096826,0.062727,-0.023724,0.032740,-0.108714,-0.076191,-0.025151,0.068331,-0.091078,0.114973,0.038115,-0.023731,-0.210961,-0.030956,0.001769,-0.069761,0.088925,-0.021530,0.130595,-0.073941,0.007110,0.096699,0.043669,0.141057,0.106575,0.037076,0.217607,0.057311,-0.051225,-0.047589,0.073334,0.059136,-0.151100,0.136547,-0.046019,0.129408,-0.018425,-0.054480,0.051329,-0.229418,0.127955,-0.111027,0.135682,0.078118,0.069815,0.059892,0.056712,0.226300,0.181304,-0.050409,0.052096,0.040681,0.046097,-0.025384,0.108436,0.039609,0.053150,0.041641,-0.004573,-0.071324,-0.007555,-0.121035,0.112513,-0.103306,0.030141,0.066184,0.071381,0.095727,0.055398,-0.103048,-0.013041,0.116430,-0.022436,0.044300,-0.059856,-0.034758,-0.073594,0.097285,0.107242,0.176095
-0.087586,-0.086018,0.030871,-0.065091,0.023451,0.092941,0.046429,0.005255,-0.128251,0.118617,0.046419,0.050668,0.086688,0.059761,0.101747,0.031098,0.076075,-0.044331,0.000801,0.062957,-0.046294,-0.014411,-0.078312,0.088666,-0.033815,0.025420,0.002642,-0.233751,0.036300,-0.095496,-0.049215,-0.205485,0.057212,-0.100644,0.086014,0.036357,0.058722,0.030572,0.058015,0.060895,0.050827,0.020001,0.007636,-0.008795,0.039443,-0.093828,0.130241,0.120639,-0.004771,0.023119,0.184102,-0.141928,0.042504,0.130510,0.120942,-0.072408,0.096840,-0.091951,-0.148690,-0.062120,0.009765,-0.115900,0.266505,-0.006515,0.192232,-0.061826,-0.120999,0.075791,0.008049,-0.085862,-0.009508,0.005299,0.095170,-0.086929,0.050970,-0.142019,-0.022547,-0.096433,0.024522,-0.037905,0.033927,-0.079231,0.160228,0.087410,0.072406,0.071033,-0.143567,-0.085141,-0.007399,-0.055850,-0.036638,0.013754,-0.103915,-0.012377,0.022282,0.003026,0.098237,-0.124298,0.033124,0.062663,-0.019381,0.018038,-0.028063,-0.025387,0.041701,0.014654,0.108306,-0.104514,0.022844,0.050754,0.062298,0.181864,0.166366,-0.080748,-0.171293,-0.147761,-0.032158,0.009107,-0.089007,-0.083232,-0.007075,-0.086226,-0.068463,-0.036076,0.113780,0.223564,0.044932,-0.036024
0.132951,0.050528,0.038688,0.035350,0.094891,0.124558,0.101565,0.068028,0.080055,-0.143361,-0.061616,0.003004,-0.073965,0.124790,-0.044082,-0.111597,-0.089601,0.122205,-0.132067,-0.147191,0.191771,0.029045,-0.065301,0.022398,0.101570,0.000723,-0.026005,-0.031903,0.016051,0.013325,-0.053308,0.052063,0.052960,0.045088,0.004372,-0.050314,0.000622,0.012371,-0.048941,-0.181827,0.157129,-0.103408,-0.161806,0.081916,-0.100962,-0.053974,0.063361,-0.010975,0.131603,-0.127434,-0.030503,-0.003988,0.014948,-0.047651,-0.099708,0.046111,0.089555,-0.175601,0.045303,0.084891,0.029073,-0.088904,0.046891,0.032082,0.005656,-0.155395,0.011009,-0.111199,-0.005321,-0.098447,-0.002939,0.052482,0.028368,0.059129,0.076522,-0.011514,0.165876,0.006835,-0.199997,0.177968,0.077642,0.089909,0.037185,-0.152758,0.135540,-0.015047,-0.053095,-0.005907,0.008757,-0.070426,0.014803,0.033974,-0.114283,0.095128,-0.112704,-0.045950,0.101453,-0.065566,-0.164150,0.060903,-0.051056,0.080086,-0.075354,-0.028368,-0.109947,0.101574,0.000767,0.039733,0.084843,0.105154,0.053918,0.143161,-0.072445,-0.143028,0.023137,-0.036116,0.077070,0.177997,-0.158644,-0.004051,0.062151,0.027749,-0.096375,-0.018770,-0.023058,-0.127983,-0.046501,-0.067288
-0.117770,-0.072391,0.033107,-0.099436,-0.111937,-0.014746,-0.118025,0.062777,0.013126,-0.026711,-0.109772,0.143152,-0.015102,-0.027660,0.087358,0.136589,-0.068834,-0.001742,-0.140003,-0.126824,-0.190509,-0.060192,-0.123698,0.079340,-0.168944,0.008138,0.057168,0.082916,0.021958,-0.058882,-0.015909,0.101074,-0.059804,0.085766,0.137177,-0.032721,0.043938,-0.031730,-0.178158,-0.086366,0.060139,-0.147687,-0.028300,0.019841,0.081746,0.014187,0.063596,-0.019333,0.059597,0.001847,-0.110336,-0.091480,0.075678,0.049316,-0.147895,-0.012407,0.170860,-0.061853,-0.038109,0.132457,0.063898,0.013439,-0.111794,0.153485,0.059876,0.065164,0.089424,-0.102349,0.038312,-0.106146,-0.213267,-0.069219,-0.087150,0.076403,-0.055747,-0.192854,0.153621,-0.260721,-0.112214,0.145649,0.055211,-0.011433,-0.030836,-0.064841,-0.025458,0.036792,-0.091891,-0.090580,0.112931,-0.062917,0.215575,0.050788,0.077434,0.079527,0.026891,0.066666,-0.006453,0.126966,0.007241,0.028664,0.027036,-0.013864,-0.215166,0.042053,0.104985,-0.077899,0.100970,0.071518,0.066973,0.050689,-0.099470,-0.152954,0.045165,0.052932,0.112647,-0.213747,0.215142,-0.109699,-0.094242,-0.021234,0.020379,0.062171,0.063653,-0.097833,0.040206,0.121199,0.103117,0.112101
0.157952,-0.152625,0.086740,0.007158,-0.139957,-0.077043,-0.150576,0.056624,-0.001090,-0.106943,0.022418,0.030595,0.117427,-0.096969,-0.089066,0.003754,-0.008359,0.079146,-0.065324,0.069698,-0.173204,0.215284,-0.036569,-0.037981,-0.016938,0.024536,-0.103373,-0.005969,-0.068464,-0.062276,0.165117,-0.284253,0.112824,-0.063691,0.042355,0.052088,0.016931,0.173169,-0.025907,-0.191662,0.008807,-0.103234,-0.160348,0.046714,0.033941,0.083177,-0.039355,0.069150,-0.028370,-0.051235,0.097982,-0.081256,0.048483,0.318860,0.042183,-0.120371,-0.022454,0.002169,0.101345,0.048174,0.002331,-0.156306,0.135857,-0.026516,-0.169682,-0.138533,-0.120856,0.239613,0.179116,-0.029443,-0.152837,0.018451,0.185506,-0.012262,0.110681,0.155039,0.054256,0.036191,0.058509,-0.088444,0.004494,-0.020558,0.091668,0.046239,0.052981,0.038272,-0.205901,0.230797,-0.030573,-0.000421,-0.039866,-0.111043,-0.078669,-0.082222,-0.136937,0.004404,0.120238,-0.106887,0.007281,0.049182,0.075360,-0.034147,-0.033851,-0.008690,0.055800,-0.000575,0.143931,-0.036100,-0.192641,-0.051636,-0.152143,0.118728,0.015777,-0.107919,0.049202,-0.066794,-0.098481,0.008809,-0.026653,-0.032652,0.070117,0.148463,-0.176169,-0.044790,-0.003018,0.007028,0.247121,0.009559
-0.054082,-0.006403,0.046986,-0.059203,0.041948,0.075943,-0.039679,0.036643,0.073916,-0.026877,-0.003970,0.064191,0.013794,-0.018359,-0.029051,0.126889,-0.015356,0.025031,-0.038711,-0.047471,-0.044854,0.118857,0.015153,-0.072262,0.030022,0.060787,0.007673,0.088912,0.026963,0.102207,-0.098967,0.045415,-0.017755,0.009988,0.101039,-0.080191,0.041298,-0.004688,0.127953,0.089934,0.046385,0.072518,0.055999,-0.020193,-0.067539,0.133512,0.056550,0.015978,-0.009926,0.013191,-0.045002,0.056873,0.030127,-0.022572,0.000771,-0.081723,0.067193,-0.011572,0.028453,-0.061342,0.062425,-0.014821,-0.071291,0.077109,-0.064753,0.020448,-0.042473,-0.044517,-0.015553,-0.090247,-0.089941,-0.083198,-0.005781,-0.022750,-0.081749,-0.020422,-0.082180,0.040520,-0.059828,0.044312,-0.026972,0.001840,-0.002715,-0.019183,0.018670,0.079819,0.050882,-0.021798,-0.012228,0.046991,0.001149,0.019431,-0.007214,-0.136117,0.059616,0.078401,0.036500,0.052689,0.047439,0.078749,0.037928,-0.042691,-0.011246,0.022882,0.015445,-0.031819,-0.059833,-0.110903,-0.046330,0.018795,-0.022156,-0.042375,-0.067275,0.075911,0.053473,0.019586,0.119859,-0.010898,0.091629,-0.026655,0.030239,0.066296,-0.031678,-0.076082,-0.027171,0.004419,0.062719,-0.072514
0.087166,0.078960,-0.056936,-0.029910,0.070997,0.116052,-0.019015,0.066588,-0.020257,0.100688,-0.198079,-0.048941,0.033254,-0.124075,-0.098401,0.094270,0.116138,-0.034145,-0.069694,-0.033399,0.183833,-0.102475,-0.050400,-0.121198,0.190636,0.077897,-0.079398,0.043446,-0.062137,0.019365,0.055458,0.167645,-0.068064,0.179347,-0.070610,-0.043487,0.030814,-0.095838,0.148446,-0.034193,0.007738,-0.005044,-0.217637,-0.106180,0.029616,-0.190764,-0.014356,0.042248,-0.050136,0.108527,0.162065,-0.021647,-0.026475,-0.031969,0.015810,0.139623,-0.214217,0.207559,0.065937,-0.097204,0.074776,-0.158470,0.042457,0.107099,0.082562,-0.201627,0.024302,0.158416,-0.001070,0.174707,0.037830,0.068876,-0.008967,0.050335,-0.129959,0.161334,0.055827,0.121518,-0.044422,-0.026825,-0.063194,0.183856,-0.138698,-0.030997,0.056606,-0.020142,-0.070269,0.020583,0.073180,0.274144,-0.072281,0.119915,-0.130132,-0.123770,-0.059919,-0.133864,-0.002353,0.155703,-0.113045,0.064448,-0.101702,0.073383,0.040719,0.007661,0.062360,-0.084878,-0.107224,-0.043154,0.166810,0.096380,-0.152471,0.152740,-0.015644,0.040329,0.114242,-0.050510,0.068777,-0.058689,-0.027765,0.158124,-0.021893,-0.111136,-0.075123,0.016887,-0.060787,0.077875,0.031328,-0.046517
-0.069692,-0.097081,0.074955,-0.060935,-0.004297,0.063195,-0.052975,0.075444,-0.220061,0.046265,0.098645,-0.024876,-0.054856,0.002511,0.093822,-0.091693,0.041785,0.021999,0.014562,0.088537,-0.027920,-0.168524,-0.008121,-0.105922,-0.061672,0.076352,0.015772,-0.104711,0.099306,-0.062588,0.068218,0.088629,-0.008502,0.038195,-0.093804,0.066348,0.048629,0.101048,-0.013640,-0.071939,-0.125982,0.130943,0.031883,0.072548,0.074743,0.031687,-0.053447,-0.024580,-0.121011,0.056764,-0.153408,0.174094,-0.047569,0.020265,0.042449,-0.068276,0.078574,-0.128197,0.094938,0.024960,0.085487,-0.044625,-0.001358,0.061004,0.074173,0.153340,0.099593,-0.068020,0.083533,-0.115238,0.022441,0.030442,0.047964,0.011508,0.144154,0.031085,-0.140345,-0.058419,0.090524,-0.033575,0.115618,0.135112,0.024785,0.077536,-0.083951,-0.017832,-0.104223,0.022205,0.110628,-0.102772,0.036390,-0.128411,0.055134,-0.124726,-0.010258,0.112971,0.062255,-0.059617,0.023356,-0.050730,0.037173,0.173333,0.092837,-0.000013,-0.088463,0.080709,-0.008903,0.050109,-0.082288,-0.153440,-0.054033,-0.040305,-0.055428,0.120283,-0.085058,0.045025,-0.059071,0.131472,-0.066071,0.040788,-0.029751,-0.081898,0.031317,-0.033852,-0.000790,0.158219,-0.080094,0.032541
-0.018202,0.034402,-0.109615,0.023247,-0.106937,-0.130912,0.032132,-0.006999,-0.025848,0.198500,0.033010,0.111027,0.082998,0.125189,-0.074770,0.102627,0.078376,0.063992,-0.018895,0.110485,0.033058,-0.064550,0.076803,-0.033979,-0.190687,-0.047609,-0.048763,0.020974,-0.184975,-0.074936,-0.104321,0.035263,-0.116681,0.148522,0.068941,0.006519,-0.046946,0.102877,-0.004857,0.066009,-0.044490,-0.083813,-0.108341,-0.011898,0.069457,-0.064909,0.145660,-0.030232,-0.031176,0.005082,0.101022,-0.025373,-0.001478,-0.003483,-0.131379,0.002145,0.110882,0.051245,-0.044914,0.075389,0.114587,-0.115228,-0.020631,0.156940,0.005531,0.076438,0.009289,-0.027119,0.256973,0.064761,-0.098835,0.067222,0.021672,0.026171,-0.102126,-0.060892,0.092465,-0.058287,-0.010161,0.109457,0.166692,0.068408,-0.093290,0.117655,0.101934,0.058561,-0.016845,-0.050836,0.004799,-0.079149,0.053870,0.016241,-0.132146,0.056283,0.071977,0.040032,-0.062731,-0.021467,-0.083633,-0.048476,-0.027630,0.130453,0.108586,-0.077214,0.195167,0.078685,0.074463,-0.081384,-0.086032,-0.001221,-0.029018,-0.177510,0.084979,-0.079952,0.021969,0.062784,0.161945,-0.101645,-0.112433,-0.005490,0.048615,-0.160153,0.052780,-0.011753,0.168735,0.024051,0.153566,0.032175
-0.191527,-0.170919,0.004703,-0.032883,-0.206905,0.045622,-0.054835,0.193155,0.049983,-0.202370,0.148506,-0.019682,0.073796,0.124711,0.073365,0.027678,0.090154,-0.020672,0.025415,-0.072893,0.005910,0.061987,-0.004895,-0.082923,0.054282,0.033332,-0.023678,-0.138901,-0.048049,0.272261,-0.004233,0.134390,0.127725,0.142750,0.189492,-0.078228,-0.006648,-0.113843,0.007998,-0.002412,-0.098455,0.068724,-0.038065,-0.077261,-0.073509,0.068486,0.030315,-0.148631,-0.201029,-0.018251,0.014551,-0.090305,-0.014296,0.090398,0.067977,-0.097783,0.028165,0.033191,-0.021191,0.061997,0.195411,-0.087050,0.120287,-0.127864,-0.048774,-0.172564,-0.009799,0.047028,0.112086,0.171984,-0.046883,0.029699,-0.118980,-0.102276,0.037490,-0.008119,0.040259,-0.168842,0.117996,-0.156154,0.057592,-0.163606,0.011975,-0.059482,0.060806,-0.111178,-0.007376,0.001510,-0.036254,-0.021971,-0.193145,0.086225,-0.112720,0.148816,0.093053,0.059522,-0.193169,0.023985,-0.183678,0.161820,0.064841,0.016540,-0.103253,-0.063082,-0.064960,-0.186836,-0.017180,0.100146,0.209504,-0.091938,0.130732,0.079823,0.052684,-0.265574,-0.024091,-0.066637,0.092739,-0.130786,-0.077537,-0.088502,0.241452,-0.303144,0.101951,-0.034984,-0.095555,0.026745,-0.063007,-0.055190
0.100958,0.075268,0.006161,-0.013181,0.014489,0.020441,0.011962,-0.024660,-0.045667,0.014760,-0.054415,-0.050698,0.027555,0.110648,-0.020493,0.069442,-0.106112,0.015583,-0.020826,-0.008164,-0.041972,-0.035635,0.007015,0.061976,0.034601,0.018360,-0.111707,0.125285,-0.014560,0.047529,-0.073386,-0.181082,-0.045918,-0.043541,-0.025623,0.029752,-0.004718,-0.086493,0.082827,0.099200,0.040465,0.043324,0.099402,0.001564,-0.045172,-0.012801,0.086671,0.020709,0.070930,0.053550,0.030516,-0.139723,0.007460,0.039552,-0.054839,-0.007332,0.030412,0.039958,-0.050787,-0.131733,-0.054070,0.122015,-0.043591,0.071062,-0.051347,-0.055564,0.131595,0.078705,-0.062452,-0.050013,0.040530,-0.046990,-0.026696,-0.025261,-0.093962,-0.105229,-0.105544,0.039322,0.058094,-0.008809,-0.035989,0.045971,0.068176,0.001564,0.057962,0.034936,0.076822,0.000647,-0.000096,-0.006456,-0.016216,-0.045780,0.008808,0.121315,-0.017312,-0.088718,-0.042310,-0.036322,0.142045,-0.056696,-0.024673,-0.036344,-0.017735,0.018261,0.088438,0.031096,0.022836,-0.097809,0.012560,0.036396,-0.024377,0.054252,0.084605,0.039942,0.082704,-0.007954,-0.008960,0.006676,-0.007596,-0.032982,-0.030503,-0.009287,-0.057132,-0.002928,0.026025,-0.067122,-0.001344,-0.061029
0.053981,-0.020195,0.044028,0.024162,0.044830,0.142317,-0.020883,-0.155142,0.110367,0.031910,-0.187842,0.013229,-0.122765,0.038540,-0.073345,0.037092,0.028452,-0.008534,-0.065975,-0.083771,0.070741,0.001342,-0.161769,-0.022731,-0.008178,-0.008731,-0.127544,-0.021787,-0.060271,0.076610,0.108056,-0.177819,-0.000048,0.000193,-0.045094,0.010924,-0.024996,0.084688,-0.101220,-0.113130,0.062858,-0.136712,-0.196785,-0.006876,0.073946,0.020023,-0.115251,-0.071168,0.110276,0.042783,0.056282,-0.073307,-0.085070,0.144132,-0.008181,0.083467,0.071704,-0.135633,-0.133794,-0.029553,0.020260,-0.040469,0.014103,-0.036709,0.079999,-0.097170,0.000263,0.030496,0.059473,-0.062066,0.001552,-0.001098,-0.054730,0.014325,-0.047539,0.066584,0.003585,0.067784,-0.042022,0.109681,-0.057977,0.012265,0.106367,-0.017833,-0.076032,0.070830,-0.115997,0.101591,-0.111480,-0.192872,-0.149486,0.056022,0.012395,0.064177,0.047350,-0.015297,0.050071,-0.061901,-0.149425,-0.100194,0.077876,0.123572,-0.119710,0.034241,0.030350,0.012393,0.003762,0.025623,-0.130936,-0.070246,-0.079247,0.051048,-0.068870,0.072327,0.100974,0.071443,0.095614,-0.030149,0.105803,0.034691,0.002954,-0.089249,0.119472,0.109859,-0.007424,0.014799,-0.102920,-0.119509
0.207034,0.021093,0.113864,0.251397,0.143369,0.156151,0.157043,-0.043460,0.076942,-0.188659,-0.094804,-0.064811,0.042744,0.064412,-0.061309,0.182026,0.066125,0.035178,-0.074407,0.139337,0.216372,0.172101,-0.007432,0.038371,-0.087031,0.079635,-0.103950,0.262656,-0.084003,-0.083477,-0.039978,0.047797,0.118201,-0.046635,0.033122,-0.124184,-0.041229,-0.135488,0.080007,0.059538,-0.008189,-0.111099,0.041495,-0.058114,-0.121049,0.198250,0.196458,-0.039746,0.062294,0.118664,0.059505,0.106348,-0.058021,0.123530,-0.010614,-0.091816,-0.084564,-0.021610,0.100672,-0.012662,-0.119703,0.017782,-0.089943,0.026499,0.062846,-0.124635,-0.037053,0.251338,-0.087110,0.108649,0.154787,0.054988,-0.140977,0.120150,-0.074223,0.221057,-0.111147,-0.076513,0.189253,-0.070046,0.237585,-0.076506,0.128237,0.022928,-0.185312,0.011729,-0.021651,0.087415,0.070575,0.057221,0.009910,0.050182,-0.030701,-0.059162,-0.123420,0.064655,0.003061,-0.179097,-0.124307,0.079815,0.110472,0.272961,0.098284,0.091677,0.094659,0.088275,0.006556,0.051724,-0.075122,0.086678,-0.009252,0.038729,0.099566,-0.090963,0.088255,0.207767,-0.035491,-0.116052,0.080382,-0.000006,0.037292,-0.189987,0.168557,-0.036987,-0.114665,0.040779,0.139904,-0.150400
-0.033397,0.167510,0.059288,-0.062446,0.214277,-0.010854,-0.105458,-0.077332,0.025117,0.109868,-0.089327,0.117674,0.074114,0.031999,-0.070161,0.073181,-0.057846,-0.157206,-0.151296,-0.086519,0.017680,0.109557,-0.033970,0.060187,-0.107447,0.111093,0.076169,-0.094859,0.023857,0.004212,-0.057742,0.090523,0.039595,-0.045949,0.065390,0.004022,-0.119319,-0.165053,-0.089591,0.019987,0.035749,0.052134,-0.097191,0.007600,-0.134818,-0.063296,0.029545,-0.047581,0.129091,0.081185,-0.016866,-0.163098,-0.120363,0.022910,0.029427,0.112318,-0.121893,0.007789,-0.112584,-0.110720,-0.013723,-0.050622,0.093039,0.056465,0.137189,-0.061433,0.082983,0.006847,0.106124,-0.052342,-0.088964,-0.120644,0.052894,0.011524,0.096991,0.005844,0.093430,0.024840,-0.148058,0.047503,0.015059,0.035098,-0.072930,0.172262,-0.026401,-0.097498,0.028492,0.008016,-0.067424,-0.060106,-0.011777,-0.124799,0.134835,0.002354,-0.050894,-0.143950,0.042233,0.019779,0.075330,-0.014473,0.011816,0.036624,0.116255,-0.014914,0.059486,0.061244,-0.121315,-0.143638,0.052533,-0.006578,0.001177,0.096304,0.020552,-0.012364,0.079847,0.042771,0.059382,-0.085813,0.005888,0.204128,-0.116809,0.196094,0.033332,-0.032180,0.139617,0.165952,-0.011470,0.130657
0.121159,0.075172,0.036794,-0.042024,-0.026347,0.070569,0.121337,0.004427,0.037291,-0.098490,0.035193,0.073357,0.046681,0.015127,0.016084,0.147563,0.100906,-0.021530,0.143996,-0.064351,0.058724,-0.029326,0.222762,-0.123463,-0.056335,-0.093172,-0.079069,-0.029167,-0.082155,0.095451,0.062498,-0.057131,0.103367,-0.029091,0.016399,-0.023855,-0.032635,0.091493,0.073631,-0.188684,0.215809,-0.165597,-0.224542,0.035216,-0.043780,-0.143436,-0.121592,0.045905,0.058165,0.031952,0.007691,0.019986,0.107120,-0.075308,0.078138,0.219548,0.088298,-0.019217,0.035759,0.085439,0.041572,-0.032225,0.034988,0.058548,0.081533,-0.037234,0.072491,-0.032210,-0.092212,0.192291,-0.073027,0.157913,-0.016961,0.025068,-0.025169,0.013222,0.057826,-0.088952,0.098133,0.099670,-0.045016,-0.022565,0.007610,-0.053594,-0.038206,0.022835,-0.111375,0.122651,0.039559,0.108256,0.044619,0.055815,-0.210960,-0.060767,0.045050,0.053079,-0.036513,-0.179691,0.040729,0.121024,-0.061063,0.057717,-0.054063,-0.094384,0.057940,-0.187001,0.215985,-0.039789,0.135354,0.025902,0.023056,0.214536,-0.070055,0.026703,-0.011424,-0.017079,0.072534,0.100733,0.127442,-0.261726,0.005359,-0.086840,0.069184,0.051017,-0.012527,-0.056479,-0.020596,-0.039754
0.063974,0.017407,0.106207,-0.001238,-0.005690,-0.033746,0.004848,-0.095744,-0.089772,0.068225,-0.060826,0.205944,0.180598,-0.124380,-0.009252,0.002011,-0.028518,-0.090788,-0.057670,0.154660,0.061056,0.008573,0.019240,0.102831,0.095256,-0.014034,0.049391,0.045718,0.012994,-0.011885,-0.018164,-0.029929,0.101187,-0.072234,0.088457,0.213158,-0.027660,0.058626,-0.060451,0.163937,0.097927,-0.204239,-0.083347,0.030654,-0.072526,-0.015750,-0.102063,0.108021,-0.087847,0.056479,-0.009393,0.055425,0.058165,-0.014305,0.133758,0.042210,-0.038704,-0.087735,-0.018792,0.042174,-0.041435,-0.163489,0.132700,0.016023,0.002752,-0.073859,-0.090878,0.086134,-0.070740,-0.146725,-0.026665,-0.237394,-0.122735,-0.225715,-0.087543,-0.124014,-0.050991,-0.101837,0.067617,-0.211574,-0.059894,0.184635,0.038786,0.031879,0.042981,-0.201365,-0.002561,0.151455,-0.105462,0.047157,-0.050287,-0.076470,-0.090520,0.061511,-0.145341,0.034821,-0.083610,-0.164118,-0.090029,-0.078326,-0.129710,-0.012884,0.073443,0.022319,-0.054481,-0.118970,0.084598,-0.015904,0.006258,0.164000,0.115848,-0.178502,0.230028,-0.261888,0.046605,0.095524,0.034847,0.087606,0.066746,0.002210,0.174727,0.018145,0.006188,0.006709,0.031683,-0.062836,0.111751,-0.083606
-0.029720,0.016987,0.046564,-0.091962,0.082637,0.019397,0.089465,0.002488,0.036807,-0.181928,0.043251,-0.153188,0.046294,-0.078472,0.060103,-0.030690,0.030828,-0.103421,0.118095,-0.079005,0.025162,0.078874,0.155982,0.040661,-0.035750,0.023132,0.025784,-0.072054,0.054562,0.087952,0.047002,-0.081388,-0.106410,-0.035317,-0.004775,0.018691,0.077007,-0.015802,-0.047028,-0.052689,0.086967,-0.069071,0.009199,-0.054410,0.135064,-0.028054,-0.031646,-0.094266,-0.079650,-0.083545,-0.015185,-0.035029,-0.012915,-0.023284,0.046383,0.020675,0.028445,0.047035,-0.030706,0.026941,0.038091,0.048400,-0.061016,-0.087234,0.048175,0.004846,-0.068929,0.059625,0.109590,-0.020748,0.177417,0.029437,-0.060321,0.031085,-0.005106,-0.043526,0.135949,-0.028858,-0.034947,-0.051277,0.038569,-0.019304,0.120091,-0.027962,0.000383,-0.078672,-0.154242,-0.011163,0.106962,-0.056711,-0.134961,-0.035050,-0.003636,0.111338,-0.005928,0.028733,-0.183819,-0.035151,0.128044,0.057765,0.003217,-0.037647,-0.036941,-0.140171,-0.164531,-0.055438,0.165228,0.111776,0.043208,-0.066449,0.160824,0.138964,-0.013037,0.039313,-0.013242,0.006041,0.018548,0.030104,-0.100489,0.038225,-0.036724,-0.064501,-0.045255,0.113043,0.002570,0.035601,-0.042997,0.029384
0.003684,0.042323,-0.026960,-0.048293,0.084680,0.038170,0.008243,-0.028786,-0.021934,0.060520,0.078652,-0.005944,0.041949,-0.065751,-0.005904,0.001793,-0.029753,-0.038619,-0.052889,0.005337,0.054929,-0.015244,-0.022388,-0.027566,-0.005366,-0.018181,0.048060,-0.046880,0.026238,-0.025117,0.059210,0.020344,-0.014463,0.020358,0.035385,0.030189,0.051888,0.062633,-0.032216,-0.017464,-0.008773,-0.043324,-0.016410,0.074263,0.033136,-0.006984,0.000609,-0.007028,0.019512,0.139048,0.050409,0.020302,-0.096880,0.027176,-0.066016,-0.046354,-0.004472,-0.031886,0.033243,-0.040465,-0.037858,-0.011446,0.013606,0.042273,-0.046494,0.106712,0.032041,0.029447,-0.057885,-0.009353,-0.018078,-0.007195,0.041821,-0.008887,0.012790,0.060205,-0.011992,0.028896,-0.094870,-0.041193,0.051145,0.061298,0.007729,-0.036398,0.029604,-0.005193,0.018666,-0.028342,-0.013186,-0.039579,-0.017977,0.010735,0.005586,0.012944,0.009124,-0.037852,-0.036776,0.015489,-0.032461,0.052334,0.005598,0.042338,0.016831,-0.031900,-0.053466,-0.015812,-0.020216,-0.001951,0.020663,0.037453,-0.030572,0.031528,-0.068159,-0.046531,-0.023529,0.008208,-0.039812,0.022069,0.010551,-0.038450,-0.040391,0.048257,-0.032464,-0.012800,-0.026228,0.019570,0.059978,0.057866
-0.017923,-0.052368,0.114661,-0.100944,-0.021876,-0.157388,-0.071142,0.024098,0.056576,0.027324,-0.021052,-0.030320,-0.016583,0.122874,-0.020989,-0.058924,-0.155898,-0.161345,0.088273,0.200692,0.091412,0.102379,0.154667,0.050053,0.040839,0.132569,-0.105191,-0.076878,-0.078412,-0.065737,-0.127843,-0.043596,0.009656,-0.024906,0.040551,0.125975,0.082466,-0.045431,0.015070,0.014586,-0.155175,0.215656,0.064049,0.014416,0.047878,0.007855,-0.028224,0.149516,0.012691,-0.041871,0.066925,-0.173946,0.082855,0.020939,0.048743,0.120516,0.016294,-0.072397,-0.070554,0.027792,0.048763,0.048489,-0.132873,0.069968,0.112588,-0.035568,-0.054505,0.005729,-0.003865,0.095301,-0.073436,0.075940,0.020400,0.100584,-0.035886,0.124279,-0.076935,-0.058307,-0.004481,-0.034708,-0.007570,-0.156409,0.004409,-0.022990,0.062730,0.093793,-0.020469,0.151241,0.026346,-0.100826,0.087103,0.016839,0.100966,-0.189743,-0.026757,0.163924,-0.036809,-0.063562,-0.093726,-0.188833,0.054091,-0.143173,-0.015146,-0.039843,0.012453,0.170405,-0.067446,0.120440,-0.082789,0.018927,0.029668,-0.061621,0.039851,0.016111,0.055116,-0.038193,-0.110156,-0.092758,-0.052417,0.121966,-0.018520,-0.136804,0.185207,0.016032,0.003731,0.033529,0.012040,-0.052731
-0.037688,0.086099,0.056499,0.077619,-0.000456,-0.020919,0.017755,0.027376,-0.018835,-0.063584,0.097336,0.061150,0.019258,-0.018388,-0.078059,-0.044689,0.027578,-0.003403,-0.068525,0.031312,-0.021275,0.024323,-0.049884,0.059180,-0.053420,-0.066927,-0.005147,0.023629,0.057926,-0.047799,-0.014306,0.067574,0.010260,0.018088,-0.032965,-0.004577,-0.021463,-0.121207,0.092286,0.033723,-0.001856,0.032375,0.018373,-0.090942,-0.095080,-0.030485,-0.093006,-0.040243,0.056449,-0.049914,-0.004089,0.056715,-0.003708,-0.077420,0.036818,0.016927,0.017971,-0.084354,-0.005450,0.007803,0.006609,0.038512,0.053787,-0.080966,-0.018972,-0.048866,0.063810,0.032680,0.060616,-0.020526,0.022708,-0.134550,0.031540,0.004617,0.004110,0.015007,0.031079,-0.060520,-0.016423,0.011806,-0.006641,-0.009669,-0.045361,0.063541,-0.065331,0.078704,-0.060704,0.092872,0.101918,-0.022940,0.074158,0.005498,0.033794,0.038860,0.124104,0.051806,0.002248,-0.076438,-0.012021,-0.080341,-0.043391,0.029039,0.000439,0.030102,0.036760,-0.025706,-0.022483,0.120706,-0.087355,-0.076698,0.010670,0.012967,-0.062003,0.036987,-0.038311,-0.079331,-0.048163,-0.024626,0.129810,-0.000046,0.107661,-0.015305,0.077755,0.062159,0.048947,-0.005841,0.072908,0.020956
-0.003468,0.008001,-0.019419,-0.033657,0.093636,0.048270,-0.002204,0.070271,0.037112,-0.041931,0.043347,-0.020961,0.048803,-0.105958,-0.049133,-0.031497,0.043307,0.053095,0.005931,0.060310,-0.118754,-0.058972,0.042222,-0.055293,-0.150329,0.007318,-0.003824,-0.125988,0.065577,-0.118280,0.237879,0.207084,0.071866,0.029182,-0.123799,-0.047214,0.056807,-0.127913,0.257712,-0.134837,-0.066948,-0.012792,0.058870,-0.189189,0.092166,-0.009516,0.137451,0.029650,-0.140436,-0.095495,0.061787,0.140481,-0.113637,-0.121814,-0.061577,0.034810,0.021833,0.072463,0.031358,0.042468,0.084947,0.008690,-0.040180,-0.023994,-0.065085,-0.031472,0.011468,-0.033413,0.150173,0.119898,0.022421,0.021762,-0.000619,0.176818,0.042074,-0.050547,-0.001777,0.073809,0.184849,0.010818,-0.008354,0.079072,0.074021,0.119153,-0.071393,-0.108642,-0.124729,-0.078124,0.056483,0.043299,0.109166,-0.095865,0.042753,-0.136675,-0.010241,0.213931,-0.121870,0.058217,0.049677,0.070726,0.028179,-0.044882,-0.042132,0.124503,0.048954,-0.010755,0.045998,-0.008442,0.077043,0.062358,0.113436,0.082947,-0.081012,0.009485,0.021671,-0.056894,0.010465,0.014093,0.075039,0.041645,-0.021284,0.137763,0.080209,-0.064619,-0.012646,-0.086986,0.148438,-0.045630
0.007363,-0.048785,0.005999,-0.134284,0.013672,0.018009,-0.051080,0.075443,0.105742,0.123945,-0.037418,-0.087872,-0.109234,-0.132715,-0.147902,-0.061485,0.037849,-0.023286,0.126060,-0.096603,0.149106,0.044542,0.152859,0.005143,0.021018,0.130491,0.092089,0.008046,-0.160384,-0.101638,0.147276,-0.036176,-0.077784,-0.015882,-0.056371,-0.114199,-0.102222,0.010757,-0.237621,-0.199138,-0.137971,0.002157,0.170066,-0.063406,-0.229999,-0.017007,-0.114399,0.165612,-0.098813,0.057906,0.061401,0.125680,-0.011685,0.109598,-0.008006,-0.021215,-0.105931,0.002414,-0.132363,0.100855,0.151328,0.002834,0.115801,0.034556,-0.035686,-0.046250,0.071230,-0.079021,0.092502,-0.019945,0.059368,-0.047502,0.125915,-0.033230,0.095254,0.081327,0.046030,-0.029902,-0.039482,-0.084044,0.023355,-0.023583,-0.182469,-0.066096,0.092671,-0.043714,0.150562,-0.023099,-0.241929,-0.139547,0.131178,0.017837,0.112022,0.001988,0.127339,-0.124642,-0.031503,0.209151,-0.000966,0.005537,0.085509,-0.008452,-0.003975,0.151757,-0.049269,0.105501,-0.026517,0.108491,0.063797,-0.054701,0.239372,0.082052,0.062555,0.058990,-0.051645,0.020095,-0.110435,0.063870,-0.077979,0.062557,-0.071467,0.081309,0.029623,-0.045367,-0.157080,0.081345,-0.023225,-0.104160
-0.132630,-0.031339,-0.008329,0.079492,-0.070434,0.012049,0.033514,0.044423,-0.009640,0.040067,0.047605,0.032474,-0.008913,0.019196,0.116048,0.089781,-0.050495,0.068011,-0.067319,-0.091731,0.028663,-0.076967,-0.123664,0.053946,-0.100451,-0.053107,-0.136487,0.026585,-0.085105,0.125526,0.050371,-0.034818,0.069019,0.035347,0.029721,0.002815,-0.001022,-0.023164,-0.013745,0.133682,0.108727,-0.029797,-0.046431,0.020965,0.022495,0.236727,0.107027,-0.000508,0.059011,0.073021,-0.036911,0.014929,-0.000317,-0.055102,-0.026053,-0.064050,-0.009762,-0.006013,0.057403,0.003814,0.088968,-0.028696,-0.034774,0.021279,-0.009936,0.035353,-0.010051,-0.009759,-0.028057,-0.183711,0.126565,0.009565,0.033770,-0.067505,-0.120628,-0.074188,-0.108226,0.012456,-0.081540,0.089772,0.023013,-0.074140,-0.003266,0.105669,0.081771,-0.012683,0.096657,-0.024090,0.118032,0.055133,-0.081748,0.045686,-0.057706,0.093754,0.031156,0.049671,0.237820,0.045099,-0.095263,0.070233,-0.031712,0.152558,-0.102716,-0.041879,-0.052058,0.076307,0.058782,-0.040783,0.103044,0.108362,-0.071579,0.116876,0.113389,0.117318,0.028550,-0.087926,-0.067934,-0.033820,-0.179317,-0.040999,0.125705,-0.015943,-0.106480,0.049755,0.058806,-0.091979,0.067682,-0.156699
-0.044408,-0.020724,-0.118528,0.163209,-0.082231,0.098518,-0.109342,-0.126269,0.016088,0.007323,-0.141205,-0.139865,-0.017356,-0.011276,0.012195,-0.124081,0.136947,0.110527,-0.112586,0.046554,-0.046999,-0.017717,0.013885,0.046845,-0.129556,-0.060948,-0.056741,0.024629,0.053655,0.064997,0.101740,0.125842,-0.145514,-0.032798,-0.158202,-0.102418,-0.085232,-0.051586,0.044427,-0.030942,-0.111776,-0.020426,-0.072903,-0.128588,0.024199,-0.046766,-0.014205,-0.082924,-0.104228,-0.221896,-0.050723,0.001719,-0.009967,-0.055895,-0.045898,0.139771,0.152854,-0.017585,-0.037868,0.023406,-0.001029,0.022954,-0.137847,0.174434,-0.049866,-0.032847,0.014497,0.025795,-0.094940,0.044689,-0.012721,0.207169,0.111149,0.013256,0.011173,0.014239,0.161220,-0.037326,0.123592,0.074051,-0.279113,0.042487,0.094155,0.096257,-0.026613,0.096268,-0.074693,-0.138359,0.069527,-0.022731,0.119035,-0.000666,-0.028361,0.133664,0.048285,-0.023630,0.078612,-0.067389,0.057922,0.022589,-0.068738,-0.032960,-0.027870,-0.018001,-0.062744,0.166447,-0.165911,0.077217,0.069354,-0.173536,-0.029362,-0.073707,-0.048484,0.041149,-0.058814,-0.111380,0.064265,-0.166202,-0.032023,0.004133,-0.001100,0.124178,0.027011,-0.077877,-0.020620,-0.053296,0.128566,0.084089
0.068507,0.009590,0.090828,0.010133,-0.123611,-0.014619,0.001423,0.070120,0.153923,-0.004691,0.063313,-0.024798,-0.014370,-0.069269,0.022377,0.037932,0.180583,-0.044995,0.069290,-0.019797,-0.022051,0.018054,-0.038595,-0.072040,-0.044069,0.021099,-0.025204,0.060868,-0.143053,0.053811,-0.185794,0.067426,0.074140,0.009936,-0.049633,-0.030455,-0.102877,-0.011269,-0.019515,0.056835,-0.045140,0.005074,0.059137,-0.068354,-0.079216,-0.024504,0.018651,-0.055070,-0.033965,0.023425,-0.024515,-0.096068,0.030435,0.079640,0.054486,-0.027625,-0.070514,0.006914,-0.039232,-0.087962,0.002347,0.007347,-0.073627,-0.064074,0.117202,-0.052206,-0.113161,0.163537,0.017789,0.084631,-0.065953,0.024928,0.048923,-0.012265,-0.121174,0.002799,0.095204,0.016727,0.114669,-0.064992,0.083285,-0.081318,-0.066288,0.031992,-0.110659,0.048444,0.104306,-0.088566,-0.089120,-0.047968,0.047901,-0.096341,-0.007522,0.097687,-0.019031,0.051467,0.078725,-0.178565,0.005621,0.029459,-0.043833,0.010264,-0.085550,-0.067956,-0.028702,-0.218995,-0.055613,0.043920,0.177418,0.002428,0.061116,-0.170984,0.051368,0.019221,-0.137035,-0.068964,0.115000,-0.029080,0.031450,-0.058729,0.062976,0.005921,-0.045267,0.028439,0.070556,0.007256,-0.041776,-0.063556
0.062570,0.114715,0.091970,0.029020,-0.009744,0.036749,0.102298,0.012089,0.057981,-0.208996,0.129198,-0.104849,-0.108788,-0.037900,0.020796,0.002788,0.018230,-0.025923,-0.025308,0.059531,-0.055173,0.006246,-0.037999,-0.141648,0.073534,0.006967,0.215783,0.039532,0.062277,-0.087227,-0.131102,0.016746,0.153474,-0.124417,0.083598,-0.082271,0.254581,0.095951,0.036489,0.137683,-0.119196,0.148924,0.010629,-0.122924,-0.003755,-0.164816,0.019068,0.165403,0.105037,0.003178,0.112309,-0.132186,-0.012868,-0.067269,-0.015914,-0.039555,-0.005627,-0.175156,-0.196250,0.012154,0.009852,0.074543,-0.074078,0.105043,-0.086742,-0.022884,0.030673,-0.044499,0.108813,-0.059340,0.056707,-0.016861,0.067636,0.159543,0.016349,0.147855,0.057039,-0.149588,0.096633,0.045380,-0.140796,0.016581,0.083895,-0.173295,0.035419,-0.026783,-0.100260,-0.139813,-0.013346,0.221130,-0.163651,-0.106268,-0.046997,-0.126161,-0.008748,0.104117,0.038039,-0.002833,-0.000195,-0.069077,0.298716,-0.006145,0.137727,-0.080944,0.000786,0.054645,0.076850,0.203475,-0.018673,0.146549,-0.081564,0.080763,0.158566,-0.128369,-0.145131,-0.099117,-0.186545,0.028212,0.117135,-0.130235,0.121047,0.052927,-0.024232,0.257451,0.100051,-0.053921,-0.049770,0.162048
-0.001511,-0.104688,0.115589,-0.021466,0.089707,-0.021975,0.047255,-0.095803,-0.087756,-0.060378,-0.009946,-0.124691,0.131018,0.004695,-0.021231,-0.089908,-0.003123,0.009378,-0.085533,-0.032943,0.019142,0.051234,-0.070423,0.114854,0.049452,-0.030575,-0.157565,-0.066640,0.050154,-0.113552,-0.166471,0.079618,0.083620,-0.007855,0.085008,-0.113762,0.167679,-0.001813,0.178808,0.082621,-0.121402,-0.177582,0.021116,-0.001380,-0.050242,-0.125624,0.082342,0.005061,0.038604,-0.160156,0.192347,-0.158120,-0.083433,-0.074605,-0.079943,-0.054913,0.134049,0.093054,0.047799,-0.016045,-0.133891,0.080548,-0.002531,0.055179,-0.274413,0.027095,0.019716,-0.091887,0.076296,0.051497,-0.037719,0.035360,-0.080774,0.155437,-0.020860,0.046131,0.248116,0.038490,-0.063869,0.092362,0.208348,0.097502,0.063064,-0.055851,-0.031824,0.157138,0.014264,0.030912,-0.039785,0.036810,0.041080,0.168135,0.036325,0.041325,-0.022968,0.168691,-0.031254,-0.116689,-0.034776,-0.021118,-0.164997,-0.156294,0.026448,0.016789,-0.118413,-0.064738,-0.078623,0.042862,-0.052887,-0.016285,0.042062,0.111099,-0.156527,-0.003339,-0.043935,0.017468,0.122242,0.116945,0.005557,-0.042204,0.045397,0.089022,-0.120961,-0.242100,0.126705,-0.090103,-0.091514,-0.134532
-0.141097,-0.145426,-0.151605,-0.027036,-0.091687,0.001076,-0.136700,-0.001961,0.123763,-0.094603,-0.004814,-0.070705,-0.046502,-0.119340,0.052945,-0.022482,-0.004895,-0.015974,-0.018613,-0.053684,0.186473,0.052614,0.075176,-0.049067,0.080462,-0.048413,-0.084392,-0.019845,0.060052,0.052393,0.078846,-0.043038,-0.091831,0.054120,-0.071483,-0.009109,-0.005289,-0.131989,0.070142,-0.036303,-0.090715,0.116804,0.115266,-0.046702,0.026808,-0.056981,0.014035,-0.024376,0.007482,-0.031061,-0.110120,0.018332,0.030312,0.067637,0.173967,0.131253,-0.007703,-0.037955,-0.087660,-0.038313,-0.018783,0.094547,-0.017266,-0.008822,-0.029338,0.017397,-0.032984,0.079726,0.030459,0.043077,0.083020,-0.005836,0.012889,-0.032111,-0.119986,0.067021,-0.000218,0.008827,-0.062997,0.019928,0.064170,-0.054907,0.132148,-0.044849,-0.030123,-0.079877,0.128434,0.016043,-0.011030,0.045609,-0.043889,-0.005064,0.111114,-0.040221,-0.063878,-0.102554,0.048355,-0.061215,0.054384,-0.072691,0.028378,-0.144535,-0.076760,-0.060375,0.057008,-0.035916,-0.095117,0.026567,-0.069108,-0.091290,0.164878,-0.048568,0.022248,0.033177,0.001703,0.053914,0.091075,-0.047411,0.134111,-0.060487,0.031858,-0.003286,0.086243,-0.044070,-0.044319,-0.113522,-0.020521,0.062309
-0.014582,-0.000518,-0.032370,0.106467,-0.132868,0.084712,-0.028162,-0.041840,-0.054237,0.108757,0.029594,-0.002661,-0.010155,0.062859,-0.027991,0.025004,0.089765,0.065505,0.019402,-0.019609,-0.056387,-0.048839,-0.097620,0.083577,-0.053132,-0.028299,-0.120756,0.150992,-0.128731,-0.013480,0.068829,-0.038638,-0.155941,0.039983,-0.019783,-0.041394,-0.056089,-0.051722,0.084153,-0.024160,0.039736,-0.043744,0.038935,-0.033152,0.058840,0.041506,0.096656,0.014030,-0.093635,0.045908,-0.072385,0.084355,0.003256,-0.029787,-0.062454,-0.019275,-0.048632,0.112140,-0.020644,-0.021919,0.086511,-0.159100,-0.054436,0.036004,0.056363,0.086110,0.118112,0.087522,0.026549,-0.036678,0.023755,0.038106,0.063716,-0.002617,0.104970,-0.051783,0.045955,-0.061743,-0.011263,0.060354,0.019810,0.114139,0.048974,0.138729,0.031330,0.075809,-0.010641,0.038942,-0.022307,0.056555,0.082649,0.144820,0.111742,0.036511,0.079118,0.038136,0.095426,0.204985,-0.065872,-0.022224,-0.167132,0.037303,-0.000340,0.124012,-0.039779,0.146722,0.085573,-0.138214,0.054390,-0.033982,-0.103840,-0.050236,0.005388,0.126320,0.020565,-0.013181,-0.040423,-0.048909,-0.087043,0.071768,-0.092780,0.034298,-0.142937,-0.102528,-0.012613,0.076472,0.062612,0.031854
-0.005959,0.126473,-0.020978,-0.022311,-0.221563,-0.157292,-0.043131,-0.032564,-0.012446,0.071099,-0.145829,-0.160137,0.051355,0.080613,-0.175669,0.057311,-0.094538,-0.031941,0.077750,0.087108,0.085214,-0.076298,-0.117315,-0.033825,-0.080951,-0.013557,-0.077980,-0.029792,0.057703,0.062370,-0.273092,-0.030141,-0.068201,0.105627,-0.101995,0.144169,0.004085,0.054316,-0.118648,-0.014161,0.059832,-0.032772,-0.083430,0.127123,-0.064221,0.033349,0.104092,0.047461,0.062304,0.237187,-0.016720,0.027682,0.065516,-0.103495,-0.007998,0.175652,0.136754,-0.031849,-0.184373,0.135891,0.042404,-0.030844,0.068156,-0.063973,0.057227,-0.294337,0.020711,-0.033528,-0.037010,0.017149,-0.089935,-0.129535,-0.139620,0.065280,0.055953,-0.149332,-0.148488,0.087281,0.029053,-0.129869,-0.034503,-0.134141,-0.004674,-0.016176,0.247524,-0.159431,0.058032,0.053599,-0.038638,-0.199018,-0.184408,0.042577,0.077165,-0.023569,0.068584,0.160110,-0.358828,-0.063633,-0.033835,0.079973,0.083293,0.000315,-0.088835,0.155320,-0.067407,0.091710,-0.159165,0.139855,0.007412,0.177117,0.090503,0.061442,0.151801,0.011648,0.121316,0.050054,-0.043176,-0.206671,0.073411,0.027533,0.004196,-0.013071,0.164642,-0.028137,0.005740,-0.092032,-0.325143,0.060915
0.063373,-0.016182,-0.113495,-0.092999,0.006383,-0.040992,0.110590,0.041192,-0.062873,-0.074882,0.080098,-0.009916,0.087839,0.010323,-0.156484,0.121460,-0.040923,0.062683,0.101541,-0.008073,-0.034409,0.062659,0.058748,-0.129231,-0.064931,0.021944,-0.010936,-0.210009,-0.015664,-0.149270,-0.126154,0.002954,0.151996,-0.078812,0.135758,0.015946,0.073487,-0.011723,-0.000698,0.055983,0.077392,-0.035632,0.011747,0.006407,-0.082259,-0.169802,-0.032100,0.017588,0.035689,0.129069,-0.091345,-0.037456,0.114512,-0.100678,-0.014239,0.057287,0.052125,-0.000930,-0.085781,0.073679,0.013108,-0.005441,0.119974,-0.025479,-0.026105,0.006700,0.041150,-0.018914,0.056174,0.091693,-0.059907,0.041368,0.051979,0.095651,0.178318,-0.060673,0.045190,-0.070355,-0.048059,-0.004474,-0.086061,-0.038854,-0.047266,-0.032526,-0.095523,-0.038418,-0.105741,0.036977,0.207157,0.162586,0.032847,0.124910,0.167852,-0.149066,0.056820,0.061865,0.100250,-0.002001,-0.027176,0.067787,0.154628,-0.133818,0.101120,-0.316990,-0.021173,-0.112393,0.095028,-0.120997,0.073167,0.012013,0.054572,0.056277,-0.072353,0.034884,-0.045545,-0.117794,0.038623,-0.050850,0.012745,0.027584,0.043099,-0.012134,-0.066931,0.070207,0.191453,0.137208,-0.089186,-0.029233
-0.216043,0.070727,-0.090083,0.001720,-0.200889,0.082549,-0.157996,0.144571,0.097468,0.028905,-0.109559,-0.040256,0.064325,0.058708,-0.096022,0.075104,-0.044154,0.055435,0.004070,-0.030362,-0.054768,-0.023513,-0.069761,-0.044094,-0.024030,-0.130931,0.084962,0.009481,0.103009,0.010755,0.030773,-0.024975,0.078013,0.070008,0.028552,-0.166562,-0.088951,-0.104315,-0.053027,0.015254,0.079053,-0.200982,-0.018655,0.125131,0.167203,0.024794,0.096874,0.059370,0.045936,0.106537,0.026199,-0.039040,0.048008,-0.172498,-0.035956,-0.006396,-0.110689,0.042181,0.027843,-0.088564,-0.121005,-0.023187,-0.038206,0.040072,0.089261,-0.101060,-0.010808,-0.083392,-0.120623,-0.218520,0.153565,0.014396,0.053579,0.001933,0.174156,0.032325,-0.118114,-0.049149,0.124763,-0.072628,0.053453,-0.018464,0.030134,0.076147,0.000370,-0.027132,-0.111250,0.006675,-0.019560,0.209256,-0.171063,0.020692,-0.005906,-0.064755,-0.018370,0.201806,0.071226,0.176529,0.105512,-0.052588,0.038357,0.122360,0.086548,-0.095210,0.024148,-0.044303,0.061274,-0.109576,-0.058031,0.007130,-0.006278,0.095381,0.028412,-0.024455,-0.016193,0.090454,0.077376,0.150023,-0.034715,0.118387,0.006561,0.186496,-0.156254,0.126350,-0.054350,0.008449,0.053243,-0.050044
0.086551,0.000303,-0.125593,-0.093458,0.025996,0.136133,0.242966,-0.170746,0.032277,-0.054272,-0.078363,0.069531,-0.031139,-0.000056,-0.165336,0.223654,-0.038167,-0.065527,-0.059012,-0.086452,0.027040,0.016964,0.002732,-0.185443,-0.090949,0.059939,-0.033240,0.055624,0.043396,0.007455,-0.055342,-0.056930,-0.117683,-0.119176,0.110140,-0.120443,0.056540,-0.011486,-0.177265,-0.018013,0.236123,0.013388,0.010449,-0.168571,-0.105795,-0.076358,0.067577,-0.058437,0.135096,0.071007,-0.036743,-0.028108,0.031634,0.074274,0.098842,-0.024938,0.036958,-0.190356,0.203258,0.125189,0.009881,0.014333,0.009064,0.232834,0.102090,-0.093149,0.058365,-0.071010,-0.151339,-0.142098,-0.112265,-0.030772,-0.056170,-0.003833,-0.067989,-0.025174,-0.128165,0.091422,-0.005556,-0.047242,0.020536,0.001223,-0.022028,-0.213693,-0.122515,-0.003599,0.146141,-0.063898,-0.209723,-0.076293,-0.015410,0.011802,0.006985,0.109532,0.021454,-0.177838,-0.165140,-0.023368,0.045684,0.152381,0.028629,-0.025348,0.030705,0.055078,-0.021670,-0.047873,-0.210389,0.142374,-0.100885,0.013517,0.055065,-0.135081,-0.055629,-0.205564,0.148729,0.113087,0.035046,0.062402,-0.056265,0.021926,-0.030841,-0.228647,-0.125746,-0.135408,-0.103412,-0.088208,-0.161143,-0.018301
-0.052919,-0.018734,-0.064626,-0.093847,0.081651,-0.016101,0.145150,0.087890,0.062967,0.080924,-0.050776,0.062192,0.216034,0.066230,-0.104353,0.135263,-0.245296,-0.050845,0.069306,0.014043,-0.058463,0.050607,0.131114,-0.043146,0.004427,-0.019617,-0.000713,-0.013062,0.172317,-0.247366,-0.005561,-0.123500,0.033109,0.054519,0.106112,0.052755,-0.058194,-0.000644,-0.036975,0.203735,0.048429,-0.109640,-0.024138,0.067797,0.170488,0.138545,-0.187407,0.110076,-0.180683,-0.218854,-0.096209,-0.053902,0.016362,-0.024850,0.113616,-0.045336,-0.044558,0.147701,-0.041525,-0.100090,0.108488,-0.113358,-0.083586,-0.246786,0.159563,-0.055157,-0.071160,0.011714,-0.098949,0.064188,0.125613,-0.076117,-0.004088,0.117428,0.025033,0.050174,-0.105760,0.015920,0.077193,-0.128387,-0.029845,-0.076763,-0.051741,0.080455,-0.058951,-0.126419,0.152329,-0.184600,0.062656,0.021843,-0.016382,-0.021812,0.095206,-0.113430,-0.089575,0.143780,-0.052541,-0.034323,0.262743,0.010122,0.195458,-0.016260,-0.188385,0.070003,0.037024,-0.025560,0.096239,-0.054593,0.102430,0.035227,0.085163,0.250822,0.092187,0.035909,0.183252,-0.071836,-0.111152,-0.047202,-0.018712,-0.081444,-0.043906,-0.029898,-0.162522,0.084880,0.074176,-0.090136,-0.171168,-0.004667
0.004573,0.005720,0.099864,0.021098,-0.028241,-0.064248,0.050837,0.065019,-0.101874,-0.095357,0.034398,0.015271,0.031455,0.021367,0.082475,0.036045,0.039637,-0.105635,0.009750,0.008655,0.017622,-0.092154,0.053561,-0.072497,0.002421,-0.045846,-0.006210,-0.132675,0.019287,0.003935,-0.089367,-0.053444,0.105480,-0.006894,0.122710,0.070917,0.092523,0.011104,-0.048957,-0.055364,0.024722,-0.061211,-0.013859,0.049011,0.044943,-0.053550,-0.147076,0.059947,-0.057143,0.048567,0.068439,-0.159954,0.059833,0.091967,0.006271,-0.097371,0.029369,0.050644,0.032667,-0.076550,0.017062,-0.041749,0.114307,0.075067,0.038380,-0.046150,-0.203543,0.013009,0.099278,-0.002440,-0.033280,0.118663,-0.011211,-0.112335,0.050262,0.001514,0.026192,-0.135724,0.017078,-0.136218,-0.073774,-0.032147,0.126661,-0.034151,-0.025411,-0.095609,-0.103536,0.025868,0.039576,0.018673,-0.068672,-0.055733,-0.105257,-0.063770,-0.030723,0.028123,-0.063176,-0.051574,-0.032542,-0.058876,0.015527,-0.033942,0.001124,-0.133838,-0.056470,-0.144933,0.152547,-0.072339,0.066394,-0.019506,0.041785,0.131365,-0.010958,-0.055506,-0.099138,-0.085421,0.019425,0.035162,-0.026686,-0.094656,0.073835,-0.107837,-0.128744,0.082674,0.000148,-0.016684,-0.038393,-0.051259
0.091718,-0.041412,-0.188072,0.101073,-0.015075,0.081444,-0.073962,-0.114712,0.052912,-0.018638,-0.094504,0.161154,-0.021735,-0.170303,0.045379,0.034108,0.142620,0.099354,0.095934,0.079516,-0.015575,-0.019387,-0.214650,0.028711,-0.013655,-0.003201,0.040112,0.008322,0.068733,0.132856,0.138330,-0.050256,0.105229,0.142010,0.093939,0.088688,-0.077130,0.026102,0.043073,-0.068318,-0.186146,0.131036,-0.121696,-0.089825,-0.014053,-0.118867,0.015708,0.085408,-0.068829,-0.089485,-0.071965,0.024703,-0.095701,0.027435,-0.002956,-0.024450,0.097144,0.225504,0.042641,-0.014498,0.009142,0.022096,-0.122272,0.070565,0.028467,0.091548,0.015428,0.214155,0.005352,-0.141178,0.175220,-0.045330,0.032961,-0.126067,-0.169431,0.243661,-0.010030,0.075934,-0.063655,-0.078734,-0.055368,-0.080657,-0.035621,-0.013091,0.039779,0.007756,0.122860,0.043042,-0.141958,0.036179,0.066101,0.071412,-0.033461,0.226527,0.074318,0.021656,0.038634,0.004755,0.144289,0.063573,-0.121389,-0.039536,-0.038067,0.118235,-0.046214,0.002182,0.057062,0.063251,-0.159176,-0.014609,-0.097702,-0.097586,0.029158,0.138377,0.122357,0.054340,0.107081,-0.129739,-0.008116,0.117384,-0.010113,-0.039730,-0.015129,0.027850,-0.016551,-0.012703,0.100314,-0.021716
0.002899,0.035199,0.069327,0.115975,0.035300,0.016900,-0.108239,0.032221,0.068259,0.003656,-0.071036,-0.036315,0.147786,-0.006284,-0.084591,0.115579,0.104917,0.062850,-0.013020,0.219710,0.128219,-0.064654,0.098452,-0.000570,0.122957,0.062202,0.155731,0.078143,0.060325,0.003933,-0.107016,0.185057,-0.071875,0.168954,0.045335,0.078995,-0.124613,0.074400,0.024405,0.060883,0.026365,-0.121482,-0.095543,-0.041015,-0.009116,-0.172636,0.044847,0.142775,-0.072894,-0.021327,0.156680,0.062174,0.018852,0.007622,0.053873,-0.040246,0.049377,0.122277,0.110384,-0.071724,0.069364,-0.004260,0.039236,-0.016181,0.126221,0.059938,-0.073343,-0.027601,-0.032480,0.049557,0.004570,0.038969,0.092752,-0.193276,-0.055171,0.065512,0.097741,-0.230373,0.033998,0.107000,-0.142085,-0.009609,-0.029870,0.134876,-0.003774,0.033140,0.069070,0.114809,-0.016563,-0.094795,0.105574,-0.027303,-0.015554,0.057115,-0.102024,0.043695,-0.032986,-0.005749,-0.031307,0.072967,-0.110721,0.158834,0.082059,-0.147135,0.103307,-0.061972,0.042308,-0.068413,-0.007596,-0.122966,0.076590,-0.130197,0.063771,-0.069205,0.139329,-0.081634,0.049437,-0.092887,-0.069801,0.042322,-0.048999,-0.000546,0.081894,0.007717,-0.051322,0.057275,0.193156,-0.042657
0.038193,0.010750,-0.038031,0.061493,0.040176,0.036121,0.031528,0.072786,-0.105573,-0.109823,0.147360,0.141836,0.016026,0.047362,0.025386,-0.067345,-0.031400,0.013269,-0.135904,-0.022921,0.109615,-0.020196,-0.167050,-0.263669,0.293436,0.028474,0.126168,0.023856,0.100266,-0.181811,-0.104810,0.057124,-0.041759,0.108345,0.252743,0.113950,-0.111773,-0.062090,-0.143932,0.030829,0.174227,-0.084345,-0.038562,-0.016480,0.101534,-0.043846,-0.097147,-0.102439,0.250294,0.034275,-0.053895,-0.165308,0.107047,0.247794,-0.073091,0.006049,0.063705,-0.062971,0.062248,-0.152481,0.014665,-0.026361,0.018932,0.049121,0.004359,-0.081317,-0.152844,-0.218047,-0.044134,-0.060790,-0.019864,0.060779,-0.074630,0.056393,0.032203,0.082030,0.025460,0.024113,0.011886,-0.012362,-0.163352,0.079953,-0.002393,-0.089482,0.176474,-0.078982,0.020805,-0.008581,0.093279,0.052358,0.020913,-0.121920,-0.039378,0.071058,0.150954,-0.066184,-0.051272,0.066414,-0.045775,-0.127387,0.124230,-0.162665,-0.194669,-0.004244,-0.006753,-0.068742,-0.051623,0.116044,0.015328,0.015143,0.007981,-0.031876,0.090197,-0.187312,-0.005559,-0.048307,-0.035797,0.014726,-0.037546,-0.120032,0.094207,-0.008182,-0.061454,-0.060592,0.012740,-0.063441,0.012516,-0.077694
-0.065186,0.092500,0.072881,-0.094864,0.001645,0.023278,0.154197,0.057812,0.027383,-0.045180,0.065039,-0.024776,0.017211,0.151886,-0.022249,0.091497,0.057698,0.009979,-0.121130,0.126638,0.039114,-0.047895,-0.009405,0.034495,-0.144783,-0.111025,-0.081046,-0.101174,0.004075,-0.002681,0.043098,-0.043189,0.015245,-0.129136,0.044091,0.007228,0.091171,-0.071372,-0.161359,0.039273,0.188408,0.037187,-0.042437,0.068530,0.041601,-0.038036,-0.016888,-0.024525,0.032852,0.116613,-0.062107,-0.041828,-0.024471,-0.058580,0.200118,-0.015680,0.004395,0.066717,-0.014909,-0.021952,-0.032760,0.184052,0.025204,0.021545,0.117839,-0.067149,0.062341,-0.017247,-0.271903,0.078482,0.010583,-0.114281,-0.015854,0.004479,0.066835,0.054840,-0.044702,-0.037372,0.077396,-0.159059,0.079316,-0.007290,0.057256,-0.044956,-0.089097,-0.008778,-0.075497,-0.022577,0.099815,0.011346,-0.038728,0.150081,0.023807,0.065114,-0.045180,-0.033273,-0.134785,0.023777,0.055874,-0.055526,0.160736,-0.108927,-0.060450,-0.020693,-0.008446,-0.035598,0.117427,-0.054011,-0.071318,0.094078,0.045160,-0.019232,-0.018286,-0.080547,-0.145400,-0.001435,0.141030,0.093226,-0.117550,-0.138211,-0.147043,-0.043770,0.011967,0.101679,0.020357,0.038341,-0.032038,-0.008760
-0.201627,-0.146140,-0.090294,-0.079764,-0.064618,0.093347,-0.192100,0.050587,-0.158693,-0.009211,0.036062,-0.019715,-0.131161,-0.001858,-0.044763,0.057911,0.127624,0.042745,-0.153024,0.034584,0.081668,0.000047,-0.056532,-0.168011,0.163070,-0.043323,-0.018119,0.077741,0.141790,-0.040283,-0.253392,0.046903,-0.070519,0.107199,0.146136,0.062643,-0.116753,-0.061427,-0.121422,-0.075422,-0.113307,0.022454,-0.092883,-0.007549,0.028545,-0.127451,-0.030278,0.122106,0.092343,0.210225,0.114896,-0.029322,0.050019,0.143030,-0.021634,0.046197,0.076096,0.154471,0.048847,-0.100373,0.026904,0.065021,0.056979,0.017461,0.054574,0.030576,-0.139249,-0.126680,0.201954,-0.084001,-0.025241,0.190339,0.140312,-0.257252,-0.000954,-0.010357,0.052096,-0.244438,-0.039321,0.071517,-0.142220,0.166032,-0.027264,-0.100142,0.166072,-0.191941,-0.147046,-0.006007,-0.003858,0.118509,0.105245,0.192982,0.000698,-0.137659,0.059295,0.063220,0.029400,0.220676,-0.114513,0.090319,0.034472,-0.027168,-0.011220,-0.150397,0.084958,-0.078545,-0.079967,-0.143420,-0.013402,-0.018920,0.036267,-0.159443,0.125426,-0.082819,0.026328,-0.029967,-0.048905,0.030774,-0.179799,0.131484,-0.051024,-0.034790,-0.018245,0.036576,-0.163577,0.153274,0.050554,-0.087157
0.084386,-0.008577,-0.003552,-0.048605,0.011285,0.089591,0.005023,0.032187,-0.076285,-0.053643,-0.076529,-0.000630,-0.031992,-0.008888,-0.060405,-0.050088,0.071489,0.071313,-0.042428,-0.033446,-0.051474,0.010041,-0.031064,0.004480,0.011425,0.069283,0.038551,0.011893,-0.005191,0.050247,0.018716,0.080008,-0.017523,0.134778,-0.122365,0.030916,-0.037027,-0.046049,0.033369,0.098362,0.015463,0.057756,-0.070784,-0.051927,-0.105389,0.005836,0.029181,0.019294,0.006759,-0.009244,0.030607,0.055236,0.014230,-0.022796,0.051704,-0.015080,0.042398,0.012984,0.033752,0.087096,-0.003580,-0.012373,0.014316,0.095537,0.037158,0.020894,0.020916,-0.138844,0.004910,-0.040080,-0.069182,0.007569,-0.025823,-0.048676,-0.009928,-0.038714,0.060114,0.039257,0.015158,0.136439,-0.057577,0.106763,0.022375,-0.037214,0.047173,0.017580,-0.033338,0.010217,-0.055468,0.059132,0.044714,0.013896,-0.059375,0.033042,0.045759,-0.044519,0.066436,0.040281,-0.068894,-0.012220,-0.108345,0.036021,0.090535,0.097123,-0.025955,0.018407,-0.081814,-0.030426,0.008355,0.041940,-0.000556,-0.044197,-0.008203,0.004232,-0.046878,-0.002411,-0.008927,0.064166,-0.005378,0.067297,-0.069203,0.036368,0.016909,-0.042164,0.062344,-0.101815,-0.033538,-0.023991
0.009823,0.137288,-0.111450,0.182196,-0.136313,0.034188,0.015579,0.131142,0.136408,0.011659,0.134714,0.157407,0.020655,0.041614,0.005992,-0.080143,0.042481,0.129693,-0.092779,-0.069191,-0.088981,-0.081505,-0.039968,-0.138292,-0.131178,-0.092226,0.094804,0.047038,-0.011314,0.071952,0.110577,0.016875,0.135131,-0.041986,0.129275,-0.015653,0.139891,0.031910,-0.108526,-0.011776,-0.031678,0.065551,-0.031934,0.046066,0.126637,-0.058680,0.112574,0.041412,-0.024978,-0.090876,-0.048661,0.109952,0.038909,-0.044327,-0.273248,-0.095110,-0.147338,-0.084775,0.051564,0.029957,-0.126137,0.162284,0.008897,-0.041894,0.039343,-0.166073,0.045604,0.079753,0.016895,-0.056958,0.034232,0.109913,0.345335,-0.071310,0.101916,0.108399,-0.030474,-0.094415,-0.014993,0.075657,-0.044521,0.000445,-0.012224,-0.090966,-0.025015,-0.017274,0.090562,-0.107117,-0.067113,0.027814,0.045659,0.004956,-0.010847,0.138900,-0.001704,0.118075,0.078820,-0.167693,0.041830,0.016585,-0.015711,0.102274,-0.082839,0.091694,-0.080237,-0.065032,0.097031,0.005532,-0.004678,-0.075468,0.000971,-0.015357,0.097226,-0.061055,-0.075363,0.074450,-0.109094,-0.008698,0.073906,0.021010,0.139077,-0.050981,-0.031191,0.004682,0.053596,-0.115262,0.040141,0.094406
0.088820,0.075320,-0.068346,-0.077365,0.073785,0.074540,-0.121891,-0.007110,0.050060,0.015749,-0.003509,0.094978,0.013369,0.096862,-0.158775,-0.007775,-0.026845,-0.027284,-0.126789,0.031293,0.004543,0.028596,0.018439,0.060733,-0.046735,0.049905,0.099376,0.121325,-0.081161,0.001664,0.066056,-0.049364,-0.078821,0.118973,-0.000127,0.005245,-0.057857,0.056361,0.134024,0.105850,-0.046185,-0.051475,-0.131812,0.013398,-0.049109,0.011959,0.076329,0.060816,0.115898,0.231791,-0.061690,0.043447,-0.038007,-0.096346,0.082487,0.037627,-0.019424,0.113803,-0.018747,-0.093802,-0.013832,0.137454,-0.013558,-0.167651,0.092843,-0.185625,0.038298,0.019497,-0.054069,0.051447,0.052511,0.017942,-0.009072,-0.061092,0.063890,0.142022,-0.035292,-0.015470,-0.028366,0.072215,-0.110132,-0.025949,0.104299,0.093749,0.075348,-0.152206,0.003239,-0.000829,0.031520,0.130098,-0.103142,-0.024461,-0.038103,0.092439,0.062781,0.031208,0.069425,-0.071939,-0.063358,-0.002071,0.081691,0.016660,-0.027846,-0.064963,-0.038711,-0.027526,-0.027414,-0.026777,-0.037814,-0.018201,-0.069958,0.220284,0.059212,0.059610,0.052261,0.087979,-0.025413,-0.085184,0.026301,0.174820,-0.018244,0.015948,-0.040935,0.213968,-0.006877,0.037236,0.010973,-0.087195
0.359804,0.090958,-0.106544,0.003872,0.033840,-0.066248,0.008867,0.092348,0.040351,-0.068077,-0.087127,0.109234,-0.106154,-0.027640,-0.069248,0.031111,0.000060,0.039352,0.179209,-0.125836,-0.074250,-0.102313,-0.042012,-0.047081,-0.041397,0.127216,0.110711,0.099169,0.174568,0.042153,-0.001640,-0.059334,0.038983,-0.116168,-0.005821,0.034450,-0.217152,0.019967,-0.057779,0.025901,-0.153823,-0.026340,-0.002648,0.021317,-0.174613,0.049976,0.013879,-0.056578,0.115883,-0.088666,-0.101808,-0.013640,0.076476,-0.018514,0.001233,-0.176804,0.096945,0.005775,0.045123,-0.147238,0.075678,-0.164573,-0.073653,-0.024039,-0.067750,-0.020993,0.142182,0.093111,0.128009,0.089163,-0.087524,0.017494,0.110068,0.023954,-0.062867,0.108228,-0.053580,0.081263,0.105629,0.141486,0.028679,-0.116016,-0.097800,-0.042477,-0.054342,-0.025035,0.173784,-0.019031,-0.042360,0.080088,-0.115809,-0.278346,-0.086307,0.082602,-0.138488,-0.016769,-0.006254,0.063950,-0.015411,0.062274,-0.095512,-0.015575,0.010064,0.130250,0.062660,-0.006447,0.044115,0.037751,0.005099,0.054214,0.021014,-0.096169,0.101575,-0.034620,0.050128,-0.018354,-0.052046,-0.017611,-0.131163,-0.046634,-0.073777,0.002863,0.024655,0.039737,-0.058626,-0.145496,0.010861,-0.036258
-0.099357,0.074806,0.103600,-0.033538,0.167097,0.192282,-0.066406,-0.008064,0.045011,-0.020407,0.098417,-0.020150,-0.041196,0.053098,0.064804,0.120245,-0.051719,-0.117292,0.105562,0.028636,-0.035734,0.070736,0.067174,-0.089106,-0.114905,0.013789,-0.024243,0.128421,-0.069462,0.028207,-0.049939,0.033071,-0.034611,-0.160553,0.055420,-0.163292,-0.154474,-0.240255,0.068282,-0.143112,-0.174168,-0.100540,0.042623,-0.110445,-0.064727,-0.154305,0.196565,0.073675,0.020505,-0.053847,-0.027412,-0.057523,0.069272,0.011451,0.046773,0.035806,0.021253,-0.121871,-0.042314,-0.036793,-0.045461,0.111384,-0.006511,-0.025621,-0.008038,-0.161127,0.027218,0.165954,0.003976,0.104741,-0.091694,-0.143547,-0.019814,0.069287,0.020620,0.105052,0.095483,0.015242,0.099911,-0.149124,0.064989,-0.051931,-0.012550,0.095245,0.022811,-0.039804,-0.074643,-0.015071,-0.121584,0.000194,0.048367,-0.161965,-0.062749,-0.034889,0.071876,0.187364,-0.018833,-0.089955,-0.022686,0.003813,0.057707,0.053198,-0.006493,0.124461,-0.145669,0.056739,-0.057689,-0.100830,-0.011997,0.014042,0.020218,-0.012473,-0.071470,0.020356,-0.041198,0.013237,-0.011034,0.041571,0.023597,-0.006571,-0.033616,0.096573,0.049137,-0.018612,-0.025947,0.102015,-0.106061,-0.041733
0.042485,0.037190,0.057311,-0.069228,0.018312,0.010332,-0.053159,-0.016440,-0.049562,0.134330,-0.056976,0.074448,0.100630,0.031493,-0.036636,0.064758,0.062260,-0.043185,-0.003008,-0.004706,0.028468,-0.133121,0.035227,-0.074288,0.003990,-0.002272,0.076136,-0.019830,0.086916,-0.024356,-0.056743,0.049122,0.012546,-0.002316,0.120716,-0.022519,0.119264,0.019577,0.047313,-0.031813,-0.081285,0.037237,0.123000,-0.031536,-0.116014,-0.020858,0.107170,0.089811,0.070263,-0.102036,-0.046394,0.019096,-0.037426,0.054577,-0.000443,-0.014510,-0.005471,0.075792,0.004687,-0.077646,0.052345,-0.078491,-0.085585,0.093618,-0.132190,-0.030127,0.058627,0.049912,-0.021418,-0.085021,0.087204,-0.062941,-0.011452,-0.059788,0.033775,-0.023580,0.066440,-0.108000,-0.028505,-0.027028,-0.078085,-0.021498,-0.021524,-0.032860,-0.075681,0.024549,-0.070971,-0.054934,-0.061011,-0.014659,0.039980,0.024207,0.148745,0.048355,-0.051750,-0.034524,-0.032888,0.072387,-0.048914,0.045279,0.066702,0.068835,-0.051068,0.009643,-0.004168,-0.021209,0.121322,-0.004035,-0.000592,0.131469,0.040039,-0.013376,-0.042967,0.169674,-0.035888,0.086939,-0.002489,0.003648,0.014652,-0.033645,-0.073935,0.082950,-0.120441,0.019394,-0.009378,-0.077010,0.010034,0.048150
-0.011110,-0.022282,0.031361,-0.030157,0.066316,-0.021288,0.056117,0.087380,0.030314,-0.020603,-0.205855,-0.027846,0.033724,-0.027208,0.045848,-0.084166,0.019567,-0.058748,-0.064748,-0.028101,0.113624,0.148273,-0.032099,-0.029844,-0.075296,-0.259742,0.040724,0.124564,-0.017236,-0.064156,-0.022813,0.125269,-0.093204,0.013574,-0.097154,0.108029,0.031923,-0.000565,-0.147943,-0.032656,-0.110812,-0.197722,0.018237,-0.010055,0.087372,0.016546,0.133963,-0.025420,0.123357,-0.105324,0.136962,0.050025,0.031837,-0.264921,-0.200269,-0.120736,0.067256,-0.028408,0.120137,-0.078057,-0.092379,-0.127147,0.071861,0.212597,-0.063058,0.014849,0.052201,-0.007613,0.004877,0.017556,0.071252,0.113035,-0.058445,0.015047,0.102582,0.102189,-0.008243,-0.128339,-0.042981,-0.122902,-0.140302,0.075891,0.133907,-0.073761,0.109872,-0.192296,-0.056670,0.016419,-0.028423,-0.080854,-0.099548,-0.022664,-0.161888,0.162891,-0.189729,0.059987,-0.052676,0.029112,-0.033953,0.042130,0.117487,0.027023,0.155555,-0.065059,-0.087728,-0.092437,0.177005,0.023270,0.124250,0.117390,0.084718,0.090642,0.016010,-0.116017,0.006376,-0.098782,-0.094055,-0.034030,-0.024751,0.043295,-0.098781,0.104477,0.073664,0.060890,0.108824,0.045933,-0.141168,-0.139339
-0.166748,0.020310,0.132996,-0.005217,-0.118142,0.112058,-0.135058,-0.032354,0.038998,0.048264,0.047254,-0.194468,-0.000946,0.002644,-0.134514,-0.027999,-0.033659,0.071855,-0.224769,-0.034300,-0.047171,0.039774,-0.195012,0.020306,0.084794,0.069755,-0.083511,0.005081,-0.127396,-0.035435,0.051306,-0.062424,0.038426,-0.065412,-0.027444,-0.054340,0.011005,0.144102,-0.108432,0.055033,0.156795,-0.005623,-0.033408,0.063606,-0.039930,0.086761,0.028741,-0.111596,0.061906,0.161050,0.136853,-0.075228,0.038851,0.001280,-0.134928,-0.002063,-0.065037,0.075253,0.115175,0.035762,0.019377,-0.145934,0.011303,-0.098953,-0.019720,-0.120699,0.065950,-0.244955,-0.040061,0.022268,0.090666,0.104145,0.008820,0.015452,0.088874,-0.127180,-0.155948,0.005641,0.020372,0.023331,-0.012896,0.104669,-0.174120,0.025910,0.078733,0.004506,-0.001292,0.060810,-0.086926,-0.109428,0.046192,-0.030531,-0.071615,-0.079277,-0.129305,0.092291,-0.085766,-0.009553,0.068413,-0.010125,-0.049547,0.092181,-0.051672,-0.043774,0.094352,0.101751,-0.023631,0.015279,-0.070494,0.068643,-0.241661,-0.083213,0.043185,-0.062578,0.102717,-0.110409,0.111778,-0.122178,-0.138011,0.081601,-0.016276,0.035532,-0.096332,-0.039158,0.078809,0.059780,-0.192723,0.199140
0.056348,-0.094571,-0.077640,-0.061587,0.007444,0.014599,0.052316,0.013100,-0.015177,0.007319,0.032277,-0.015898,-0.029646,-0.129040,-0.059102,0.097353,-0.071174,0.086885,0.040645,-0.110406,-0.029704,-0.155778,0.087864,-0.069258,0.039709,-0.041947,0.085261,-0.045704,-0.116894,0.115939,0.080182,-0.175706,0.278914,0.117314,0.126700,-0.046427,-0.062145,-0.215776,-0.086665,-0.083264,-0.070813,-0.114283,0.074726,-0.053106,0.181554,0.086970,0.005640,0.077697,0.029969,0.062656,-0.087874,-0.122061,0.010011,0.253333,-0.128744,-0.089034,-0.093391,-0.156262,0.031376,0.070838,-0.050184,0.043796,0.099601,-0.077511,-0.143991,-0.177257,-0.098866,0.049312,0.083653,-0.021148,-0.061591,0.017802,-0.053762,0.100572,-0.081718,0.004848,0.075418,0.006008,0.041759,-0.112748,0.213760,-0.015613,-0.017010,-0.102243,0.055583,-0.002359,0.036064,-0.032038,-0.053587,0.116832,0.020890,0.000497,0.128290,-0.086277,0.156238,0.102538,0.049224,0.077596,0.011283,0.193253,-0.046673,-0.040635,-0.052701,-0.034382,-0.091252,-0.008873,-0.129693,-0.015666,0.139256,-0.164439,-0.170515,0.210277,-0.075720,-0.133238,0.225083,0.173185,-0.084473,0.050134,0.140091,-0.134787,0.001191,0.070047,0.036835,0.112660,-0.190301,0.041519,-0.088420,-0.060525
0.131561,-0.016190,-0.019683,0.122486,0.051837,0.193586,-0.059443,0.088202,-0.019033,-0.095893,-0.050066,-0.024964,-0.038168,-0.084449,0.013663,0.148369,-0.029438,0.051422,0.027101,-0.009674,0.055204,-0.055210,0.054708,-0.042236,-0.057072,-0.037607,0.123556,-0.041584,-0.090694,-0.129891,-0.051622,0.068690,-0.029904,0.020063,0.018349,0.051944,-0.072751,-0.038018,-0.052135,0.044265,0.014593,-0.030230,-0.062352,0.058782,-0.055975,-0.058298,-0.027644,0.023903,0.089715,-0.011199,0.021658,-0.125846,0.111286,-0.089866,0.020977,0.082101,0.051967,0.023972,-0.018942,-0.144662,-0.092330,0.110989,0.016463,-0.059005,0.108754,-0.115946,-0.153628,0.079500,-0.063576,0.072879,0.029762,0.008975,-0.063784,-0.039117,-0.062483,-0.006785,0.125927,-0.068148,-0.065005,-0.090098,-0.070590,-0.001854,-0.030855,0.042064,-0.053660,0.046744,-0.059372,-0.005691,0.080887,0.024659,-0.022362,0.020396,-0.049157,0.055125,0.132702,0.092163,0.042383,-0.215717,0.094217,0.003983,0.080176,0.067915,-0.025407,-0.114696,-0.029745,-0.143811,-0.101422,-0.040603,0.106709,-0.040106,-0.110678,0.045697,0.032499,0.009869,0.017404,0.052998,0.083574,-0.071797,0.125834,0.085661,-0.041730,-0.179877,-0.083659,0.069132,-0.010847,0.044056,0.107224,-0.013882
-0.059194,-0.018002,0.103694,0.147727,-0.122820,-0.081780,-0.013084,-0.079435,0.005340,0.033571,-0.023550,-0.007506,-0.120788,-0.017487,0.008955,0.156200,0.062303,-0.044307,-0.043828,0.076164,0.048443,-0.118238,0.111801,0.086334,-0.083741,0.109116,0.015640,0.093065,0.086815,-0.074157,0.100206,0.124250,0.017814,0.150311,0.029022,0.020156,-0.037482,0.208609,-0.281686,0.063812,-0.129271,0.045590,-0.038417,-0.080791,0.040042,0.056643,-0.055707,0.185765,0.108836,-0.022923,-0.012446,0.107725,-0.087907,0.016501,0.034636,0.084021,-0.027766,0.049886,-0.003507,-0.027791,0.065572,-0.019119,-0.109476,0.042231,0.003405,0.022046,0.177847,-0.037542,-0.033567,-0.148860,0.070917,-0.037159,0.076248,0.091004,0.153195,-0.023286,-0.116607,0.113954,-0.007294,0.170960,-0.047991,0.144862,0.165381,0.129034,0.087040,0.106870,0.013624,-0.038790,-0.080162,-0.111718,0.199502,-0.049076,-0.006598,0.020555,0.057979,-0.111933,0.100971,0.083369,-0.114371,-0.000391,0.033218,0.146644,0.058414,0.096909,-0.074563,0.113502,0.129760,0.113510,-0.125710,-0.097004,-0.118113,0.307015,0.140158,0.017247,0.023545,0.120119,-0.149420,-0.063065,-0.079844,0.055519,-0.156339,-0.025540,0.080005,0.087344,-0.140215,0.011075,-0.009728,-0.024167
0.042073,0.130821,-0.014704,-0.122926,-0.081010,-0.027638,0.141715,-0.064945,0.076599,-0.038204,0.043819,-0.123994,-0.027920,0.066361,-0.093066,-0.005986,-0.047872,0.030289,-0.244302,-0.101920,0.019987,0.139869,-0.051840,-0.156772,-0.067194,0.020672,0.178143,0.066017,0.008768,-0.067736,-0.029077,0.003514,-0.103739,-0.094835,-0.062014,-0.003237,0.122367,-0.009500,-0.130052,-0.085360,0.085458,0.066508,-0.069282,0.006594,0.018813,-0.098808,0.012622,0.053971,-0.012950,0.034460,-0.005748,0.120240,-0.019173,-0.023838,0.120161,0.128751,0.002071,-0.170709,-0.033353,-0.039839,-0.162791,0.076308,0.085799,-0.080280,-0.079634,-0.181220,0.174295,0.073770,-0.142603,0.120472,0.047965,0.008910,-0.063715,0.113401,0.069621,-0.026311,-0.063567,-0.025790,0.025092,0.214047,-0.015098,0.055652,0.221880,-0.037651,0.324695,-0.108859,0.066573,0.021607,-0.034761,-0.104812,-0.132312,0.030903,0.047718,0.024708,-0.167756,0.015703,0.100107,-0.115268,-0.128725,-0.048786,-0.043166,-0.059347,0.013471,-0.269323,-0.073901,0.017878,-0.131728,0.041602,-0.038675,0.170664,-0.020341,0.027162,0.014678,0.004890,0.206047,-0.126858,-0.035104,-0.113327,0.089501,0.112716,-0.045582,0.025364,0.029274,0.116606,-0.010555,0.010537,-0.047916,0.044190
-0.125811,0.023809,0.012065,-0.123589,-0.162227,0.034374,0.050327,0.119891,0.105884,0.043969,-0.030895,0.043660,-0.081854,-0.050906,0.095565,-0.124517,0.003948,0.163881,0.038609,0.152591,0.077309,-0.019304,-0.037770,0.007256,0.145391,0.060883,0.142543,0.031234,0.052738,0.078768,0.017922,0.032845,0.051818,0.049867,-0.087167,0.048590,0.021443,-0.034429,-0.111955,-0.127900,0.001193,0.033081,-0.119938,0.046371,0.026991,-0.105218,0.028319,-0.120782,-0.178586,-0.016150,-0.150796,0.047098,0.047814,-0.027863,0.080398,0.082402,0.047538,0.111992,-0.029690,-0.075342,0.317893,0.049365,-0.018618,-0.142506,-0.056578,-0.081681,-0.108448,0.161093,0.021771,-0.148450,-0.054444,0.085288,0.132262,-0.077116,0.128618,0.002383,0.057495,-0.211760,0.074775,0.007793,-0.116889,0.122456,-0.012579,0.183589,0.041855,-0.273521,-0.088225,-0.025222,-0.190905,0.036895,0.016755,0.000077,-0.063054,-0.024841,0.058913,0.028555,0.016119,-0.008918,0.046127,-0.022810,0.107361,-0.045363,0.008560,0.183069,-0.001454,-0.100436,0.001949,-0.036595,-0.142770,0.043706,0.020894,-0.013627,-0.092891,-0.153658,0.007478,0.165880,-0.061381,-0.018275,0.008182,-0.009529,-0.044362,-0.096332,0.042400,-0.115885,-0.099444,-0.040333,-0.106284,0.084493
-0.034170,-0.080218,-0.094285,0.041145,-0.087556,-0.122125,0.095565,-0.047721,-0.160476,-0.107327,0.044855,-0.100456,-0.062861,0.007491,0.093863,0.059430,-0.042927,-0.003759,0.018552,-0.054925,-0.077301,-0.014068,0.005196,0.039455,0.030761,-0.024752,-0.063555,0.058379,-0.008407,0.198525,-0.025116,0.004892,0.096985,-0.032854,-0.046776,-0.037131,0.108007,-0.094047,0.030060,0.005490,-0.080178,0.026657,-0.035734,-0.131441,0.203983,0.053065,0.082843,-0.049441,0.045724,0.137422,-0.142549,-0.037881,0.071032,-0.027793,-0.042379,-0.159364,-0.107666,0.092049,0.106089,-0.137944,-0.103793,-0.100653,0.006873,-0.059725,-0.083998,0.092461,0.041053,-0.003309,-0.021343,-0.070464,0.017303,0.086664,0.026745,-0.087508,0.143989,0.000623,0.022418,-0.004969,-0.101456,-0.058215,0.023771,-0.001860,0.024533,-0.109591,-0.176872,-0.141011,-0.002489,-0.135414,0.073930,0.105564,-0.160040,0.138180,-0.078684,0.215327,0.000161,0.081764,0.065536,0.120149,-0.053249,-0.136209,0.020806,-0.041668,-0.060407,-0.047532,-0.128084,-0.079006,-0.008527,-0.220179,-0.113773,-0.049904,-0.035808,0.008328,0.035076,0.020192,-0.029357,0.007999,0.051220,0.172170,0.123964,-0.027883,0.003846,0.049353,-0.054166,0.079527,-0.041196,-0.067097,0.069872,-0.120134
0.014796,-0.073696,0.012483,-0.076553,-0.018959,0.028489,0.073752,0.005922,0.063633,-0.077588,0.009446,-0.099025,0.081640,-0.002633,-0.002646,0.076281,-0.020864,0.136520,0.064804,0.006749,0.070149,0.017639,-0.085896,0.060328,0.254844,-0.072526,0.116285,0.030921,-0.118380,-0.094813,0.063001,-0.080748,0.095253,-0.075562,0.019404,0.054093,0.142725,0.218167,-0.131676,0.058800,-0.061990,0.053313,0.077856,0.025019,-0.047387,0.026294,-0.136255,-0.070045,-0.034997,0.066709,-0.218445,0.071653,0.248200,0.034123,-0.020529,-0.126513,-0.137828,0.027022,-0.012620,-0.073059,0.020028,-0.228848,0.132181,-0.049901,0.040301,-0.020955,-0.115901,-0.073051,0.019421,0.084533,-0.099350,0.060338,0.039247,0.046735,0.078505,-0.187166,-0.063698,-0.032248,0.091378,0.017140,0.020173,-0.042661,-0.058256,-0.082108,-0.014923,0.062353,0.036272,-0.049557,0.001492,0.132074,-0.153391,0.055628,0.052773,-0.004754,-0.136295,0.030771,0.014674,-0.039573,-0.057142,0.178295,-0.076102,0.096353,0.075670,0.038628,0.035463,0.026998,-0.074941,-0.164763,-0.022531,-0.003425,0.057974,0.097463,0.180737,-0.070206,-0.009147,0.131590,0.033399,0.075502,-0.045315,0.113625,0.026118,0.052778,-0.041855,-0.022141,0.002199,-0.023065,0.041097,0.089249
0.071645,0.075049,0.147592,-0.039820,0.014028,0.065075,-0.033814,0.144705,0.153103,-0.102748,-0.018483,0.003407,-0.055098,0.022355,0.024023,0.154833,0.173368,0.112703,-0.029977,0.028813,-0.110706,-0.110768,-0.074084,-0.083104,-0.087778,-0.155786,-0.017939,0.057817,0.018380,0.123966,-0.119211,-0.016269,-0.002656,0.033166,0.067917,-0.064390,-0.037162,0.007676,-0.092801,-0.028012,0.080905,-0.075056,0.142011,0.081304,-0.125943,-0.100956,-0.050943,0.154541,0.030842,-0.040800,0.012502,-0.023218,-0.160407,0.007349,0.095230,-0.101300,0.074020,-0.029474,0.121347,0.011403,-0.157525,0.132052,0.081127,-0.099169,0.001929,-0.082479,-0.027955,0.130479,-0.062802,-0.001596,-0.095136,0.006947,-0.052200,-0.008145,-0.139096,-0.062330,0.076659,-0.133548,0.167821,0.074761,-0.095449,-0.139575,0.055003,-0.101966,0.070277,0.030000,0.046641,-0.078968,-0.027287,0.046384,0.163420,0.075311,0.051604,-0.017634,-0.193490,0.021297,-0.180072,-0.147741,0.123792,0.123072,-0.105291,0.272360,-0.098740,0.010290,0.179644,-0.054543,0.093181,-0.156895,-0.014834,0.097858,0.069503,-0.129269,-0.096199,0.090964,-0.152600,0.052889,0.164164,-0.148627,-0.067511,-0.027895,-0.043877,0.063453,-0.014643,0.091402,0.019718,-0.111052,0.087216,0.113235
